/* Generated by Edge Impulse
*
* Permission is hereby granted, free of charge, to any person obtaining a copy
* of this software and associated documentation files (the "Software"), to deal
* in the Software without restriction, including without limitation the rights
* to use, copy, modify, merge, publish, distribute, sublicense, and/or sell
* copies of the Software, and to permit persons to whom the Software is
* furnished to do so, subject to the following conditions:
*
* The above copyright notice and this permission notice shall be included in
* all copies or substantial portions of the Software.
*
* THE SOFTWARE IS PROVIDED "AS IS", WITHOUT WARRANTY OF ANY KIND, EXPRESS OR
* IMPLIED, INCLUDING BUT NOT LIMITED TO THE WARRANTIES OF MERCHANTABILITY,
* FITNESS FOR A PARTICULAR PURPOSE AND NONINFRINGEMENT. IN NO EVENT SHALL THE
* AUTHORS OR COPYRIGHT HOLDERS BE LIABLE FOR ANY CLAIM, DAMAGES OR OTHER
* LIABILITY, WHETHER IN AN ACTION OF CONTRACT, TORT OR OTHERWISE, ARISING FROM,
* OUT OF OR IN CONNECTION WITH THE SOFTWARE OR THE USE OR OTHER DEALINGS IN THE
* SOFTWARE.
*/
// Generated on: 22.02.2021 10:27:44

#include <stdio.h>
#include <stdlib.h>
#include <vector>
#include "edge-impulse-sdk/tensorflow/lite/c/builtin_op_data.h"
#include "edge-impulse-sdk/tensorflow/lite/c/common.h"
#include "edge-impulse-sdk/tensorflow/lite/micro/kernels/micro_ops.h"

#if defined __GNUC__
#define ALIGN(X) __attribute__((aligned(X)))
#elif defined _MSC_VER
#define ALIGN(X) __declspec(align(X))
#elif defined __TASKING__
#define ALIGN(X) __align(X)
#endif

namespace {

constexpr int kTensorArenaSize = 13312;

#if defined(EI_CLASSIFIER_ALLOCATION_STATIC)
uint8_t tensor_arena[kTensorArenaSize] ALIGN(16);
#elif defined(EI_CLASSIFIER_ALLOCATION_STATIC_HIMAX)
#pragma Bss(".tensor_arena")
uint8_t tensor_arena[kTensorArenaSize] ALIGN(16);
#pragma Bss()
#else
#define EI_CLASSIFIER_ALLOCATION_HEAP 1
uint8_t* tensor_arena = NULL;
#endif

static uint8_t* tensor_boundary;
static uint8_t* current_location;

template <int SZ, class T> struct TfArray {
  int sz; T elem[SZ];
};
enum used_operators_e {
  OP_RESHAPE, OP_CONV_2D, OP_ADD, OP_MAX_POOL_2D, OP_FULLY_CONNECTED, OP_SOFTMAX,  OP_LAST
};
struct TensorInfo_t { // subset of TfLiteTensor used for initialization from constant memory
  TfLiteAllocationType allocation_type;
  TfLiteType type;
  void* data;
  TfLiteIntArray* dims;
  size_t bytes;
};
struct NodeInfo_t { // subset of TfLiteNode used for initialization from constant memory
  struct TfLiteIntArray* inputs;
  struct TfLiteIntArray* outputs;
  void* builtin_data;
  used_operators_e used_op_index;
};

TfLiteContext ctx{};
TfLiteTensor tflTensors[31];
TfLiteRegistration registrations[OP_LAST];
TfLiteNode tflNodes[15];

const TfArray<2, int> tensor_dimension0 = { 2, { 1,1287 } };
const ALIGN(8) int32_t tensor_data1[2] = { -1, 800, };
const TfArray<1, int> tensor_dimension1 = { 1, { 2 } };
const ALIGN(8) float tensor_data2[16] = { -3.1624977588653564, 0.7778470516204834, -4.1842660903930664, -3.0742743015289307, -0.91791850328445435, -3.0671584606170654, 0.0037128687836229801, -3.3526911735534668, -0.36149677634239197, -2.9626829624176025, -1.3453887701034546, -3.7167119979858398, -3.4731054306030273, -3.7035088539123535, -0.19070149958133698, -2.7830307483673096, };
const TfArray<1, int> tensor_dimension2 = { 1, { 16 } };
const ALIGN(8) float tensor_data3[32] = { -0.060884051024913788, 0.42067939043045044, -0.090862475335597992, -0.22393052279949188, -1.5512796640396118, 0.39282417297363281, -0.57831162214279175, 0.87710744142532349, 0.25007832050323486, -1.8253984451293945, -3.2266757488250732, -2.4777305126190186, 0.20799244940280914, -0.075804702937602997, -0.37171417474746704, 0.24940876662731171, 0.22564326226711273, -0.083933517336845398, -3.4427261352539062, 0.1325155645608902, 0.32293263077735901, -0.39105558395385742, -0.17183557152748108, -0.15515027940273285, -1.0249989032745361, -0.95333749055862427, -2.8745193481445312, -1.4894773960113525, 0.67598801851272583, -2.345015287399292, -0.7660367488861084, -2.36761474609375, };
const TfArray<1, int> tensor_dimension3 = { 1, { 32 } };
const ALIGN(8) float tensor_data4[3] = { 2.9769337177276611, -2.6116564273834229, -0.56238865852355957, };
const TfArray<1, int> tensor_dimension4 = { 1, { 3 } };
const ALIGN(8) float tensor_data5[3*800] = { 
  0.39311781525611877, 0.28372481465339661, 0.13089689612388611, 0.18392598628997803, 0.13118799030780792, 0.582050621509552, 0.3437938392162323, 0.44042262434959412, 0.28575232625007629, -0.13535164296627045, -0.3054678738117218, 0.12363309413194656, 0.83659631013870239, -0.35559338331222534, -0.24434518814086914, -0.12099657952785492, -0.0020084234420210123, -0.18554480373859406, -0.29825586080551147, 0.39435529708862305, 0.12172012031078339, -0.51310282945632935, -0.5227351188659668, -0.038999062031507492, 0.3970399796962738, -0.66777819395065308, 0.2036302238702774, -0.51995158195495605, 0.47717362642288208, 0.55357122421264648, 0.4269605278968811, -0.10128708183765411, 0.034092143177986145, -0.42979446053504944, 0.059347845613956451, -0.29481256008148193, -0.023778975009918213, 0.17561410367488861, -0.067608818411827087, -0.30028325319290161, -0.070743732154369354, -0.064208805561065674, -0.2359907478094101, 0.11028515547513962, 0.52923691272735596, -0.26463252305984497, -0.28132504224777222, -0.092141598463058472, -0.26979255676269531, -0.15043461322784424, -0.11826641857624054, -0.013081783428788185, 0.010316029191017151, 0.18496908247470856, -0.089234627783298492, -0.14302998781204224, -0.22823293507099152, -0.30304062366485596, -0.14990143477916718, -0.095728114247322083, 0.015749378129839897, 0.41751578450202942, -0.036390423774719238, -0.44229406118392944, 0.30471080541610718, 0.032636024057865143, -0.15697205066680908, 0.12055398523807526, -0.032413739711046219, -0.10733792930841446, -0.062438677996397018, -0.14723600447177887, 0.03812764585018158, 0.23828756809234619, -1.0841929912567139, 0.15420655906200409, 0.14066380262374878, -0.34289452433586121, -0.18516764044761658, -0.11557769030332565, -0.47152057290077209, -0.03131924569606781, -0.13936512172222137, -0.50318777561187744, -0.26066836714744568, 0.24913743138313293, -1.8676391839981079, -0.93812763690948486, -0.046367976814508438, -0.07255631685256958, 0.35372090339660645, -1.0169035196304321, -0.043200459331274033, -0.45553424954414368, 0.023581182584166527, 0.78292977809906006, 0.49431183934211731, -0.21605384349822998, -0.15670895576477051, 0.073406226933002472, -0.21377125382423401, -0.51073169708251953, 0.10757864266633987, -0.084476426243782043, -0.17421638965606689, 0.096465148031711578, -0.059093736112117767, 0.089924097061157227, 0.44851705431938171, -0.10428626835346222, -0.61536037921905518, 0.029038196429610252, -0.23651105165481567, -0.37508055567741394, -0.21886858344078064, -0.19406223297119141, -0.60605251789093018, -0.066750593483448029, -0.86016541719436646, -0.39108610153198242, -0.080784052610397339, -0.36127018928527832, 0.714072585105896, -0.32150942087173462, 0.079555034637451172, -0.66095232963562012, 0.47274321317672729, 0.87355875968933105, -0.33832395076751709, -0.30083277821540833, 0.093595214188098907, -0.25450125336647034, 0.089050561189651489, -0.79697537422180176, 0.16473041474819183, -0.084253460168838501, -0.0173979252576828, 0.082803502678871155, -0.19636628031730652, 0.1937868595123291, 0.48803108930587769, -0.4777107834815979, -0.75842756032943726, -0.11796863377094269, -0.68337661027908325, -0.3025137186050415, 0.17026187479496002, 0.05103692039847374, -0.46255749464035034, -0.33321467041969299, -0.74660283327102661, -0.42992240190505981, -0.34708192944526672, -0.44005033373832703, 0.15144860744476318, -0.77142375707626343, -0.077060960233211517, -0.33982673287391663, 0.10963067412376404, 0.25383290648460388, -0.34546041488647461, -0.33202692866325378, 0.057738844305276871, -0.029968027025461197, -0.41730347275733948, -0.12766885757446289, 0.049567591398954391, -0.27070745825767517, -0.1444680243730545, 0.23062014579772949, -0.6178056001663208, 0.14534969627857208, 0.67289865016937256, -0.7191198468208313, 0.099495969712734222, 0.25701019167900085, -0.75911694765090942, 0.041116718202829361, -0.18385149538516998, 0.17431919276714325, -0.52082955837249756, -0.38654434680938721, -0.35224732756614685, -0.68503659963607788, 0.0070538953877985477, -0.9762381911277771, 0.13154067099094391, -0.53274917602539062, -0.08133377879858017, -0.071453511714935303, 0.19122196733951569, 1.0110335350036621, 0.087428249418735504, -0.12778159976005554, -0.16141758859157562, -0.25069555640220642, -0.23181304335594177, 0.11173071712255478, -0.030163213610649109, -0.15206274390220642, -0.24450282752513885, -0.0067274309694766998, -0.4634452760219574, 0.17187267541885376, 0.21136340498924255, -0.45555713772773743, -0.38063526153564453, -0.067571938037872314, -0.37722286581993103, -0.039962060749530792, -0.1944364607334137, -0.13152599334716797, -0.6533501148223877, -0.4215812087059021, 0.2513887882232666, -0.8395313024520874, 0.1890450119972229, -0.30300024151802063, 0.098903879523277283, -0.70411390066146851, 0.039133395999670029, -0.45534723997116089, 0.021409753710031509, -0.061171215027570724, -0.10222536325454712, -0.24656069278717041, -0.2187085896730423, 0.25778216123580933, -0.17091953754425049, -0.46785837411880493, 0.077183365821838379, -0.15208108723163605, -0.16148532927036285, -0.14274817705154419, -0.96716248989105225, 0.28846824169158936, -0.17956447601318359, -0.62222558259963989, -0.47628927230834961, -0.47757962346076965, -1.0143238306045532, -0.090066172182559967, 0.33241662383079529, -0.27333813905715942, -0.4651980996131897, -0.060165669769048691, -1.0039976835250854, -1.2797154188156128, 0.040937524288892746, -0.42159610986709595, -0.18029017746448517, -0.24897715449333191, -0.034294139593839645, -1.8665119409561157, -0.15850430727005005, 0.47025313973426819, -0.29855713248252869, -0.43700641393661499, -0.073752865195274353, 0.0017527836607769132, -0.27033528685569763, -0.43176651000976562, -0.0011939320247620344, 0.022003654390573502, -0.24189087748527527, -0.096206091344356537, -1.3972538709640503, 0.278993159532547, -0.046003744006156921, -0.39872542023658752, -0.6654319167137146, -0.028186110779643059, -0.89448195695877075, -0.3025534451007843, 0.22444947063922882, -0.10944417119026184, -0.44751271605491638, -0.084007397294044495, -0.45599019527435303, -0.75657814741134644, -0.22065249085426331, -0.18341237306594849, 0.25468727946281433, 0.31595978140830994, 0.092864528298377991, -1.0871553421020508, 0.27598580718040466, 0.86350405216217041, -0.55564308166503906, -0.24962598085403442, -0.2709992527961731, -0.36161547899246216, -0.14712277054786682, 0.67109578847885132, 0.07296501100063324, -0.090136691927909851, -0.3273947536945343, 0.69156306982040405, -0.25856950879096985, 0.092175841331481934, 0.2095300555229187, -0.89856892824172974, -1.1179624795913696, -0.63568246364593506, -1.1263887882232666, -0.24805961549282074, -0.21383927762508392, -0.18961538374423981, -0.47460475564002991, -0.1205701157450676, -1.1267193555831909, -0.84835702180862427, 0.17661078274250031, -0.50764602422714233, 0.24450001120567322, -0.80684769153594971, 0.11262275278568268, -0.60569566488265991, 0.60902565717697144, 0.31207361817359924, -0.97647124528884888, -0.43214517831802368, -0.04776826873421669, 0.031805045902729034, -0.58275240659713745, -0.13069026172161102, -0.19732056558132172, 0.065170764923095703, -0.061862964183092117, 0.30296498537063599, -1.1090415716171265, 0.044934272766113281, 0.44998058676719666, -0.73750609159469604, -0.24603118002414703, -0.90864187479019165, -0.67031657695770264, -0.10085698217153549, -0.18095435202121735, -0.54480594396591187, -0.7141302227973938, 0.22566373646259308, -1.1171848773956299, -0.66509974002838135, -0.79145961999893188, -0.51395124197006226, 0.38052728772163391, -0.546089768409729, 0.093153603374958038, -1.3500573635101318, -0.031998913735151291, 0.29870247840881348, -0.49140691757202148, -0.18440686166286469, -0.11449702084064484, -0.15231767296791077, -0.69313418865203857, -0.17247836291790009, 0.1049920842051506, -0.20865561068058014, -0.34447097778320312, 0.10452098399400711, -0.098781473934650421, 0.055995840579271317, 0.14294891059398651, -0.2125629186630249, -0.91913825273513794, -0.5600237250328064, -0.49773672223091125, -0.21397697925567627, -0.15123921632766724, -0.084401883184909821, -0.42753052711486816, 0.093976505100727081, -0.61913657188415527, -0.25952792167663574, -0.28065216541290283, -0.58099973201751709, 0.082116134464740753, -0.41732907295227051, 0.054966524243354797, -0.97953516244888306, 0.27445736527442932, -0.44253858923912048, -0.47864401340484619, -0.15196558833122253, 0.1432722806930542, 0.044575750827789307, -0.16787612438201904, -0.42628324031829834, -0.081414937973022461, -0.14801593124866486, -0.26980012655258179, 0.4520314633846283, -0.23106412589550018, 0.2345278263092041, -0.037878792732954025, -0.044990856200456619, -0.73610031604766846, -0.60965728759765625, -0.69722110033035278, -0.065300159156322479, -0.09422486275434494, 0.16008983552455902, -0.64478516578674316, -0.31507900357246399, -0.96967941522598267, -0.27605047821998596, 0.14093084633350372, -1.0594717264175415, 0.16879217326641083, -0.41572260856628418, -0.066123738884925842, -1.2051302194595337, -0.060455430299043655, 0.48993879556655884, -0.53619390726089478, -0.32584807276725769, 0.014095633290708065, -0.036623097956180573, -0.19397945702075958, -0.53040128946304321, -0.1828685849905014, 0.0026771100237965584, -0.18286994099617004, 0.027945943176746368, -1.1035568714141846, 0.040912315249443054, 0.1822330504655838, -0.74852579832077026, -0.8688657283782959, -0.1002977043390274, -0.6300080418586731, 0.029672782868146896, -0.82739937305450439, 0.00068120722426101565, -0.85814183950424194, -0.002051415853202343, -1.5573986768722534, -0.83040100336074829, -0.30034586787223816, -0.16873236000537872, 0.2805657684803009, -1.2619582414627075, 0.20479166507720947, -0.61044973134994507, 0.42685064673423767, 0.18096885085105896, -0.29783037304878235, -0.22823941707611084, -0.19048470258712769, -0.15173257887363434, -0.25033605098724365, -0.38867923617362976, -0.35342904925346375, -0.14300505816936493, -0.10310465097427368, 0.14532537758350372, -1.0751135349273682, 0.18886518478393555, 0.340311199426651, -0.64798909425735474, -0.86196577548980713, -0.20023107528686523, -0.46472576260566711, -0.053021613508462906, -0.29300627112388611, -0.14511576294898987, -0.42771786451339722, -0.038896005600690842, -0.10544908046722412, -1.2578552961349487, -0.0073087075725197792, -0.60210233926773071, 0.31162476539611816, -1.1309545040130615, -0.093967720866203308, -0.75798457860946655, 0.11438141018152237, 0.83851587772369385, -0.42860564589500427, -0.26774802803993225, -0.14465382695198059, 0.096863292157649994, 0.11402712017297745, 0.31841254234313965, -0.077142402529716492, -0.12817154824733734, -0.10130827128887177, -0.19124644994735718, -0.74255514144897461, 0.11097400635480881, 0.30289694666862488, -0.99285143613815308, -0.92969226837158203, -0.4302695095539093, -0.94223052263259888, 0.11605615168809891, -0.37487122416496277, -0.13140854239463806, -0.53296571969985962, -0.40353837609291077, -0.69890081882476807, -1.2732071876525879, -0.29864904284477234, -0.10615283995866776, 0.84257203340530396, -0.52406090497970581, -0.11982938647270203, -0.49476000666618347, 0.27680546045303345, -0.011414984241127968, -0.1735725998878479, -0.43855595588684082, 0.27847737073898315, 0.43121623992919922, 0.11982806771993637, -0.24349266290664673, -0.12533584237098694, -0.068467594683170319, -0.036160979419946671, 0.47576826810836792, -0.2206842303276062, 0.20799948275089264, 0.36023664474487305, -0.71284306049346924, -0.377128005027771, -0.88704156875610352, 0.078925631940364838, -0.093039490282535553, 0.2081931084394455, -0.91933977603912354, -0.35565808415412903, -0.19637671113014221, -1.5102372169494629, -0.43270793557167053, -0.41085848212242126, -0.1249278336763382, 0.0093703810125589371, -0.16973906755447388, -0.11180877685546875, -1.5646733045578003, 0.34640514850616455, 0.040280580520629883, 0.067557156085968018, -0.19827476143836975, -0.11082711070775986, -0.23293811082839966, -0.11248817294836044, -0.47172683477401733, -0.13731974363327026, -0.35376620292663574, 0.055705305188894272, 0.31886503100395203, -1.7369498014450073, 0.12516617774963379, 0.35256990790367126, -0.53645616769790649, -0.93937188386917114, -0.90948784351348877, 0.37932422757148743, -0.15373288094997406, -0.33643099665641785, -0.76344096660614014, -0.61924183368682861, -0.56682443618774414, -1.4881826639175415, 0.080513894557952881, -0.39269456267356873, -0.40235930681228638, 0.48113322257995605, -0.69577217102050781, -0.18501698970794678, -1.1912219524383545, 0.64832848310470581, 0.14217962324619293, -0.04386606439948082, -0.40274178981781006, -0.0060018151998519897, 0.14460065960884094, -0.7591889500617981, -0.14419984817504883, -0.12777708470821381, -0.022520275786519051, 0.05523979663848877, 0.41947758197784424, -1.4101260900497437, 0.13060744106769562, -0.029856419190764427, 0.25982925295829773, -0.2001669704914093, -0.60403889417648315, 0.0021206340752542019, -0.37223914265632629, -0.34850546717643738, -0.77270323038101196, -0.82466316223144531, -0.47744950652122498, -1.1820814609527588, 0.0025912758428603411, -0.037299491465091705, -0.42945507168769836, 0.49116039276123047, -0.14934603869915009, -0.30350857973098755, -1.6403194665908813, 0.11824819445610046, 0.64215505123138428, -0.27049556374549866, -0.23063978552818298, 0.011701565235853195, -0.2041231095790863, -0.15696427226066589, 0.44322723150253296, 0.18509522080421448, -0.13484416902065277, 0.019122026860713959, 0.54833638668060303, -0.8488190770149231, 0.21983237564563751, 0.040150467306375504, -0.22676338255405426, -0.94102174043655396, -0.49800640344619751, -0.33550411462783813, 0.1464901864528656, -0.28440248966217041, -0.12634004652500153, -0.62994241714477539, -0.24992334842681885, -1.2362892627716064, -0.90328085422515869, -0.46635454893112183, -0.11243779212236404, 0.59709650278091431, 0.32483837008476257, 0.050307895988225937, -0.071041792631149292, 0.17418894171714783, 0.54705208539962769, -0.38972735404968262, 0.16833968460559845, 0.1731441468000412, -0.10221550613641739, -0.28519439697265625, -0.13133639097213745, 0.075020045042037964, -0.22525757551193237, 0.12082494050264359, 0.20750921964645386, -0.23190218210220337, 0.18321536481380463, -0.042004194110631943, -0.17058168351650238, -0.24516251683235168, -0.069287434220314026, 0.16345636546611786, -0.096177287399768829, -0.29661092162132263, -0.2660377025604248, -0.21947494149208069, 0.23878359794616699, -0.82704687118530273, -0.10331521928310394, 0.16190989315509796, -0.192117840051651, 0.29220834374427795, 0.19366854429244995, -0.14580219984054565, 0.11910533159971237, -0.28635948896408081, -1.0025573968887329, 0.010945271700620651, 0.32048773765563965, -0.1936495453119278, -0.1090160608291626, -0.08669821172952652, -0.084595195949077606, -0.0027562382165342569, -0.20164504647254944, -0.014368780888617039, 0.18475513160228729, -0.23725387454032898, 0.19334869086742401, -0.11065497249364853, -0.15902523696422577, -0.31875091791152954, 0.10943072289228439, -0.26928851008415222, -0.021049495786428452, -0.51910197734832764, -0.037102755159139633, -0.20779447257518768, 0.044348899275064468, -0.65950345993041992, -0.13285535573959351, 0.025723164901137352, -0.028550215065479279, 0.30691918730735779, -0.035911854356527328, -0.37976163625717163, -0.8002668023109436, 0.28499278426170349, 0.37717866897583008, 0.37450829148292542, 0.029175387695431709, 0.075352288782596588, -0.23825655877590179, -0.058807738125324249, 0.33838775753974915, 0.070219226181507111, -0.20015506446361542, 0.23332425951957703, -0.027475718408823013, -0.93416875600814819, 0.22867611050605774, 0.066885031759738922, 0.13365015387535095, -0.199193075299263, -0.24443553388118744, 0.26228040456771851, 0.10180509090423584, -0.31837001442909241, 0.17405356466770172, 0.046406492590904236, 0.2546578049659729, -0.29096505045890808, -0.56484454870223999, -0.017463777214288712, -0.74849134683609009, 0.15143497288227081, -0.072091571986675262, -0.19626007974147797, -0.13574491441249847, -0.061336856335401535, 0.29642182588577271, 0.24862027168273926, -0.291777104139328, -0.15709026157855988, -0.091746725142002106, -0.093842439353466034, 0.43574535846710205, 0.20932227373123169, -0.17477329075336456, -0.096064284443855286, -0.16060465574264526, -0.58729445934295654, 0.13529764115810394, -0.033639717847108841, 0.061794150620698929, -0.47418010234832764, 0.056126747280359268, -0.023207586258649826, 0.026815593242645264, -0.1262948215007782, -0.061514399945735931, 0.20660047233104706, 0.036784380674362183, -1.7057995796203613, -0.7690354585647583, -0.050724316388368607, -0.065131962299346924, 0.32339608669281006, 0.1654578298330307, -0.31274762749671936, -0.52204030752182007, 0.41833645105361938, 0.10872117429971695, -0.062695220112800598, -0.27274653315544128, -0.11871570348739624, -0.15732099115848541, 0.12269075959920883, 0.4543551504611969, -0.072563812136650085, -0.20189493894577026, -0.088600404560565948, 0.20725411176681519, -0.68398493528366089, -0.022406449541449547, -0.047100808471441269, 0.018095916137099266, 0.078751392662525177, -0.10512243956327438, -0.062035653740167618, 0.032893836498260498, 0.47807854413986206, 0.045530997216701508, 0.087750382721424103, 0.082858160138130188, -0.088653966784477234, 0.22949102520942688, -0.28691199421882629, -0.016036882996559143, -0.29695203900337219, 0.14091190695762634, -0.11212541162967682, -0.38086512684822083, 0.061800267547369003, 0.12453129887580872, 
  0.12473175674676895, -2.3372101783752441, 0.041641388088464737, 0.19706203043460846, 0.72817778587341309, -1.1461459398269653, -1.1755344867706299, -0.59212267398834229, -0.11744144558906555, -0.096783675253391266, 0.60442632436752319, -0.32830539345741272, -3.14560866355896, -1.1729851961135864, 0.065038353204727173, -1.6259900331497192, -0.060575973242521286, -0.043905686587095261, -0.24657957255840302, -2.5079703330993652, 0.15647460520267487, 0.54797470569610596, -0.0099310483783483505, -0.77135473489761353, -1.0428723096847534, 0.20777854323387146, -0.13087746500968933, 0.5566554069519043, -0.51250427961349487, -0.28970256447792053, -0.76993483304977417, 0.038550753146409988, -0.88870596885681152, -0.22197206318378448, 0.25699591636657715, 0.41851791739463806, -0.80594271421432495, -0.56234902143478394, -0.76976454257965088, -0.006729071494191885, 0.074496425688266754, -0.7756572961807251, -0.0038318862207233906, -0.39212685823440552, -3.4081437587738037, 0.04591904953122139, 0.17362350225448608, -0.65342932939529419, -0.00023089880414772779, 0.2959868311882019, -0.15105785429477692, -0.53347831964492798, -0.13565167784690857, -0.46834909915924072, 0.46355289220809937, 0.36735445261001587, -0.27776223421096802, 0.62683522701263428, -0.206533282995224, -0.081196770071983337, -0.91068440675735474, -0.86887013912200928, -0.08160814642906189, 0.02405085600912571, -0.91009360551834106, -0.29008790850639343, 0.23573145270347595, 0.36571356654167175, 0.094131253659725189, -0.39561781287193298, 0.049019932746887207, 0.032968346029520035, 0.094372570514678955, -0.86489981412887573, 0.33882024884223938, -0.29063162207603455, -0.36980089545249939, 0.15511919558048248, 0.2504870593547821, -0.45784774422645569, 0.30944311618804932, 0.059043895453214645, -0.11520283669233322, 0.22777801752090454, 0.23509526252746582, -0.67460370063781738, 0.87272161245346069, 0.48108023405075073, -0.33153319358825684, -0.10382283478975296, -1.4177871942520142, -0.37029728293418884, -0.18251356482505798, 0.28532177209854126, -0.43363070487976074, -0.18111130595207214, -1.3521573543548584, -0.046988412737846375, 0.34884816408157349, 0.012464666739106178, -0.5252339243888855, -0.027909716591238976, -0.29542028903961182, -0.055770251899957657, 0.36068341135978699, -0.71060717105865479, -0.58746558427810669, -0.30312207341194153, 0.007770780473947525, 0.045889407396316528, 0.39200294017791748, -0.57082128524780273, 0.14660061895847321, 0.31157934665679932, -0.25171893835067749, -0.011998127214610577, 0.25306332111358643, -0.50702196359634399, 0.39451184868812561, 0.32175114750862122, 0.14687250554561615, 0.15858194231987, -1.1588817834854126, 0.2951602041721344, -0.16611853241920471, -0.050109032541513443, -0.62633812427520752, -0.023151328787207603, 0.56565290689468384, 0.27089592814445496, 0.23133540153503418, 0.30433335900306702, -0.59618973731994629, -0.22351478040218353, -0.66126811504364014, 0.042997650802135468, 0.34856638312339783, -0.40993112325668335, -0.17769758403301239, -0.44129526615142822, -0.91479706764221191, -0.30819115042686462, 0.094781838357448578, -0.17076416313648224, 0.16968138515949249, 0.41121569275856018, -0.096670910716056824, -0.20447506010532379, 0.077210493385791779, -0.44436991214752197, -0.069593839347362518, 0.36446782946586609, 0.19236409664154053, 0.3765086829662323, -1.2844370603561401, -0.73534154891967773, -0.12143662571907043, 0.096807852387428284, -1.1656265258789062, 0.21126052737236023, 0.40866586565971375, 0.45635396242141724, 0.2570723295211792, 0.2114606648683548, -0.21902035176753998, -0.189618781208992, -0.55138868093490601, -0.01635039784014225, 0.5314602255821228, -0.93263089656829834, -0.55372309684753418, -0.51101940870285034, -0.85391557216644287, 0.023128192871809006, 0.18583843111991882, -0.46197053790092468, 0.32493188977241516, 0.15912747383117676, -0.20247605443000793, -0.070695795118808746, 0.086200512945652008, 0.00068279559491202235, -0.26363077759742737, 0.34059178829193115, -0.11112917959690094, 0.2908376157283783, -0.54950630664825439, -0.3110174834728241, -0.19293312728404999, -0.92155361175537109, -0.33274397253990173, 0.07680637389421463, 0.90144407749176025, 0.023437678813934326, 0.40180408954620361, 0.57482081651687622, -0.79046839475631714, -0.69345748424530029, -0.32386121153831482, 0.094504565000534058, 0.25554373860359192, 0.064706586301326752, 0.094380192458629608, -0.41853979229927063, -0.62019890546798706, -0.36013787984848022, -0.0041878456249833107, -0.033544920384883881, 0.16021057963371277, 0.26742604374885559, 0.0074439290910959244, -0.033485699445009232, -0.018690992146730423, -0.18815174698829651, -0.26317372918128967, 0.098325148224830627, -0.28227332234382629, 0.16911369562149048, -0.41803157329559326, -0.32776358723640442, -0.0099447816610336304, -0.94732749462127686, -0.19872385263442993, -0.25728693604469299, 0.45530831813812256, 0.26330652832984924, 0.47187626361846924, 0.34498807787895203, 0.037541031837463379, -0.25423189997673035, -0.42914587259292603, 0.043740775436162949, 0.33395540714263916, -0.4342930018901825, -0.15267515182495117, -0.48381716012954712, -0.39493155479431152, -0.0029659653082489967, -0.029751678928732872, -0.10873086005449295, 0.086874522268772125, 0.26609447598457336, -0.76281070709228516, -0.065507888793945312, 0.066977977752685547, -0.41231119632720947, 0.75319546461105347, 0.37335258722305298, -1.1175996065139771, 0.55020821094512939, 0.089818291366100311, -0.49334895610809326, 0.0032529784366488457, 0.022050609812140465, -0.34396478533744812, -0.0053571602329611778, 0.89578860998153687, 0.4725322425365448, 0.45564481616020203, 0.35696539282798767, -0.43941524624824524, -0.28055179119110107, -0.13231618702411652, -0.097474358975887299, 0.45838561654090881, -0.87663596868515015, -0.10030466318130493, -0.81168156862258911, -0.2503320574760437, -0.42926070094108582, 0.041544497013092041, -0.24589869379997253, 0.19214491546154022, 0.38947519659996033, -0.35801628232002258, -0.16857093572616577, 0.10493940114974976, -0.54857528209686279, -0.11698927730321884, 0.29232501983642578, -0.38117390871047974, 0.21789464354515076, -1.9361655712127686, -0.11109978705644608, 0.13901114463806152, 0.10790170729160309, -0.48478716611862183, -1.4031170606613159, 0.77996575832366943, 0.38679596781730652, 0.5815051794052124, 0.5132441520690918, -0.087072573602199554, -0.64767497777938843, -0.46541762351989746, -0.1510615199804306, 0.16609427332878113, -0.58896821737289429, 0.10950568318367004, -0.62060540914535522, -0.57837367057800293, 0.02361086942255497, 0.11558467149734497, -0.16609357297420502, 0.044037997722625732, 0.32184192538261414, -0.1216018870472908, -0.36366754770278931, 0.28761610388755798, -0.27799651026725769, -0.10517013072967529, 0.28184297680854797, -0.48294389247894287, 0.26177665591239929, -2.1974821090698242, -0.33703449368476868, 0.2068604975938797, -0.024000804871320724, -0.14706128835678101, 0.064016275107860565, 0.22620740532875061, 0.57192254066467285, 0.32139602303504944, 0.33326202630996704, -0.18346530199050903, -0.10979845374822617, -0.32541713118553162, -0.12434433400630951, 0.29198399186134338, -0.88805109262466431, -0.051138855516910553, -0.57215124368667603, -0.8855510950088501, -0.26263135671615601, 0.059535887092351913, -0.034614179283380508, -0.040402203798294067, 0.19753968715667725, -0.16972510516643524, -0.1031651645898819, 0.22626249492168427, -0.53851950168609619, 0.18136537075042725, 0.22187723219394684, -0.099645234644412994, 0.34686553478240967, -1.8074851036071777, -0.098215900361537933, -0.14897505939006805, -0.46379506587982178, -0.20976734161376953, -0.18174465000629425, 0.33819732069969177, 0.30011427402496338, 0.30578911304473877, 0.22854878008365631, -0.074485175311565399, -0.32826924324035645, -0.81948834657669067, -0.072861440479755402, 0.20576024055480957, -0.19076886773109436, 0.082712851464748383, -0.39092761278152466, -0.98149842023849487, -0.64162987470626831, 0.1658337414264679, -0.14053568243980408, 0.056248191744089127, 0.41081380844116211, -0.32352280616760254, -0.22481882572174072, 0.070965036749839783, -0.4201715886592865, -0.13898211717605591, 0.1935378760099411, -0.23229773342609406, 0.1934843510389328, -0.28433629870414734, -0.37004846334457397, 0.037436306476593018, -0.50921690464019775, -0.39795300364494324, -0.36591827869415283, 0.43370366096496582, 0.2705346941947937, 0.31710493564605713, 0.391447514295578, -0.19016902148723602, -0.28008222579956055, -0.58985823392868042, 0.010981187224388123, 0.27624416351318359, -0.76778966188430786, 0.0644216388463974, -0.07389550656080246, -0.68344986438751221, -0.41783580183982849, 0.19862549006938934, 0.058593396097421646, 0.31114602088928223, 0.25052592158317566, -0.27230432629585266, -0.50510537624359131, 0.09724251925945282, -0.18637247383594513, 0.19793824851512909, 0.28274542093276978, -0.63233768939971924, 0.39396926760673523, -0.090015299618244171, -0.1591188907623291, 0.060563590377569199, 0.38760519027709961, -0.15769527852535248, -0.17494283616542816, 0.37199962139129639, 0.39321860671043396, 0.25812819600105286, 0.23334066569805145, -0.2175251841545105, -0.079055905342102051, -0.30324110388755798, -0.036868218332529068, 0.28724005818367004, -0.59971028566360474, -0.0077315974049270153, -0.42778989672660828, -0.31369203329086304, -0.22576330602169037, 0.19705688953399658, -0.19365537166595459, 0.066248521208763123, 0.18591383099555969, -0.039134040474891663, -0.27963364124298096, 0.19340482354164124, -0.13608455657958984, -0.13694442808628082, 0.28515776991844177, -0.31761395931243896, -0.0035382341593503952, -1.549116849899292, -0.14409917593002319, 0.01751909963786602, 0.018543491140007973, -0.36695212125778198, -0.89538007974624634, 0.22950258851051331, 0.44272804260253906, 0.16428296267986298, 0.31981569528579712, -0.37169209122657776, 0.042468518018722534, -0.26427382230758667, 0.044664274901151657, 0.17201937735080719, -0.15120427310466766, -0.060280501842498779, -0.16340108215808868, -0.30486074090003967, -0.11755143105983734, 0.067103296518325806, -0.12882830202579498, 0.0040290285833179951, 0.18847981095314026, -0.31031209230422974, -0.23825010657310486, 0.13845886290073395, -0.56165701150894165, -0.28530505299568176, 0.34362494945526123, -0.22523567080497742, 0.2193831205368042, -1.8220522403717041, -0.15549308061599731, 0.41979044675827026, -0.16847671568393707, -0.27898493409156799, -0.94243282079696655, 0.25357663631439209, 0.48525428771972656, 0.37966600060462952, 0.10383623093366623, -0.25391879677772522, -0.39085540175437927, -0.16381126642227173, 0.049051862210035324, 0.11417248100042343, 0.27407842874526978, -0.085897818207740784, -0.41184362769126892, -0.3753170371055603, -0.13465452194213867, 0.22447226941585541, 0.093534931540489197, -0.18343514204025269, -0.0327175073325634, -0.29261311888694763, -0.30606994032859802, 0.10025379061698914, 0.14534156024456024, -0.51436531543731689, 0.29137715697288513, -0.069588817656040192, 0.32683396339416504, -2.167794942855835, -0.77992069721221924, 0.31995365023612976, -0.19650092720985413, -0.54074043035507202, -0.2506488561630249, 0.2445095032453537, 0.36765915155410767, 0.021859493106603622, -0.10278940200805664, -0.4535125195980072, -0.34228718280792236, -0.053007852286100388, -0.11498044431209564, 0.25230571627616882, 0.67576092481613159, -0.074629917740821838, -0.56728315353393555, -0.41368788480758667, -0.044902916997671127, 0.14390319585800171, 0.19189417362213135, -0.10689167678356171, 0.3566628098487854, -0.36747825145721436, 0.093176648020744324, -0.0031573697924613953, -0.22045259177684784, 0.10267812758684158, 0.30063259601593018, -0.23847672343254089, 0.088891774415969849, -0.17147469520568848, -0.48175984621047974, 0.34082174301147461, -0.24936214089393616, -0.63963735103607178, -0.22470772266387939, 0.38653343915939331, 0.34002131223678589, 0.092115685343742371, 0.044757053256034851, -0.36768770217895508, -0.249538853764534, 0.041560761630535126, 0.033589784055948257, -0.071089997887611389, 0.96692484617233276, -0.029386840760707855, -0.33520126342773438, -0.27966919541358948, -0.31458377838134766, 0.26501169800758362, 0.19481964409351349, -0.34868073463439941, 0.11487548053264618, -0.20662736892700195, 0.24449798464775085, 0.11989748477935791, -0.10155822336673737, -0.17166674137115479, 0.091734230518341064, -0.12121915072202682, 0.38164448738098145, -0.6822124719619751, 0.15878079831600189, 0.33106952905654907, -0.13910040259361267, -0.58876442909240723, -0.381294846534729, 0.07830405980348587, 0.36868771910667419, -0.029034368693828583, 0.01261029951274395, -0.13896755874156952, -0.18144501745700836, -0.25854280591011047, -0.059593401849269867, -0.035403810441493988, -1.1690641641616821, 0.15269045531749725, -0.21527852118015289, -0.2479376494884491, -0.31584182381629944, 0.12278129905462265, 0.19291529059410095, -0.25240582227706909, 0.4296603798866272, -0.021914396435022354, -0.28975725173950195, 0.33642694354057312, -0.01613021083176136, 0.28056523203849792, 0.26085516810417175, -0.2767130434513092, 0.25118371844291687, -1.9097769260406494, -0.4909229576587677, 0.47599649429321289, -0.21663345396518707, -0.23814262449741364, 0.050893791019916534, 0.41401726007461548, 0.42905133962631226, 0.18760935962200165, 0.14291156828403473, -0.091673575341701508, -0.42417913675308228, -0.42204678058624268, -0.015195580199360847, -0.21050184965133667, -0.0050098337233066559, 0.18467709422111511, -0.35136687755584717, 0.11888075619935989, -0.32727572321891785, 0.21206352114677429, 0.18511156737804413, -0.064876474440097809, -0.18046362698078156, -0.042413052171468735, -0.39351844787597656, 0.25722488760948181, -0.050976615399122238, 0.51414263248443604, 0.41627639532089233, -0.0039533167146146297, 0.44349530339241028, -1.2171128988265991, -0.34818708896636963, 0.35584598779678345, -0.38865497708320618, -0.8603699803352356, -1.0065567493438721, 0.46794065833091736, 0.27314898371696472, 0.13677948713302612, 0.28766337037086487, 0.10699895769357681, 0.11755475401878357, -0.12698999047279358, -0.043900776654481888, -0.48375621438026428, 0.3923986554145813, 0.14457231760025024, -0.2423359602689743, -0.13100497424602509, -0.26472321152687073, 0.23093539476394653, 0.14134645462036133, -0.20194549858570099, -0.22513023018836975, 0.0993490070104599, -0.13083791732788086, 0.14726142585277557, -0.24181762337684631, 0.7928130030632019, 0.19935941696166992, -0.30355656147003174, -0.0055420538410544395, -0.49515756964683533, -0.18322089314460754, 0.39140522480010986, -0.98703795671463013, -0.36525368690490723, 0.12063492089509964, 0.33514988422393799, 0.39605674147605896, 0.028942914679646492, 0.091620579361915588, -0.1254315972328186, 0.13094785809516907, -0.079877622425556183, -0.065223231911659241, -0.20361506938934326, -0.03958047553896904, 0.064271964132785797, -0.26600277423858643, 0.11535323411226273, 0.11749114096164703, 0.18456575274467468, 0.23149852454662323, -0.38467800617218018, 0.24920311570167542, 0.01622467115521431, -0.59892231225967407, 0.11708003282546997, -0.10987970978021622, 0.22430486977100372, 0.23577879369258881, -0.36925423145294189, -0.39735913276672363, -1.0962128639221191, -0.084581844508647919, 0.42238092422485352, -0.81958097219467163, -0.33609315752983093, -0.78594696521759033, 0.25601181387901306, 0.32564297318458557, -0.045839741826057434, 0.14271166920661926, 0.069959245622158051, -0.053659804165363312, -0.12418188899755478, -0.050148207694292068, -0.065039053559303284, 0.27059343457221985, 0.28990715742111206, -0.35775172710418701, -0.1272674947977066, 0.041368402540683746, 0.15456466376781464, 0.20249536633491516, -0.14205414056777954, 0.35623815655708313, -0.13435541093349457, -0.56396818161010742, 0.042670585215091705, -0.24513143301010132, 0.26536515355110168, 0.22964228689670563, -0.26779979467391968, 0.14661498367786407, 0.12148831784725189, -0.17199131846427917, 0.31419774889945984, -0.45689141750335693, -0.34342384338378906, -0.42796647548675537, 0.14000867307186127, 0.41769236326217651, -0.108224056661129, 0.19322909414768219, -0.21752171218395233, -0.59338927268981934, -0.07474575936794281, -0.0080252038314938545, -0.13889084756374359, -0.62987089157104492, -0.2925889790058136, -0.166309654712677, -0.30794757604598999, 0.025984780862927437, 0.23928540945053101, 0.20481331646442413, -0.64137959480285645, 0.2293059378862381, -0.18017919361591339, 0.1188272088766098, -0.13289697468280792, -0.092632055282592773, -0.056121028959751129, 0.29509523510932922, -0.18780249357223511, 0.079721316695213318, -1.0291382074356079, 0.42044708132743835, 0.22831849753856659, 0.35477942228317261, -0.38503807783126831, 0.42953607439994812, 0.23415090143680573, 0.35252347588539124, -0.094016022980213165, 0.087480425834655762, 0.12578418850898743, 0.17201752960681915, -0.22635823488235474, -0.0033392743207514286, -0.23662683367729187, -0.71740180253982544, -0.10901245474815369, -0.40696877241134644, -0.11296229064464569, -0.42409101128578186, -0.2449328750371933, 0.39315691590309143, 0.08748520165681839, -0.050889886915683746, -0.8202664852142334, -0.20923323929309845, 0.29757693409919739, -0.063542351126670837, 0.18379208445549011, 0.47667202353477478, 0.044824391603469849, -0.093894213438034058, -0.65003788471221924, -0.42217791080474854, 0.37474602460861206, 0.038315922021865845, -0.13902135193347931, -0.23866218328475952, 
  -0.88084137439727783, 0.40090826153755188, -0.054775770753622055, -0.27919155359268188, -0.4938998818397522, -0.2274298369884491, -0.050396241247653961, 0.068279579281806946, -0.33077278733253479, 0.015967920422554016, -0.049151517450809479, -0.0060800779610872269, -0.49561494588851929, 0.41493222117424011, -0.030871398746967316, 0.072546325623989105, -0.49302804470062256, 0.11697933077812195, 0.19521708786487579, -0.046082835644483566, -0.40678554773330688, -0.23089289665222168, -0.41719540953636169, 0.092976167798042297, -0.66931623220443726, 0.26737314462661743, -0.156576007604599, -0.0074465121142566204, -0.44245699048042297, -0.57882171869277954, -0.27202039957046509, 0.041585475206375122, -0.48874986171722412, 0.14911819994449615, -0.286650151014328, -0.36951249837875366, 0.30258390307426453, -0.046876974403858185, 0.19276498258113861, 0.21301110088825226, -0.11875241249799728, 0.056629829108715057, 0.32537484169006348, 0.085973076522350311, 0.038078948855400085, 0.046998307108879089, 0.07438679039478302, 0.18037036061286926, 0.14424248039722443, -0.29967957735061646, 0.24871633946895599, -0.018971644341945648, 0.012316368520259857, 0.016068322584033012, -0.76544040441513062, -0.12797507643699646, 0.075312711298465729, -0.32186949253082275, 0.079108625650405884, -0.55710709095001221, 0.19910477101802826, 0.17753967642784119, -0.27612319588661194, 0.27759605646133423, -0.17909237742424011, 0.1699148565530777, -0.13147670030593872, -0.29342114925384521, 0.10908890515565872, 0.05934404581785202, -0.033413980156183243, 0.067381292581558228, -0.25602796673774719, -0.43701621890068054, 0.22822263836860657, -0.066825516521930695, -0.012304502539336681, -0.067797474563121796, -0.32596573233604431, 0.33339324593544006, -0.015582416206598282, -0.15552331507205963, 0.079580292105674744, 0.093046113848686218, 0.025972554460167885, 0.18006077408790588, 0.201207235455513, 0.21918411552906036, 0.19808760285377502, -0.097370758652687073, 0.053257998079061508, 0.84237158298492432, 0.26602557301521301, -0.042648937553167343, 0.17637284100055695, -0.73000991344451904, -0.20950673520565033, 0.25857266783714294, -0.088955305516719818, -0.20983962714672089, 0.43985602259635925, 0.19318264722824097, 0.038934260606765747, 0.16928777098655701, -0.1137908548116684, -0.69097715616226196, 0.19563117623329163, 0.12833355367183685, -0.30723792314529419, 0.19031815230846405, -0.1549372524023056, 0.20166763663291931, -0.12885834276676178, -0.091672897338867188, 0.26138517260551453, 0.056602735072374344, 0.25575816631317139, 0.25879880785942078, 0.20565833151340485, -0.1292848140001297, -0.15279585123062134, -0.015743006020784378, -0.60583889484405518, -0.095026470720767975, -0.10263536125421524, -0.13235890865325928, -0.1724507063627243, -0.39984819293022156, -0.41605603694915771, -0.18340982496738434, -0.33859887719154358, -0.098176941275596619, 0.2185986340045929, 0.37765613198280334, 0.049496006220579147, 0.12690961360931396, -0.19564536213874817, -0.19382403790950775, 0.071827851235866547, 0.0039028734900057316, -0.080663040280342102, 0.13383166491985321, 0.10397308319807053, 0.16924233734607697, -0.058682315051555634, -0.14097654819488525, -0.17758733034133911, 0.1373811811208725, 0.061520304530858994, 0.28667157888412476, 0.45008325576782227, -0.11698440462350845, 0.086691074073314667, -0.083799608051776886, -0.012629970908164978, 0.7689749002456665, 0.010766956955194473, 0.16797411441802979, 0.21582750976085663, 0.20496624708175659, -0.28379485011100769, -0.03485880047082901, -0.19449733197689056, -0.19837845861911774, 0.045726750046014786, -0.027314087375998497, 0.22011846303939819, 0.16420699656009674, -0.36142075061798096, -0.23746046423912048, 0.37020045518875122, 0.15501421689987183, -0.23639939725399017, 0.093304425477981567, 0.010145372711122036, -0.051232028752565384, -0.038529239594936371, -0.34281611442565918, 0.097944460809230804, -0.24842028319835663, 0.21207831799983978, 0.078043103218078613, -0.042687658220529556, -0.079351775348186493, -0.062982864677906036, 0.066561788320541382, -0.00023925534333102405, -0.081772930920124054, 0.27809306979179382, -0.056683540344238281, 0.19424764811992645, 0.015972448512911797, -0.70145785808563232, -0.096134968101978302, -0.43156975507736206, -0.49498018622398376, 0.31555166840553284, -0.027408132329583168, 0.27910029888153076, 0.085894204676151276, -0.22365860641002655, -0.56999802589416504, -0.10800375044345856, -0.11113971471786499, -0.13684958219528198, 0.34777724742889404, 0.12077807635068893, 0.042261861264705658, -0.0904698446393013, -0.20802552998065948, 0.26013359427452087, 0.21177603304386139, 0.12523101270198822, 0.23775951564311981, -0.23320074379444122, -0.047351032495498657, -0.21184003353118896, -0.018302977085113525, -0.12170630693435669, 0.45424431562423706, -0.17819696664810181, 0.13960537314414978, 0.05511026456952095, -0.033672071993350983, -0.57265383005142212, -0.33146208524703979, -0.31659364700317383, -0.45422866940498352, 0.031106660142540932, 0.24105027318000793, 0.099889196455478668, 0.2514147162437439, -0.30071344971656799, -0.20808513462543488, -0.093570210039615631, 0.08626866340637207, 0.26036131381988525, 0.063636608421802521, 0.15930852293968201, 0.21672503650188446, 0.17730201780796051, -0.20424546301364899, 0.23530189692974091, 0.25774818658828735, 0.39092117547988892, 0.3227328360080719, -0.30923864245414734, -0.093975849449634552, 0.37039586901664734, -0.32498985528945923, -0.13035382330417633, -0.13381621241569519, 0.029472716152667999, 0.2410062700510025, 0.24231398105621338, -0.51989626884460449, -0.62308084964752197, -0.19851140677928925, -0.34638926386833191, -0.4176783561706543, 0.21372416615486145, 0.41663235425949097, 0.21283964812755585, 0.11991004645824432, -0.079651519656181335, 0.21356956660747528, 0.59539449214935303, 0.057068172842264175, 0.11186987906694412, 0.32850310206413269, 0.098812758922576904, 0.049886003136634827, -0.063008256256580353, -0.10665272176265717, -0.0007258764817379415, 0.12448776513338089, 0.23521876335144043, 0.28146728873252869, -0.013485805131494999, -0.073666371405124664, 0.2160649448633194, -0.25641056895256042, 0.08956456184387207, -0.13591486215591431, -0.22155997157096863, -0.069202534854412079, -0.11267657577991486, -0.77279782295227051, -0.19651345908641815, -0.32200869917869568, -0.2320673018693924, -0.13901099562644958, 0.11416764557361603, -0.032593488693237305, 0.15557560324668884, 0.11718916893005371, -0.13781723380088806, -0.7508089542388916, -0.37316444516181946, 0.118990458548069, -0.095687590539455414, 0.23652032017707825, 0.2333231121301651, 0.28535899519920349, 0.068008825182914734, -0.13165831565856934, 0.24847741425037384, 0.36920896172523499, 0.073114767670631409, 0.17969857156276703, 0.47206002473831177, -0.0023520374670624733, 0.22161862254142761, -0.044018108397722244, 0.1216861680150032, 0.38553100824356079, -0.27292004227638245, -0.044232740998268127, -0.39556452631950378, -0.5604674220085144, 0.18857535719871521, -0.14493176341056824, -0.41649368405342102, -0.4485149085521698, 0.18273681402206421, -0.029891287907958031, 0.30349117517471313, -0.099199198186397552, -0.13015116751194, -0.21035861968994141, 0.16143709421157837, 0.058435309678316116, -0.023386737331748009, 0.38351982831954956, 0.036762822419404984, 0.23503679037094116, 0.14856889843940735, -0.11191418021917343, 0.2482074499130249, 0.40320286154747009, 0.12065349519252777, 0.068250857293605804, 0.54197502136230469, -0.032238509505987167, 0.37286689877510071, -0.088168919086456299, -0.096680745482444763, -0.081183329224586487, 0.092894569039344788, 0.35978829860687256, 0.26605024933815002, -0.4393770694732666, 0.041067339479923248, -0.17307449877262115, -0.26888230443000793, -0.21272428333759308, 0.28918644785881042, 0.24066506326198578, 0.38072672486305237, 0.083690859377384186, -0.021458219736814499, -0.57519698143005371, -0.01851353608071804, 0.13625100255012512, 0.020882021635770798, 0.31973829865455627, 0.15502463281154633, 0.21473021805286407, 0.17267240583896637, -0.063547007739543915, 0.24965138733386993, 0.26225852966308594, 0.20391851663589478, 0.093103043735027313, 0.08482949435710907, -0.10874070227146149, 0.13563409447669983, 0.034377120435237885, -0.034258618950843811, 0.60004431009292603, -0.03357556089758873, 0.37231072783470154, -0.15303824841976166, 0.48050224781036377, -0.17111815512180328, -0.11051986366510391, -0.24655440449714661, -0.2962166965007782, 0.036916539072990417, 0.22588622570037842, 0.31319168210029602, -0.024601124227046967, 0.013845040462911129, -0.44497969746589661, -0.069774933159351349, -0.054209835827350616, 0.22391340136528015, 0.19614027440547943, 0.27991268038749695, 0.069431066513061523, 0.13015995919704437, -0.1740642637014389, 0.26189443469047546, 0.23220199346542358, 0.18447627127170563, 0.23335543274879456, 0.0092537123709917068, -0.19759838283061981, 0.11103693395853043, -0.084902554750442505, -0.36936509609222412, -0.145412877202034, -0.048435691744089127, -0.2022508978843689, 0.014767744578421116, -0.59491276741027832, -0.09602617472410202, -0.075056895613670349, -0.16785265505313873, -0.26525199413299561, 0.1031867042183876, 0.063159219920635223, 0.21604618430137634, -0.089585013687610626, -0.097238875925540924, -0.023970378562808037, -0.0064934291876852512, -0.057711824774742126, -0.056168161332607269, 0.32645085453987122, -0.010343430563807487, 0.13209095597267151, 0.064345523715019226, -0.21393519639968872, 0.40059354901313782, 0.26288333535194397, 0.10332690179347992, -0.048323001712560654, 0.40460464358329773, -0.16448506712913513, 0.30130764842033386, -0.10145323723554611, -0.19270506501197815, 0.56091850996017456, -0.11200184375047684, -0.13436876237392426, -0.2407851368188858, 0.12027887254953384, -0.08528919517993927, -0.15052354335784912, -0.12285562604665756, -0.1123509481549263, 0.17776808142662048, 0.055892221629619598, 0.31749159097671509, 0.0085160909220576286, -0.0046631162986159325, -0.26261618733406067, 0.12345722317695618, -0.057954940944910049, -0.066908024251461029, 0.25328949093818665, 0.097384437918663025, 0.14742501080036163, 0.093696124851703644, -0.11868351697921753, 0.23169247806072235, 0.083918295800685883, -0.067914552986621857, 0.30413633584976196, 0.23616848886013031, 0.014594337902963161, 0.08274928480386734, 0.064113184809684753, -0.06673741340637207, 0.36208045482635498, -0.25937914848327637, 0.074660003185272217, 0.046792138367891312, -1.12004554271698, -0.063636533915996552, -0.18976278603076935, -0.1585547924041748, -0.1388910710811615, 0.013410210609436035, 0.0017915032804012299, 0.24807365238666534, 0.085357129573822021, -0.069607064127922058, -0.28483414649963379, -0.059593286365270615, 0.1125059500336647, -0.039852596819400787, 0.16278453171253204, 0.14052212238311768, 0.035709898918867111, 0.24744202196598053, 0.014836681075394154, 0.14750327169895172, 0.24859035015106201, 0.13470838963985443, 0.21700760722160339, 0.40563508868217468, 0.036886304616928101, 0.099955223500728607, -0.24152751266956329, -0.37490084767341614, 0.46090859174728394, -0.24013924598693848, -0.30096495151519775, -0.12744854390621185, -0.18719041347503662, -0.29565003514289856, -0.017207343131303787, -0.090551666915416718, -0.23622748255729675, 0.2062404602766037, 0.25000035762786865, 0.11637931317090988, 0.035105779767036438, -0.097677849233150482, -0.69000780582427979, -0.26419982314109802, 0.040767628699541092, -0.21955269575119019, 0.22930227220058441, -0.021068567410111427, 0.14813943207263947, -0.0082960547879338264, -0.38957655429840088, 0.034667119383811951, 0.26839178800582886, 0.092651352286338806, 0.17995135486125946, 0.26977294683456421, 0.016194747760891914, 0.31360244750976562, 0.082687854766845703, -0.26734617352485657, 0.26573258638381958, -0.25543683767318726, 0.081280849874019623, -0.20934379100799561, -0.13942267000675201, -0.39519628882408142, -0.30230814218521118, 0.20020487904548645, 0.12416673451662064, 0.20172992348670959, 0.16859401762485504, 0.17573435604572296, 0.11956054717302322, 0.0051424941048026085, -0.93282264471054077, 0.19003576040267944, -0.019249439239501953, -0.14939838647842407, 0.10050409287214279, 0.14740021526813507, 0.12986019253730774, -0.15225903689861298, -0.076784715056419373, -0.023683471605181694, 0.25976487994194031, 0.1358734667301178, 0.2147916853427887, 0.041033722460269928, -0.1703101247549057, 0.21385963261127472, 0.11813546717166901, -0.39562204480171204, -0.14507730305194855, -0.22960048913955688, 0.57192337512969971, -0.38744577765464783, 0.11320860683917999, -0.14865469932556152, -0.14099234342575073, 0.048252586275339127, 0.082705557346343994, 0.21481429040431976, 0.14879544079303741, 0.2114015519618988, -0.026320165023207664, -0.070154130458831787, 0.044466711580753326, 0.2823275625705719, -0.04577295109629631, -0.10844647139310837, -0.14943063259124756, 0.033018670976161957, 0.14416782557964325, 0.11008897423744202, -0.10111043602228165, 0.022299895063042641, 0.44242846965789795, 0.16406784951686859, 0.16581903398036957, 0.071625053882598877, -0.069117531180381775, -0.012429294176399708, 0.025485992431640625, 0.15629555284976959, 0.073402144014835358, -0.17432785034179688, 0.065405875444412231, -0.18775177001953125, -0.36976277828216553, -0.28366973996162415, -0.2123459130525589, -0.18808212876319885, 0.19181841611862183, 0.21513320505619049, -0.34133055806159973, -0.00086783268488943577, 0.094477511942386627, -0.070948988199234009, -0.50250715017318726, 0.17310643196105957, 0.043439101427793503, -0.11736366152763367, 0.10589227825403214, 0.22470945119857788, -0.063747897744178772, 0.12464351952075958, 0.056990470737218857, 0.2924637496471405, 0.36174625158309937, 0.087308965623378754, 0.28642785549163818, -0.0067036994732916355, -0.096243724226951599, 0.36636349558830261, -0.31587737798690796, -0.20337805151939392, -0.19274820387363434, -0.33758547902107239, 0.0065935705788433552, 0.22346509993076324, 0.20954875648021698, 0.045589882880449295, -0.29101192951202393, -0.10327133536338806, -0.17941173911094666, 0.11325547844171524, 0.19102711975574493, 0.075530998408794403, 0.21818658709526062, 0.23923014104366302, -1.0770136117935181, -0.076581984758377075, -0.067487411201000214, 0.10841072350740433, 0.2152101993560791, 0.1138521283864975, -0.13519258797168732, 0.11047464609146118, -0.061254352331161499, -0.025684282183647156, 0.33328014612197876, -0.0077067408710718155, 0.028125220909714699, -0.58364582061767578, -0.18320941925048828, -0.052158474922180176, 0.073272235691547394, -0.095644734799861908, -0.15494021773338318, -0.13027413189411163, 0.061272464692592621, 0.24940261244773865, 0.6090083122253418, -0.24180282652378082, -0.53800374269485474, 0.082227006554603577, -0.043779447674751282, 0.16901220381259918, 0.19133418798446655, -0.022566813975572586, 0.036588311195373535, -0.10383974015712738, -0.66032171249389648, -0.048898164182901382, -0.0091723129153251648, 0.13831323385238647, 0.13016892969608307, 0.13216987252235413, 0.20034362375736237, 0.23336932063102722, -0.11213831603527069, 0.052233234047889709, 0.19774508476257324, -0.053797557950019836, -0.10616419464349747, 0.12741415202617645, -0.25366178154945374, 0.26982393860816956, -0.070508338510990143, 0.0093393102288246155, -0.2119797021150589, -0.15347163379192352, 0.63049721717834473, -0.013902587816119194, -0.23671472072601318, -0.6141124963760376, -0.37847462296485901, 0.059822604060173035, 0.15659187734127045, 0.21253147721290588, -0.13567385077476501, -0.0061792326159775257, 0.054006997495889664, -0.14839617908000946, -0.10260634869337082, 0.35463833808898926, -0.059684306383132935, 0.049731679260730743, 0.097773350775241852, 0.085322879254817963, -0.045812014490365982, -0.12850870192050934, -0.4772067666053772, 0.29503521323204041, -0.00072037364589050412, -0.079888977110385895, -0.031753234565258026, 0.057203438133001328, -0.0075508155860006809, 0.15643453598022461, 0.52739220857620239, -0.5079306960105896, -0.38798227906227112, -0.05507500097155571, 0.084492847323417664, 0.32543331384658813, -0.013548959977924824, -0.44062212109565735, -0.079445570707321167, -0.015221386216580868, -0.12432430684566498, 0.26873016357421875, -0.10917577147483826, -0.037516526877880096, -0.0012438659323379397, 0.0074083199724555016, 0.17957897484302521, 0.30211171507835388, -0.15348285436630249, 0.098782069981098175, -0.036482911556959152, 0.035270489752292633, -0.34849399328231812, 0.40826830267906189, -0.1439274400472641, 0.11201097816228867, 0.0140491658821702, -0.00018032669322565198, 0.099885419011116028, 0.84187430143356323, 0.17665418982505798, 0.21990093588829041, -0.082846745848655701, -0.20784494280815125, -0.56671804189682007, 0.081131167709827423, 0.0619046650826931, -0.41611301898956299, 0.082138538360595703, -0.32741624116897583, -0.13716310262680054, 0.13249048590660095, -0.10884364694356918, -0.19332459568977356, -0.52497971057891846, -0.086214318871498108, 0.23309469223022461, 0.072131499648094177, -0.30830734968185425, 0.41409477591514587, 0.11415255814790726, -0.053243454545736313, 0.38452380895614624, 0.17578385770320892, -0.15849660336971283, -0.16389237344264984, 0.054837729781866074, -0.34961432218551636, 0.051819328218698502, -0.15773299336433411, 0.13671447336673737, 0.12431496381759644, -0.41915580630302429, 0.16719496250152588, 0.027395376935601234, 0.52525442838668823, 0.17146842181682587, -0.12571118772029877, -0.30057364702224731, 0.04108593612909317, -0.38169106841087341, 
};
const TfArray<2, int> tensor_dimension5 = { 2, { 3,800 } };
const ALIGN(8) float tensor_data6[16] = { 0, 0, 0, 0, 0, 0, 0, 0, 0, 0, 0, 0, 0, 0, 0, 0, };
const TfArray<1, int> tensor_dimension6 = { 1, { 16 } };
const ALIGN(8) float tensor_data7[16*1*3*13] = { 
  /* [0][0][][] */ 0.27771919965744019,-0.025555076077580452,-0.10532277822494507,-0.7199055552482605,0.99224311113357544,-0.57535463571548462,0.26026758551597595,0.30168652534484863,0.5211300253868103,-0.59794443845748901,0.48656284809112549,0.0053898822516202927,-0.10508336871862411, -1.3419340848922729,-1.1552084684371948,0.064577639102935791,-0.36146968603134155,0.57188379764556885,-0.24977631866931915,0.15052540600299835,-0.041914254426956177,-0.10953936725854874,0.51272141933441162,0.093712806701660156,-0.43543985486030579,0.23328155279159546, 0.73807108402252197,0.78194683790206909,0.084950335323810577,-0.28660604357719421,0.55079007148742676,0.15900111198425293,0.43089950084686279,-0.23128484189510345,0.62965726852416992,-0.089351065456867218,0.14205096662044525,0.31732779741287231,0.069581277668476105, 
  /* [1][0][][] */ -0.51895737648010254,0.043139457702636719,-0.3146246075630188,-0.17490655183792114,0.46896469593048096,-0.074929296970367432,0.35041218996047974,-0.42386651039123535,-0.26499453186988831,-0.20239561796188354,-0.0244321059435606,-0.18918792903423309,0.028384801000356674, 0.49032717943191528,-0.24925468862056732,-0.07269781082868576,-0.87428653240203857,0.12696616351604462,0.16906121373176575,0.054151684045791626,0.069681555032730103,-0.085051700472831726,-0.080359086394309998,-0.042188037186861038,-0.11872701346874237,0.29958814382553101, -2.179882287979126,-0.69393259286880493,-0.28197291493415833,0.14314797520637512,0.049296528100967407,0.10854198038578033,0.16808272898197174,-0.45319914817810059,0.04565303772687912,-0.1869906485080719,0.26932024955749512,-0.02988678403198719,-0.074865147471427917, 
  /* [2][0][][] */ 0.82200163602828979,0.11122827231884003,-0.54581695795059204,-0.35207211971282959,-0.4920600950717926,-0.27871724963188171,-0.18033958971500397,0.41579532623291016,0.15122435986995697,0.044662006199359894,-0.20887757837772369,0.22408148646354675,0.041013076901435852, -0.2415376603603363,-0.12746964395046234,-0.28371793031692505,-0.27568650245666504,-0.12890975177288055,-0.059530772268772125,0.13956557214260101,0.59830570220947266,-0.32036706805229187,-0.33432105183601379,-0.32806685566902161,0.24433617293834686,0.10130778700113297, 0.032748177647590637,0.039391078054904938,-0.43354099988937378,-0.1299186497926712,-0.32753843069076538,0.058000866323709488,-0.3993794322013855,0.45850387215614319,0.11512396484613419,0.00050839257892221212,0.026679493486881256,0.27694645524024963,-0.38876181840896606, 
  /* [3][0][][] */ 1.1975817680358887,0.045997172594070435,0.79544317722320557,-0.18753017485141754,-0.54931259155273438,0.34047392010688782,-0.58567363023757935,-0.21021296083927155,0.19236178696155548,0.25833380222320557,-0.30813813209533691,-0.041229303926229477,-0.11911256611347198, -0.2910882830619812,-0.26659992337226868,0.57585757970809937,0.072957143187522888,-0.024054508656263351,0.083867795765399933,-0.18022839725017548,-0.043374877423048019,0.14531467854976654,0.23872463405132294,0.001612410182133317,0.25440526008605957,-0.18898108601570129, -1.1481194496154785,-0.4325404167175293,0.73402392864227295,-0.098204903304576874,-0.36327546834945679,0.36001846194267273,-0.45992034673690796,0.040480520576238632,-0.065014079213142395,-0.068412885069847107,0.054805625230073929,0.3276669979095459,-0.039052177220582962, 
  /* [4][0][][] */ 3.1835267543792725,0.37871518731117249,0.23322750627994537,-0.020879846066236496,0.33256471157073975,-0.079307086765766144,0.10853812843561172,-0.034224856644868851,-0.0026032212190330029,-0.16761013865470886,0.060495175421237946,0.083108879625797272,0.085315614938735962, 0.46084246039390564,-0.28418043255805969,0.41684696078300476,-0.18787255883216858,-0.15662501752376556,-0.16978134214878082,0.049587249755859375,-0.035104747861623764,-0.12158109247684479,-0.041215855628252029,0.040797118097543716,-0.09427429735660553,0.031176341697573662, -3.9555304050445557,-0.26026970148086548,-0.35246098041534424,0.28141474723815918,-0.032507594674825668,0.21078826487064362,0.045372031629085541,-0.048044200986623764,0.16959576308727264,0.17786547541618347,-0.2030903697013855,0.082418054342269897,-0.060535326600074768, 
  /* [5][0][][] */ 0.33584690093994141,0.53980517387390137,-0.085397019982337952,0.33561491966247559,0.1813119649887085,-0.14903099834918976,0.047756750136613846,0.16274392604827881,-0.19561444222927094,-0.24731911718845367,-0.0077167362906038761,0.097939521074295044,0.058163709938526154, 1.2971781492233276,-1.5704364776611328,0.29161328077316284,-0.52402806282043457,0.38912156224250793,-0.096247568726539612,-0.21701110899448395,-0.066411755979061127,0.0027612990234047174,-0.031649209558963776,0.025268273428082466,0.086641855537891388,-0.036287270486354828, 0.60704332590103149,0.60568273067474365,-0.32487893104553223,-0.2026945948600769,-0.45033180713653564,0.42598748207092285,-0.29886561632156372,0.27946260571479797,-0.09693637490272522,-0.16424925625324249,0.088670715689659119,-0.25261580944061279,0.050103966146707535, 
  /* [6][0][][] */ -0.071752250194549561,-0.68127089738845825,-1.3481824398040771,-0.076165348291397095,-0.025387929752469063,0.030218681320548058,-0.42768830060958862,0.25217106938362122,0.52685904502868652,-0.088232740759849548,-0.0027080725412815809,-0.23993222415447235,0.015368801541626453, -0.86852031946182251,-1.1610380411148071,0.2428763210773468,0.044914677739143372,0.26476818323135376,-0.010316585190594196,0.07625173032283783,-0.29121363162994385,0.10968073457479477,-0.15936306118965149,0.070508450269699097,0.095938101410865784,0.24668808281421661, -1.3922321796417236,0.16283747553825378,0.44639047980308533,0.0046197925694286823,-0.11858941614627838,0.092086531221866608,-0.31387749314308167,0.011227278970181942,-0.20264525711536407,-0.061931554228067398,-0.28072100877761841,-0.18044176697731018,0.030870895832777023, 
  /* [7][0][][] */ 0.36099815368652344,0.096113331615924835,0.24233970046043396,0.037605434656143188,0.53443676233291626,0.38115978240966797,0.13555775582790375,0.23094549775123596,-0.17895522713661194,0.090497441589832306,-0.13695994019508362,0.038162387907505035,0.22907772660255432, 0.647411048412323,0.79775476455688477,0.23159484565258026,0.39807102084159851,0.14125616848468781,0.21791800856590271,0.020563062280416489,0.12888775765895844,-0.23837463557720184,-0.099265061318874359,-0.31825610995292664,-0.022112391889095306,0.11620436608791351, -0.13723012804985046,0.7619367241859436,0.66343796253204346,-0.080476805567741394,0.33141604065895081,0.18328319489955902,0.06760832667350769,-0.020876754075288773,-0.13866139948368073,0.23692083358764648,0.15443387627601624,-0.13829796016216278,0.16534186899662018, 
  /* [8][0][][] */ 1.5047200918197632,0.20914456248283386,-0.053692881017923355,0.262815922498703,-0.70891672372817993,-0.53021609783172607,-0.17669793963432312,-0.20693644881248474,0.20604969561100006,0.14178407192230225,0.28979411721229553,-0.039312925189733505,0.28663665056228638, -1.7054643630981445,-0.16402341425418854,0.33525970578193665,-0.017956774681806564,0.26933449506759644,-0.26916706562042236,0.21253995597362518,0.022073019295930862,0.41604992747306824,-0.10590367764234543,-0.024151228368282318,0.096374273300170898,-0.41960170865058899, -2.7221899032592773,-0.97444278001785278,-0.32319334149360657,-0.2750871479511261,0.63210576772689819,-0.006786989513784647,-0.11246830224990845,0.16524907946586609,-0.14516696333885193,-0.10509628802537918,0.10187631100416183,-0.075521856546401978,-0.14429499208927155, 
  /* [9][0][][] */ 0.41939002275466919,-0.423747718334198,-0.22353304922580719,-0.33788233995437622,0.1120830774307251,-0.18638551235198975,0.19990360736846924,0.071401342749595642,-0.058335009962320328,-0.023880578577518463,0.15844994783401489,0.21566784381866455,-0.046519502997398376, -0.88886576890945435,1.6414272785186768,0.036029089242219925,0.089006505906581879,0.042639430612325668,0.37202304601669312,0.065061241388320923,0.0060829678550362587,-0.29169538617134094,-0.1528928279876709,0.027511026710271835,0.53892767429351807,-0.02806558832526207, -2.6338212490081787,0.59131276607513428,-0.79069185256958008,0.24877199530601501,0.17835238575935364,-0.069474808871746063,-0.63769358396530151,-0.025772858411073685,0.25961071252822876,-0.35049256682395935,0.11001531034708023,-0.16068314015865326,0.24169695377349854, 
  /* [10][0][][] */ -1.5633025169372559,0.51474636793136597,-0.32286891341209412,0.26558724045753479,-0.074853852391242981,0.16957533359527588,-0.097029946744441986,-0.17196014523506165,0.27135208249092102,-0.16320212185382843,0.03826584666967392,-0.06066528707742691,-0.029571151360869408, -2.2917687892913818,-1.5196188688278198,-0.23347382247447968,-0.59482032060623169,-0.16476114094257355,0.0095576625317335129,-0.07569548487663269,0.034797783941030502,-0.14976558089256287,0.14922656118869781,0.095940046012401581,0.12426351010799408,0.0077215246856212616, 2.960268497467041,0.15210385620594025,0.42509782314300537,0.27948886156082153,0.65664488077163696,0.11672066152095795,-0.047171663492918015,-0.00233270856551826,-0.022312445566058159,0.0022431386169046164,0.16614240407943726,0.10898654162883759,-0.29805794358253479, 
  /* [11][0][][] */ 0.085147790610790253,0.69453471899032593,-0.018294895067811012,-0.60275685787200928,-0.13149721920490265,0.28837171196937561,-0.27999132871627808,-0.19720597565174103,0.11609964072704315,-0.25800296664237976,0.37060651183128357,-0.13764646649360657,0.022957896813750267, -0.25979402661323547,0.43119287490844727,-0.019048979505896568,-0.14329855144023895,0.013279955834150314,-0.070001505315303802,-0.018943672999739647,0.15950563549995422,-0.13871702551841736,0.038986034691333771,-0.046514406800270081,-0.18369147181510925,0.031413126736879349, -0.0067391195334494114,0.91393691301345825,0.067721836268901825,-0.63079559803009033,-0.061117809265851974,-0.2011665552854538,-0.33599263429641724,-0.38601329922676086,-0.28887772560119629,-0.17361876368522644,0.098370850086212158,-0.21437720954418182,0.010765444487333298, 
  /* [12][0][][] */ -0.067546844482421875,-0.92631626129150391,0.3275076150894165,0.20336458086967468,-0.3031482994556427,0.45933350920677185,0.80123400688171387,0.25477227568626404,-0.27831345796585083,0.16737475991249084,-0.37856605648994446,0.075750179588794708,0.35695746541023254, -1.4363569021224976,-0.80144685506820679,0.023605408146977425,-0.37450501322746277,-0.51153939962387085,0.14605602622032166,0.11533886939287186,0.15795502066612244,-0.72136437892913818,0.43576109409332275,-0.05964222177863121,-0.31964042782783508,-0.12035896629095078, 0.17798550426959991,-0.2832147479057312,-0.45435574650764465,-0.43089079856872559,0.19941741228103638,0.40960186719894409,0.3167855441570282,0.547995924949646,-0.38887661695480347,0.079608432948589325,-0.084882944822311401,0.048203136771917343,0.044475086033344269, 
  /* [13][0][][] */ -0.62310886383056641,0.58784961700439453,-0.23230916261672974,0.65359288454055786,-0.1244320273399353,-0.071508839726448059,-0.40353578329086304,0.15738017857074738,-0.3362346887588501,-0.16882719099521637,0.32376900315284729,-0.24988524615764618,0.095680803060531616, 0.34421733021736145,0.59154468774795532,0.19022247195243835,0.02394726499915123,-0.39177751541137695,-0.57447880506515503,-0.098399125039577484,0.13593453168869019,0.12581880390644073,0.070040591061115265,0.2091432511806488,0.11110351979732513,0.078303210437297821, 0.52144545316696167,-0.40767282247543335,0.43379834294319153,0.26238134503364563,-0.34260174632072449,-0.42152616381645203,0.30911430716514587,0.064043693244457245,-0.11126648634672165,0.10899753123521805,0.026784712448716164,-0.1595005989074707,0.026105986908078194, 
  /* [14][0][][] */ -0.68903124332427979,-0.01355264987796545,0.62719762325286865,0.26684898138046265,-0.22878283262252808,0.24847120046615601,-0.067697912454605103,-0.027676355093717575,-0.046806931495666504,-0.23174192011356354,-0.31645533442497253,0.27903148531913757,-0.2247375100851059, -0.49991345405578613,-0.84424591064453125,-0.068709015846252441,-0.11751098930835724,0.54108661413192749,0.045871574431657791,0.22688816487789154,-0.27550017833709717,0.24150204658508301,-0.009676717221736908,-0.083321012556552887,0.13953287899494171,0.039977781474590302, 0.85713016986846924,-0.9944118857383728,-0.60440576076507568,-0.072015918791294098,0.35105463862419128,-0.17842230200767517,0.35466593503952026,0.18937678635120392,0.068088270723819733,0.12016072869300842,-0.66547155380249023,0.011666622944176197,0.14160332083702087, 
  /* [15][0][][] */ -0.93665510416030884,-0.1156499981880188,-0.56206315755844116,-0.50443470478057861,0.98224103450775146,0.24879668653011322,-0.37827864289283752,-0.12675301730632782,0.35139155387878418,-0.24260194599628448,0.24624212086200714,-0.50630372762680054,0.44435945153236389, -0.61533218622207642,0.32568776607513428,0.041167397052049637,0.24949005246162415,-0.62075424194335938,-0.34773838520050049,0.0061462847515940666,-0.23169045150279999,0.3039030134677887,0.086538620293140411,0.23979048430919647,-0.01895785890519619,-0.070010386407375336, 0.6005866527557373,-0.0097101191058754921,0.094738319516181946,-0.17517209053039551,-1.1984990835189819,-0.046087328344583511,-0.5017087459564209,0.042412314563989639,0.12514632940292358,0.27031022310256958,0.024849629029631615,-0.15166591107845306,-0.43952694535255432, 
};
const TfArray<4, int> tensor_dimension7 = { 4, { 16,1,3,13 } };
const ALIGN(8) float tensor_data8[32] = { 0, 0, 0, 0, 0, 0, 0, 0, 0, 0, 0, 0, 0, 0, 0, 0, 0, 0, 0, 0, 0, 0, 0, 0, 0, 0, 0, 0, 0, 0, 0, 0, };
const TfArray<1, int> tensor_dimension8 = { 1, { 32 } };
const ALIGN(8) float tensor_data9[32*1*3*16] = { 
  /* [0][0][][] */ -2.3622593879699707,-1.4464335441589355,-3.3892240524291992,-0.27917927503585815,-0.031958863139152527,-0.066840209066867828,-2.2579262256622314,0.08325108140707016,-2.3199455738067627,-3.41400146484375,-0.74098622798919678,-0.68474626541137695,-0.037628155201673508,-1.11861252784729,0.14645113050937653,-2.8096635341644287, -2.3796389102935791,-0.77889317274093628,-1.6261425018310547,-0.35707157850265503,-0.095011346042156219,0.066851697862148285,-1.5552791357040405,-0.03547891229391098,-1.9183697700500488,-3.8463230133056641,-1.2873178720474243,-1.5436846017837524,-0.057199127972126007,-1.0600453615188599,0.14982706308364868,-1.1601146459579468, -1.5112096071243286,-0.79973316192626953,-1.0480984449386597,-0.24853816628456116,-0.29677683115005493,-0.19327938556671143,-1.216266393661499,-0.12854798138141632,-1.9345192909240723,-2.1076347827911377,-1.1453136205673218,-2.2807049751281738,-0.5840526819229126,-0.41273960471153259,0.32317504286766052,-1.6926681995391846, 
  /* [1][0][][] */ -2.9104788303375244,-0.59470784664154053,-0.87320405244827271,-0.013824360445141792,-1.3154613971710205,-1.7916858196258545,-0.74244958162307739,0.18577125668525696,-0.29113256931304932,-0.59619522094726562,-0.53857648372650146,-4.0262179374694824,0.19453781843185425,-0.030899478122591972,0.29038798809051514,-0.67730861902236938, -0.60597598552703857,-0.26166591048240662,0.25708800554275513,-0.005850519984960556,-1.4525580406188965,-0.67966592311859131,-1.8005443811416626,-0.68177777528762817,-0.68965953588485718,-2.9297366142272949,-0.03754786029458046,-2.0476610660552979,-0.077882088720798492,-0.078296341001987457,0.16854172945022583,-0.8894352912902832, -0.12549498677253723,-0.023034658282995224,0.16481685638427734,0.009615657851099968,-0.68688201904296875,-0.53146243095397949,-1.0187656879425049,-0.32942762970924377,-1.1544333696365356,-2.2213797569274902,-0.096411213278770447,-2.6826086044311523,0.15119992196559906,-0.93319016695022583,0.10986188799142838,-3.9732062816619873, 
  /* [2][0][][] */ -4.0727462768554688,-1.0650687217712402,-0.01065344363451004,0.099567525088787079,0.089248135685920715,-0.62810909748077393,-0.85049247741699219,-0.3536507785320282,-0.11640655994415283,-0.57658606767654419,-3.4574205875396729,-0.10898958146572113,-2.3126416206359863,0.43601623177528381,-0.42108500003814697,0.075768552720546722, -1.9212325811386108,-0.37770178914070129,-0.5893285870552063,0.073240794241428375,0.0092321243137121201,-3.9770691394805908,-0.14221937954425812,-0.36980429291725159,0.030432961881160736,-0.46557801961898804,-0.66399872303009033,-0.87688523530960083,-0.28731977939605713,-0.11747888475656509,0.070948630571365356,-0.71295785903930664, -0.65294122695922852,0.29256054759025574,-1.4886887073516846,-0.19905433058738708,-0.0039704674854874611,-2.4495728015899658,0.084980696439743042,-1.7361502647399902,0.16963693499565125,-0.31208789348602295,-0.15680970251560211,-2.2684433460235596,-0.0085112974047660828,-0.73036926984786987,0.28310984373092651,-1.2467719316482544, 
  /* [3][0][][] */ -0.11041633039712906,-1.0638060569763184,-0.090732172131538391,-0.57984256744384766,-3.5735881328582764,-0.2387528121471405,-0.14571522176265717,-0.47628352046012878,-0.42353141307830811,-0.061065532267093658,-0.83625853061676025,-0.011226505041122437,-3.9280004501342773,0.022391671314835548,-1.4513276815414429,0.1145164892077446, -0.32909780740737915,-0.95959800481796265,0.12257884442806244,-0.072904601693153381,-0.06974136084318161,-0.24750874936580658,-0.36192360520362854,0.0052470508962869644,0.045729681849479675,-0.59947985410690308,-2.6523346900939941,-0.55994635820388794,-0.68362575769424438,0.12146932631731033,-1.4085417985916138,0.17865404486656189, -0.45375645160675049,-0.056623440235853195,-0.60323470830917358,0.032266076654195786,0.22930304706096649,-2.1500887870788574,-0.10875688493251801,-0.24686926603317261,0.17311897873878479,-0.10054398328065872,-0.90843743085861206,-1.3955845832824707,-1.5804355144500732,-0.082991063594818115,0.094249889254570007,-0.098969146609306335, 
  /* [4][0][][] */ 0.16133195161819458,-0.019466407597064972,-0.32828709483146667,-0.4841458797454834,-1.857079029083252,0.41272225975990295,-0.63419699668884277,0.11062275618314743,-0.081753648817539215,-0.77825158834457397,-0.33474951982498169,-0.15112154185771942,0.22117190062999725,0.84787827730178833,-0.24243897199630737,-0.3089577853679657, 0.027157597243785858,0.081629373133182526,0.54496258497238159,-0.68252795934677124,-0.60071718692779541,0.12003083527088165,-0.33028218150138855,-0.074335463345050812,-0.70308488607406616,-0.037822667509317398,-0.47728180885314941,-0.13758456707000732,-0.39514243602752686,-0.2565799355506897,0.018305452540516853,-0.048954643309116364, 0.64183217287063599,-0.26475980877876282,-0.087288819253444672,-1.0849978923797607,-0.81548070907592773,0.040299355983734131,-0.53947466611862183,-0.031524341553449631,-2.0549490451812744,0.20926564931869507,-0.69217973947525024,0.25420430302619934,-0.15908879041671753,-0.25637724995613098,-0.60220992565155029,-0.14531813561916351, 
  /* [5][0][][] */ -0.018293216824531555,-0.72424024343490601,-0.090322807431221008,0.050856549292802811,0.094744078814983368,-0.10293339192867279,-1.5327162742614746,0.32596936821937561,-0.06709057092666626,0.099265716969966888,-0.54861283302307129,-1.9724574089050293,-0.55414646863937378,0.3895089328289032,-0.084453284740447998,-2.2756369113922119, 0.086214214563369751,0.12710225582122803,-0.055454809218645096,-0.83405345678329468,0.16456851363182068,-0.25861179828643799,-1.3632527589797974,-0.1233275830745697,-0.22405076026916504,-0.090099073946475983,-2.6146972179412842,-0.77383989095687866,-0.49099546670913696,-0.063669309020042419,-1.0972319841384888,-0.4262673556804657, 0.45277500152587891,-2.2153668403625488,-0.42633947730064392,-2.6916651725769043,-1.0162731409072876,-0.3129459023475647,-2.4958286285400391,0.12809443473815918,-1.4923959970474243,-0.035736255347728729,-1.5368165969848633,-0.081298887729644775,-0.25469455122947693,0.029509194195270538,-2.5714118480682373,-0.22929820418357849, 
  /* [6][0][][] */ 0.31145626306533813,-0.078513465821743011,0.31771466135978699,0.20274490118026733,-0.047622241079807281,0.2012765109539032,-0.4946129322052002,-1.2145557403564453,-0.33787497878074646,-1.1330184936523438,-0.19797717034816742,-0.7820935845375061,-0.22234563529491425,-0.025853704661130905,0.070952646434307098,-0.3540509045124054, 0.041081979870796204,-0.030639741569757462,-0.22845292091369629,-0.23357798159122467,-0.30366367101669312,0.18251222372055054,-0.16090141236782074,-0.85656195878982544,-0.110703244805336,-0.58843100070953369,-0.074199333786964417,-1.4092254638671875,0.20257163047790527,-0.23355166614055634,0.057456310838460922,-0.14145028591156006, 0.32255953550338745,-0.0016141104279085994,0.44084626436233521,0.72249740362167358,-0.3229261040687561,0.21282333135604858,-0.07016405463218689,-0.49664387106895447,-0.23313570022583008,-0.27164176106452942,0.013381946831941605,-0.33527854084968567,-0.088046751916408539,0.1249445453286171,0.060962878167629242,0.0037865147460252047, 
  /* [7][0][][] */ -1.1066302061080933,0.080031096935272217,-0.46093863248825073,-1.0875110626220703,-1.8256077766418457,-4.6406760215759277,-0.0064368140883743763,-4.6787905693054199,-0.031526964157819748,-0.022696590051054955,-0.30563217401504517,-1.5902931690216064,-1.5080920457839966,-4.4662909507751465,-0.059005394577980042,-0.59012264013290405, -0.3269307017326355,0.11968554556369781,-1.9089771509170532,-1.2807108163833618,-0.80092340707778931,-3.98152756690979,0.038129087537527084,-2.5390200614929199,-0.052445713430643082,-0.21805515885353088,-0.22880439460277557,-1.9724292755126953,-0.60146534442901611,-2.0067093372344971,0.038620144128799438,-0.43893358111381531, -0.89814507961273193,0.0077285692095756531,-0.64099341630935669,-1.0653737783432007,-0.8439476490020752,-3.6237080097198486,0.027574356645345688,-3.4362044334411621,0.11319563537836075,-0.30232420563697815,-0.31724780797958374,-1.5840053558349609,-0.95465219020843506,-4.1787843704223633,-0.015320029109716415,-0.89473617076873779, 
  /* [8][0][][] */ 0.098983019590377808,0.23221006989479065,-0.71547770500183105,-0.78861421346664429,-0.31533098220825195,-0.88994663953781128,0.079380132257938385,-1.0680837631225586,-0.015688596293330193,-0.30690979957580566,0.003013774286955595,0.060429755598306656,-0.13540464639663696,-0.28463253378868103,0.050550755113363266,0.21507123112678528, -0.16772857308387756,-0.57978636026382446,-0.46546831727027893,0.12363075464963913,-0.17047743499279022,-0.2435038834810257,-0.25481754541397095,-0.78528565168380737,-0.32769143581390381,-0.081417493522167206,-0.29896822571754456,-0.038241270929574966,-3.9590144157409668,-0.054339766502380371,-1.0642684698104858,0.31655457615852356, -0.41571381688117981,-1.3174445629119873,-0.34002372622489929,0.28232264518737793,0.09331202507019043,-0.078714072704315186,-0.57607030868530273,-0.48317974805831909,0.21103687584400177,-0.04818246141076088,-1.4623861312866211,0.04991607740521431,-4.0795459747314453,0.041473686695098877,-2.2934436798095703,0.18960042297840118, 
  /* [9][0][][] */ 0.28072628378868103,-0.13641180098056793,0.33714559674263,-1.0787855386734009,-0.097977861762046814,-0.83078533411026001,-0.095674268901348114,-0.70875465869903564,-0.12250529229640961,-0.085317865014076233,-0.43597275018692017,0.17158457636833191,-0.56993883848190308,-0.11169552057981491,-0.2856408953666687,0.1575293093919754, -0.42899104952812195,-0.031737934798002243,-0.18853558599948883,-0.80403947830200195,-0.12036516517400742,-0.8890339732170105,-0.45608964562416077,-0.51026827096939087,-0.30800393223762512,-0.084075912833213806,-0.40993082523345947,-0.89211785793304443,-0.15302060544490814,-1.2754583358764648,-0.33995816111564636,-0.003340219845995307, -0.21076266467571259,-0.13192591071128845,-0.91899603605270386,-0.085798859596252441,0.10036998987197876,-0.13045503199100494,-0.52176988124847412,-0.50573211908340454,-0.28664293885231018,-0.13887405395507812,0.58322262763977051,-1.2241318225860596,-0.36809459328651428,0.15242350101470947,-0.097945831716060638,-0.017792841419577599, 
  /* [10][0][][] */ 0.21399150788784027,-2.29453444480896,0.19089801609516144,-0.46274286508560181,-0.30556735396385193,0.15588502585887909,-1.7672241926193237,0.10240839421749115,-2.1263144016265869,-0.90080749988555908,-1.0459887981414795,0.41346675157546997,0.68499082326889038,0.51464670896530151,-0.6909448504447937,0.1002533957362175, 0.14414560794830322,-0.69404006004333496,-0.34674873948097229,-0.13769260048866272,-0.13325861096382141,0.43053746223449707,-2.0993328094482422,-0.26314356923103333,-0.2481941431760788,0.51185572147369385,-0.37458592653274536,-0.13597862422466278,0.62179750204086304,-0.13766540586948395,-0.46103128790855408,-1.1506454944610596, 0.086184419691562653,-0.87161374092102051,-0.0080545991659164429,-0.56405442953109741,-0.20965263247489929,0.24457712471485138,-1.2962057590484619,0.21778760850429535,-1.2818058729171753,0.23798704147338867,-2.1388216018676758,0.22278192639350891,-0.22972245514392853,-0.700386643409729,-0.37640026211738586,-0.51369428634643555, 
  /* [11][0][][] */ -0.10310705751180649,-0.04003123939037323,-1.2269982099533081,-0.42729923129081726,-0.023042753338813782,0.88374948501586914,0.048807930201292038,0.035334587097167969,0.047441102564334869,-0.10682196915149689,-0.060396529734134674,0.14259037375450134,-0.31780374050140381,-0.51997667551040649,0.1798376739025116,0.0091524878516793251, -0.26444655656814575,0.041073057800531387,-1.4131268262863159,0.066947653889656067,-0.12224079668521881,-0.097526282072067261,-0.017606591805815697,-0.0015015812823548913,0.055255766957998276,-0.24033528566360474,-0.015280667692422867,0.10528992116451263,-0.39775964617729187,-1.9081089496612549,-0.028367754071950912,0.0032424600794911385, -0.045597508549690247,0.038796164095401764,-1.4020231962203979,0.36545628309249878,0.053691376000642776,-0.53092294931411743,0.06859453022480011,0.050750501453876495,-0.014996561221778393,0.92547643184661865,-0.1730208545923233,-0.02468588761985302,-0.53525370359420776,-1.1321049928665161,-0.092922933399677277,-0.034957572817802429, 
  /* [12][0][][] */ -0.24369111657142639,-0.27152290940284729,-0.0896955206990242,-0.15917544066905975,-0.14523343741893768,0.45343226194381714,-0.15988633036613464,-1.152163028717041,-1.3030229806900024,0.11801789700984955,-0.32855013012886047,-1.2196106910705566,-1.147300124168396,-0.2462812066078186,-0.28538256883621216,-0.68667906522750854, -0.54504644870758057,-0.19538421928882599,0.2002749890089035,-0.45461368560791016,-0.058032069355249405,0.40941035747528076,-0.069023534655570984,-0.56873452663421631,-0.36992880702018738,-1.9183707237243652,0.29667070508003235,-0.81468319892883301,-1.4731210470199585,-0.28090503811836243,-0.065244384109973907,-2.349963903427124, -0.63361579179763794,-0.050751291215419769,-0.05284467339515686,-1.4892441034317017,0.019624872133135796,-0.20019660890102386,-0.40429872274398804,-0.90487754344940186,-0.39023172855377197,-0.7705538272857666,-0.18270969390869141,-1.1590569019317627,0.16518601775169373,-0.41989788413047791,-0.026824023574590683,-0.4801008403301239, 
  /* [13][0][][] */ -1.2468451261520386,-1.4567523002624512,0.12919721007347107,0.0051750056445598602,-0.78594726324081421,0.10489732772111893,-0.68773895502090454,-0.41415542364120483,-0.33397889137268066,-0.12092098593711853,-0.078471437096595764,-0.37624052166938782,-0.30699422955513,0.81163465976715088,-0.23515576124191284,0.37051329016685486, -0.23307818174362183,-1.8136634826660156,-0.026652377098798752,0.0024983892217278481,-0.63070398569107056,-0.20556728541851044,-0.27383202314376831,0.027822082862257957,-0.35836297273635864,-2.0014283657073975,0.16544643044471741,-0.42016154527664185,0.19404801726341248,-0.12050577998161316,-0.37192299962043762,-0.29766941070556641, 0.035866551101207733,-0.76112890243530273,0.57007259130477905,-0.072837337851524353,-0.59157365560531616,-0.031969014555215836,-1.3322643041610718,-0.23013186454772949,-0.88143205642700195,-2.6052944660186768,-2.0716075897216797,-0.20991821587085724,0.015954280272126198,-0.019293172284960747,-0.53042447566986084,-0.23878642916679382, 
  /* [14][0][][] */ 0.011158827692270279,-0.1887517124414444,0.051050804555416107,0.25599858164787292,-0.13955917954444885,0.015892863273620605,0.135075643658638,0.090056508779525757,-0.14009596407413483,-0.12647812068462372,-0.11730451136827469,-0.10216493904590607,-0.15172258019447327,-0.10275004804134369,-0.24262198805809021,0.14691248536109924, -1.748753547668457,-1.4342502355575562,0.081813625991344452,-0.22788751125335693,-0.1108873188495636,0.035294327884912491,-0.86033475399017334,-0.14072807133197784,-0.052342459559440613,-0.18392789363861084,-0.7333444356918335,0.51584768295288086,0.031785111874341965,0.48141050338745117,-0.69128686189651489,-0.26825231313705444, 0.076590001583099365,-0.72068041563034058,-0.3888607919216156,0.33072450757026672,-0.23707054555416107,-0.28826260566711426,-1.6623351573944092,0.24845996499061584,0.063786953687667847,-0.75762224197387695,-0.90834593772888184,0.15117768943309784,0.12718455493450165,0.033967446535825729,-0.80938541889190674,-0.10524425655603409, 
  /* [15][0][][] */ -0.3768351674079895,-0.031890034675598145,0.018418166786432266,0.09199918806552887,-0.48463082313537598,-0.098628945648670197,-0.73034775257110596,0.19703000783920288,-0.6871986985206604,-1.5262415409088135,-0.61257779598236084,-1.0443989038467407,0.27759617567062378,-0.52185714244842529,-0.11973780393600464,-0.55118054151535034, 0.20814083516597748,-0.13729465007781982,-0.13078460097312927,0.050910383462905884,-0.59271144866943359,0.18288590013980865,-0.67219388484954834,0.0042964145541191101,-2.2746829986572266,-1.4713572263717651,-0.93302547931671143,-2.1257898807525635,-0.071281887590885162,-0.34211605787277222,0.051037516444921494,-0.60228830575942993, -0.4750862717628479,-0.17690622806549072,0.057601705193519592,0.15810896456241608,-0.72095322608947754,-0.19399634003639221,-0.62059986591339111,0.13100485503673553,-0.52422463893890381,-1.7848919630050659,-1.5032129287719727,-1.6674470901489258,0.38882791996002197,0.56906193494796753,-0.24738579988479614,-1.0522221326828003, 
  /* [16][0][][] */ -0.059056907892227173,-1.1132981777191162,-0.054287698119878769,0.14127239584922791,-0.24016954004764557,-1.4682722091674805,-0.24244067072868347,-0.75180613994598389,0.21566671133041382,-0.6150243878364563,-1.4668378829956055,-0.031831461936235428,-0.75085717439651489,0.040392659604549408,-1.3774596452713013,0.14254011213779449, -0.30739447474479675,-0.36864304542541504,0.27358579635620117,-1.0277743339538574,-0.34969446063041687,-1.4850167036056519,-0.24454233050346375,-0.48593571782112122,0.11148733645677567,-0.24316737055778503,-0.064413517713546753,0.13581490516662598,-0.53626066446304321,-0.20183126628398895,-1.0599806308746338,0.02561289444565773, 0.36722859740257263,-0.48077934980392456,0.14910972118377686,-0.85512679815292358,-0.11194192618131638,-1.6705499887466431,-0.27574944496154785,-0.15306958556175232,0.1310172975063324,0.053504735231399536,-0.45311635732650757,0.0038132944609969854,-0.24191012978553772,-0.46543505787849426,-1.4564990997314453,0.38472750782966614, 
  /* [17][0][][] */ 0.13434439897537231,0.085730232298374176,0.084331132471561432,-0.97892594337463379,-0.13735753297805786,-0.95128095149993896,0.26784566044807434,-2.3132891654968262,-0.023741401731967926,-0.28014352917671204,0.05676434189081192,-0.48616147041320801,0.13496208190917969,-0.6677783727645874,-0.039313741028308868,0.0080625684931874275, 0.30231460928916931,-0.12334032356739044,0.035963878035545349,0.0040757427923381329,-0.77461349964141846,-0.55742466449737549,0.132417231798172,-0.81718343496322632,-0.10367804765701294,-0.21812964975833893,-0.04133949801325798,-0.038409974426031113,-0.53737950325012207,-0.40581133961677551,-0.18573316931724548,0.025135887786746025, -1.1675794124603271,-1.3543329238891602,-0.83353292942047119,-0.00048020505346357822,-1.7813986539840698,-0.25271964073181152,-0.81229430437088013,-0.087759986519813538,-1.0840753316879272,-0.24242387712001801,-0.72587341070175171,0.056999899446964264,-2.350567102432251,0.28421372175216675,-1.3517271280288696,0.060234274715185165, 
  /* [18][0][][] */ 0.49578982591629028,0.061441622674465179,0.68046486377716064,-0.35700136423110962,-1.0145787000656128,0.036311503499746323,-1.1274503469467163,0.47843772172927856,-1.4512720108032227,0.067503318190574646,-0.18944238126277924,0.039800018072128296,-0.13251778483390808,0.26885619759559631,0.10255830734968185,-0.15687766671180725, -0.1206003874540329,-0.036671996116638184,-0.057393450289964676,-0.13082286715507507,-0.97229748964309692,0.19845837354660034,-0.84047353267669678,0.32456871867179871,-2.30625319480896,-0.64287972450256348,-0.13000950217247009,0.095472373068332672,0.10795123875141144,0.40861833095550537,0.10952646285295486,0.18262267112731934, 0.43989825248718262,0.052977308630943298,-0.14084726572036743,0.64708954095840454,-0.35266149044036865,0.11948724091053009,0.015027577988803387,0.029275074601173401,-0.63197338581085205,-1.5628517866134644,-0.5675777792930603,0.27985039353370667,0.40353158116340637,0.3516695499420166,0.23782876133918762,0.36491161584854126, 
  /* [19][0][][] */ 0.33201578259468079,-0.21577350795269012,-0.35455143451690674,0.55185967683792114,-0.039634346961975098,-0.03551652655005455,-0.25459027290344238,-0.60981708765029907,-0.022118311375379562,-0.33816882967948914,-1.9309139251708984,-0.39202561974525452,0.059307150542736053,0.21502332389354706,-0.17670392990112305,-0.36870163679122925, -0.22086630761623383,-1.4302067756652832,0.37343862652778625,-0.08022606372833252,-0.32325339317321777,-0.16739478707313538,-0.21739132702350616,-0.89729243516921997,-0.17437517642974854,-0.052265703678131104,0.043499454855918884,-0.59880650043487549,-0.13077555596828461,0.051194474101066589,-1.2698628902435303,-0.032920278608798981, -1.4599678516387939,-0.82631576061248779,-0.36730936169624329,0.25283622741699219,-0.20787611603736877,-0.38579115271568298,-0.30850788950920105,-0.22413630783557892,-0.11582106351852417,0.11503185331821442,-1.1716315746307373,-0.26665696501731873,-1.6036792993545532,0.029921833425760269,-0.89023315906524658,-0.11211667954921722, 
  /* [20][0][][] */ -0.015195189975202084,-0.0802755206823349,0.17794863879680634,-0.095104090869426727,-1.0394256114959717,0.027055086567997932,-0.02598380483686924,0.1665569543838501,-1.0886213779449463,-0.011016619391739368,-0.35495823621749878,0.25509226322174072,-0.16047319769859314,-0.07822050154209137,-0.30976924300193787,-0.067405290901660919, -0.00277498341165483,-0.14994600415229797,0.20826101303100586,0.1115269735455513,-0.4911695122718811,-0.10894279927015305,-0.19265899062156677,0.16987147927284241,-2.8088674545288086,-0.011063668876886368,-0.80895984172821045,0.060810305178165436,0.23413321375846863,-0.28000178933143616,-1.6607904434204102,-0.10750319808721542, 0.090577393770217896,-0.19769740104675293,0.053957827389240265,-0.24098990857601166,-0.14141950011253357,0.032842855900526047,-1.6326282024383545,0.10347334295511246,-0.46699908375740051,-0.0014093058416619897,-0.89257830381393433,0.26279962062835693,0.22046226263046265,0.13453911244869232,-0.093238823115825653,-0.011637430638074875, 
  /* [21][0][][] */ 0.13229799270629883,-0.60454386472702026,0.69603323936462402,-0.25569555163383484,-0.34969109296798706,0.028689444065093994,-0.38113144040107727,0.15531516075134277,-0.34900388121604919,0.34288540482521057,-0.11836196482181549,-0.33070331811904907,-0.26831400394439697,-0.024696039035916328,-0.39315596222877502,-0.40668570995330811, 0.21498647332191467,-1.4792498350143433,-0.12881883978843689,0.051946856081485748,-1.7247626781463623,-0.11405360698699951,-1.905771017074585,-0.14547528326511383,-1.2859145402908325,0.25729334354400635,-0.37806499004364014,-0.24389626085758209,-0.27374723553657532,0.19871297478675842,-0.44770687818527222,-0.12039550393819809, 0.18845938146114349,-2.4404177665710449,-0.4018445611000061,-0.48065903782844543,-1.3817242383956909,0.35270765423774719,-1.6729780435562134,0.28180107474327087,-0.60112857818603516,0.046347681432962418,-0.24876001477241516,-0.17878501117229462,-0.082184217870235443,-0.15680404007434845,-0.54918926954269409,-0.014241265133023262, 
  /* [22][0][][] */ -0.7261812686920166,-0.63980972766876221,0.35573470592498779,-0.45864459872245789,-3.1853456497192383,-0.5092623233795166,-0.29150047898292542,0.048213265836238861,-0.7056921124458313,-0.42159900069236755,-0.61608922481536865,-0.93869006633758545,-0.69174396991729736,0.3957693874835968,-0.66781085729598999,-0.098896384239196777, -0.91316604614257812,-1.8356314897537231,-0.072968296706676483,-2.5676887035369873,-1.1587095260620117,-0.59531354904174805,-0.71656084060668945,-0.21471746265888214,-1.7097653150558472,-0.54405611753463745,-0.98319029808044434,-1.2110805511474609,-0.15349239110946655,0.025006994605064392,-0.155294269323349,-0.89042538404464722, 0.21594460308551788,-0.20856349170207977,-0.092825517058372498,-0.33867207169532776,-0.0050056856125593185,-2.5036489963531494,-0.38539621233940125,-1.2164467573165894,-0.57872360944747925,-2.3127775192260742,-0.34120228886604309,-1.6585285663604736,-1.0540626049041748,0.21849937736988068,-0.78926795721054077,-1.160798192024231, 
  /* [23][0][][] */ 0.032308828085660934,-0.058213558048009872,-0.34927240014076233,0.23464612662792206,-2.4976534843444824,-0.19533756375312805,0.22112272679805756,0.12502233684062958,-1.3511388301849365,-1.2342327833175659,-0.08653596043586731,0.39312887191772461,-2.4866330623626709,-0.28563246130943298,-0.78281563520431519,0.098640479147434235, 0.0464920774102211,-2.1612381935119629,0.11818014085292816,-0.075271911919116974,-3.6903374195098877,0.11575070768594742,-0.81506359577178955,-0.037827435880899429,-2.906804084777832,-2.0338456630706787,-1.1803966760635376,-0.21057756245136261,-0.46996942162513733,-0.14819389581680298,-1.4447696208953857,-0.25803485512733459, -0.17479389905929565,-3.6917212009429932,0.053934298455715179,0.12487941235303879,-1.7223095893859863,0.012885917909443378,-2.757598876953125,-0.55202442407608032,-0.67885774374008179,-2.9411461353302002,-1.1412268877029419,0.072195880115032196,-0.53775757551193237,-0.26238915324211121,-1.0494780540466309,0.052010361105203629, 
  /* [24][0][][] */ -1.8767232894897461,-1.4969179630279541,0.14132261276245117,0.17763325572013855,0.043258003890514374,-0.05335552990436554,-3.2844076156616211,0.19067239761352539,-0.71114045381546021,-1.090359091758728,-1.1029703617095947,0.012885396368801594,0.58990269899368286,0.27242016792297363,-0.28160944581031799,-1.0731320381164551, -0.54429662227630615,-0.95092540979385376,-0.29180598258972168,0.1715204119682312,-0.017708290368318558,0.047085978090763092,-0.76535969972610474,0.044349972158670425,-0.04811854287981987,0.093029521405696869,-1.1180262565612793,0.062341403216123581,-0.11069276928901672,-0.25712692737579346,-0.29530096054077148,-1.68061363697052, -0.67019760608673096,-0.55417329072952271,-0.13364957273006439,-0.23711840808391571,0.058105576783418655,0.10071462392807007,-3.2052228450775146,0.71005767583847046,-0.077905222773551941,-0.3158189058303833,-0.75746846199035645,-0.038041375577449799,-0.32152879238128662,-0.16126491129398346,-0.46589550375938416,-0.22102199494838715, 
  /* [25][0][][] */ 0.38446080684661865,-0.16685283184051514,-0.16555237770080566,-0.76006442308425903,0.0075177722610533237,-0.381407231092453,0.32801282405853271,-0.16797921061515808,-0.1663360595703125,0.036425571888685226,-0.13712398707866669,-1.0771986246109009,-0.96403419971466064,-0.0036106181796640158,-0.67488270998001099,0.092653065919876099, -0.91148239374160767,-1.226335883140564,-0.87041318416595459,-0.52125370502471924,-1.8222446441650391,-0.13050830364227295,-0.23027567565441132,0.075429074466228485,-0.78352713584899902,-0.99699419736862183,-0.14789412915706635,-0.16041430830955505,-1.1757086515426636,-0.20892499387264252,-0.87305164337158203,0.11231790482997894, -0.080169431865215302,-1.5259029865264893,0.16468971967697144,-0.33876627683639526,-2.1674625873565674,0.21999925374984741,-2.3427731990814209,-0.058209523558616638,-0.94551873207092285,-0.94988727569580078,-1.7309975624084473,0.37428411841392517,-2.0205025672912598,-0.27239629626274109,-1.9597039222717285,0.12400373816490173, 
  /* [26][0][][] */ -1.4250994920730591,-0.029779018834233284,0.030237296596169472,-0.3460133969783783,-0.23107001185417175,-0.28208544850349426,0.021595694124698639,-1.192143440246582,-0.049601718783378601,0.013333898968994617,0.14462512731552124,-0.046824418008327484,-0.59753930568695068,-1.3868592977523804,-0.090974800288677216,-0.13647083938121796, -0.54904788732528687,-0.18236427009105682,-0.79322075843811035,-0.13183702528476715,0.15487071871757507,-0.10169005393981934,-0.070121444761753082,-0.51165097951889038,-0.54418486356735229,-0.24936464428901672,0.12272193282842636,-0.43057712912559509,-0.31788074970245361,-0.50238305330276489,-0.059528689831495285,-0.26367789506912231, -0.31167742609977722,-0.29947024583816528,-0.33192053437232971,-0.030530368909239769,-0.039182815700769424,0.87537461519241333,-0.15304328501224518,-0.14721506834030151,-0.54712200164794922,-0.28648710250854492,0.054048966616392136,-1.1105548143386841,-0.13939300179481506,-0.23281632363796234,0.034572049975395203,0.033044133335351944, 
  /* [27][0][][] */ -0.52218753099441528,-0.32881873846054077,-0.25324469804763794,-1.018427848815918,-0.43228086829185486,-0.95354151725769043,-0.27819639444351196,0.14889904856681824,-0.94599699974060059,-0.37792810797691345,-0.85974389314651489,-0.64162421226501465,-0.41441449522972107,-0.28271585702896118,-0.19097013771533966,-0.99445784091949463, 0.09775165468454361,-1.303743839263916,-1.4194698333740234,-0.4986858069896698,-0.92142736911773682,-0.13412508368492126,-0.054778564721345901,-0.54737132787704468,-0.93905764818191528,0.097838744521141052,-0.87005198001861572,-0.43215346336364746,-0.28282493352890015,-1.1551088094711304,-0.36597985029220581,-0.041477520018815994, 0.27699762582778931,-1.2126909494400024,-0.0036261763889342546,-0.12475140392780304,-1.0956569910049438,-1.3942623138427734,-1.2334789037704468,-0.50989282131195068,-0.67688828706741333,-0.73506134748458862,-0.35425418615341187,-0.50665962696075439,-0.13136301934719086,-0.010340450331568718,-0.10690652579069138,-0.67713683843612671, 
  /* [28][0][][] */ 0.22575464844703674,-0.20365594327449799,0.030819984152913094,-1.4368788003921509,-0.25533321499824524,-0.63466453552246094,-0.33271539211273193,-0.40535828471183777,-1.255268931388855,-0.55208677053451538,-1.3093751668930054,-0.57994973659515381,0.021623531356453896,-0.92635536193847656,-0.076751045882701874,-1.2249656915664673, 0.20084564387798309,0.018508221954107285,-0.082539759576320648,-0.80494958162307739,-0.20533372461795807,-0.49181637167930603,-0.59622377157211304,-0.091058932244777679,-0.25106635689735413,-1.1307903528213501,-0.68445682525634766,-0.39282286167144775,0.27971756458282471,-1.3585528135299683,0.12029890716075897,-0.92184412479400635, -0.015519401058554649,0.29117125272750854,-1.3912574052810669,-1.9407933950424194,-0.093225963413715363,-0.36023321747779846,-0.43948495388031006,0.061879977583885193,-0.45567953586578369,0.0029236041009426117,-0.68869942426681519,-0.23938590288162231,-0.11453573405742645,-1.5289983749389648,-0.066684119403362274,-1.4236079454421997, 
