/* Generated by Edge Impulse
*
* Permission is hereby granted, free of charge, to any person obtaining a copy
* of this software and associated documentation files (the "Software"), to deal
* in the Software without restriction, including without limitation the rights
* to use, copy, modify, merge, publish, distribute, sublicense, and/or sell
* copies of the Software, and to permit persons to whom the Software is
* furnished to do so, subject to the following conditions:
*
* The above copyright notice and this permission notice shall be included in
* all copies or substantial portions of the Software.
*
* THE SOFTWARE IS PROVIDED "AS IS", WITHOUT WARRANTY OF ANY KIND, EXPRESS OR
* IMPLIED, INCLUDING BUT NOT LIMITED TO THE WARRANTIES OF MERCHANTABILITY,
* FITNESS FOR A PARTICULAR PURPOSE AND NONINFRINGEMENT. IN NO EVENT SHALL THE
* AUTHORS OR COPYRIGHT HOLDERS BE LIABLE FOR ANY CLAIM, DAMAGES OR OTHER
* LIABILITY, WHETHER IN AN ACTION OF CONTRACT, TORT OR OTHERWISE, ARISING FROM,
* OUT OF OR IN CONNECTION WITH THE SOFTWARE OR THE USE OR OTHER DEALINGS IN THE
* SOFTWARE.
*/
// Generated on: 11.03.2021 15:25:16

#include <stdio.h>
#include <stdlib.h>
#include <vector>
#include "edge-impulse-sdk/tensorflow/lite/c/builtin_op_data.h"
#include "edge-impulse-sdk/tensorflow/lite/c/common.h"
#include "edge-impulse-sdk/tensorflow/lite/micro/kernels/micro_ops.h"

#if EI_CLASSIFIER_PRINT_STATE
#if defined(__cplusplus) && EI_C_LINKAGE == 1
extern "C" {
    extern void ei_printf(const char *format, ...);
}
#else
extern void ei_printf(const char *format, ...);
#endif
#endif

#if defined __GNUC__
#define ALIGN(X) __attribute__((aligned(X)))
#elif defined _MSC_VER
#define ALIGN(X) __declspec(align(X))
#elif defined __TASKING__
#define ALIGN(X) __align(X)
#endif

namespace {

constexpr int kTensorArenaSize = 34752;

#if defined(EI_CLASSIFIER_ALLOCATION_STATIC)
uint8_t tensor_arena[kTensorArenaSize] ALIGN(16);
#elif defined(EI_CLASSIFIER_ALLOCATION_STATIC_HIMAX)
#pragma Bss(".tensor_arena")
uint8_t tensor_arena[kTensorArenaSize] ALIGN(16);
#pragma Bss()
#else
#define EI_CLASSIFIER_ALLOCATION_HEAP 1
uint8_t* tensor_arena = NULL;
#endif

static uint8_t* tensor_boundary;
static uint8_t* current_location;

template <int SZ, class T> struct TfArray {
  int sz; T elem[SZ];
};
enum used_operators_e {
  OP_RESHAPE, OP_CONV_2D, OP_MAX_POOL_2D, OP_FULLY_CONNECTED, OP_SOFTMAX,  OP_LAST
};
struct TensorInfo_t { // subset of TfLiteTensor used for initialization from constant memory
  TfLiteAllocationType allocation_type;
  TfLiteType type;
  void* data;
  TfLiteIntArray* dims;
  size_t bytes;
};
struct NodeInfo_t { // subset of TfLiteNode used for initialization from constant memory
  struct TfLiteIntArray* inputs;
  struct TfLiteIntArray* outputs;
  void* builtin_data;
  used_operators_e used_op_index;
};

TfLiteContext ctx{};
TfLiteTensor tflTensors[17];
TfLiteRegistration registrations[OP_LAST];
TfLiteNode tflNodes[8];

const TfArray<2, int> tensor_dimension0 = { 2, { 1,845 } };
const ALIGN(8) int32_t tensor_data1[2] = { -1, 1088, };
const TfArray<1, int> tensor_dimension1 = { 1, { 2 } };
const ALIGN(8) int32_t tensor_data2[4] = { 1, 65, 13, 1, };
const TfArray<1, int> tensor_dimension2 = { 1, { 4 } };
const ALIGN(8) float tensor_data3[8] = { -0.61516517400741577, -0.48693785071372986, -0.42760381102561951, -0.46693798899650574, -0.55081051588058472, -0.28863227367401123, -0.38087686896324158, -0.051472194492816925, };
const TfArray<1, int> tensor_dimension3 = { 1, { 8 } };
const ALIGN(8) float tensor_data4[16] = { -0.22358748316764832, 0.20621734857559204, -0.30951884388923645, -0.33642822504043579, 0.01907261461019516, -0.20975078642368317, -0.12332852929830551, -0.48184239864349365, -0.039672952145338058, -0.21966689825057983, 0.28270122408866882, -0.015334976837038994, -0.26499620079994202, -0.33215799927711487, -0.34397834539413452, 0.92859238386154175, };
const TfArray<1, int> tensor_dimension4 = { 1, { 16 } };
const ALIGN(8) float tensor_data5[3] = { -0.083289101719856262, -0.19277919828891754, 0.2572481632232666, };
const TfArray<1, int> tensor_dimension5 = { 1, { 3 } };
const ALIGN(8) float tensor_data6[3*1088] = { 
  0.40044870972633362, 0.1898406445980072, -0.28772151470184326, -0.2707287073135376, 0.29903444647789001, 0.0093543576076626778, 0.12267376482486725, 0.22036376595497131, 0.13079269230365753, -0.28754898905754089, 0.21345368027687073, 0.26698684692382812, -0.31073883175849915, -0.22290600836277008, -0.070695489645004272, -0.67004883289337158, -0.24752289056777954, -0.1048809289932251, 0.12630157172679901, 0.046596553176641464, -0.12977632880210876, 0.086423151195049286, 0.16568022966384888, 0.10218159109354019, -0.0070710363797843456, -1.7773796571418643e-05, 0.16714130342006683, 0.17116275429725647, 0.17148303985595703, 0.24156033992767334, -0.080252513289451599, -0.6324576735496521, -0.27429193258285522, 0.036814458668231964, 0.19011701643466949, 0.071830958127975464, 0.28388208150863647, -0.12589131295681, -0.045395303517580032, -0.10194135457277298, 0.079214036464691162, 0.045801486819982529, -0.18781003355979919, 0.40357381105422974, 0.3085084855556488, 0.12676584720611572, 0.24730220437049866, -0.25621798634529114, -0.28024497628211975, 0.0080164205282926559, 0.25090071558952332, 0.074570693075656891, -0.10184153914451599, 0.48803102970123291, 0.029639728367328644, 0.35559085011482239, -0.40280529856681824, 0.28726306557655334, -0.057082377374172211, 0.18951043486595154, 0.12646147608757019, 0.028692727908492088, -0.15161871910095215, -0.017118498682975769, 0.057186145335435867, 0.014115991070866585, 0.042826253920793533, -0.077412068843841553, 0.38947388529777527, -0.090408764779567719, 0.28628295660018921, 0.091925822198390961, 0.12688073515892029, 0.41728273034095764, 0.39377498626708984, -0.05813661590218544, -0.30461499094963074, 0.020471822470426559, 0.024926057085394859, -0.56057256460189819, -0.059930764138698578, -0.079204440116882324, -0.048849783837795258, 0.14519897103309631, 0.068839035928249359, -0.021557077765464783, 0.15867643058300018, -0.12988394498825073, -0.12707056105136871, 0.22536996006965637, -0.48013520240783691, -0.004312942735850811, -0.0012389348121359944, 0.23984302580356598, -0.084828287363052368, -0.31290355324745178, -0.20600005984306335, 0.043335169553756714, -0.05341116338968277, 0.080744333565235138, -0.13134397566318512, -0.11279687285423279, -0.23417052626609802, -0.1417844295501709, -0.084019213914871216, 0.21897116303443909, -0.29149696230888367, 0.42887565493583679, 0.10059811919927597, 0.2058357298374176, -0.056020863354206085, 0.023938292637467384, -0.26589900255203247, 0.093918010592460632, 0.09124261885881424, 0.040225077420473099, 0.029040973633527756, -0.38751673698425293, 0.03463040292263031, 0.21017478406429291, -0.090743310749530792, 0.29441609978675842, -0.10583294928073883, 0.16276830434799194, -0.028687546029686928, 0.029835190623998642, -0.013683798722922802, 0.22936408221721649, -0.35485175251960754, -0.22346934676170349, -0.029375744983553886, 0.096511170268058777, 0.1034524142742157, -0.14383181929588318, 0.28349864482879639, 0.18258988857269287, 0.085915014147758484, 0.18685868382453918, 0.15548539161682129, -0.18044015765190125, -0.15567488968372345, -0.013132047839462757, 0.26514711976051331, -0.59644383192062378, -0.34386354684829712, 0.013491707853972912, 0.00072833226295188069, -0.009277021512389183, 0.027362288907170296, 0.1563790887594223, 0.0068112644366919994, -0.274029940366745, 0.14305813610553741, -0.16849109530448914, -0.055823691189289093, 0.22419473528862, -0.025867555290460587, 0.017324786633253098, -0.11774615198373795, -0.050106685608625412, -0.325765460729599, 0.10856384038925171, 0.18188728392124176, -0.096208527684211731, 0.073446363210678101, 0.12329187244176865, -0.20591798424720764, -0.048509322106838226, -0.13453224301338196, 0.036379165947437286, 0.062618352472782135, 0.13849587738513947, 0.054095204919576645, 0.14348509907722473, -0.0050781280733644962, -0.0072454488836228848, -0.40525475144386292, -0.039140962064266205, 0.1417536735534668, -0.075941942632198334, -0.012022516690194607, 0.27940821647644043, 0.056811947375535965, -0.14619386196136475, 0.22514557838439941, -0.1684272289276123, -0.0035249881912022829, 0.019700411707162857, 0.1823250949382782, 0.069179847836494446, -0.12727554142475128, -0.004740279633551836, -0.082695312798023224, -0.23644523322582245, 0.084825873374938965, -0.10253981500864029, 0.077981255948543549, 0.10751627385616302, 0.38631319999694824, 0.23134711384773254, 0.044383514672517776, 0.44040405750274658, 0.24824896454811096, -0.34641370177268982, -0.36990919709205627, -0.056569676846265793, 0.073367424309253693, -0.73994171619415283, -0.29772889614105225, -0.13717971742153168, -0.0042963861487805843, 0.16988201439380646, -0.11304342001676559, -0.026700917631387711, -0.06613515317440033, -0.0012098029255867004, -0.11592560261487961, -0.069084897637367249, 0.2713874876499176, 0.013288709335029125, -0.05877583846449852, 0.15019768476486206, 0.20340552926063538, -0.44320756196975708, -0.082703560590744019, -0.16810476779937744, -0.05301307886838913, -0.039376616477966309, -0.10722465813159943, -0.056038729846477509, -0.15046966075897217, -0.21735206246376038, -0.0043743825517594814, -0.051802605390548706, 0.04602525383234024, 0.29084193706512451, 0.25239944458007812, 0.14955505728721619, 0.057979166507720947, -0.01457628607749939, -0.43160605430603027, 0.023629907518625259, -0.017988741397857666, 0.027800284326076508, 0.46726217865943909, 0.15506495535373688, -0.12634488940238953, -0.019423682242631912, 0.083050578832626343, -0.19261465966701508, -0.067276306450366974, 0.25696638226509094, 0.12843705713748932, 0.095137268304824829, -0.3341313898563385, -0.24014419317245483, -0.07303328812122345, -0.077401779592037201, 0.17083965241909027, -0.20476807653903961, 0.085006378591060638, 0.016255365684628487, 0.32803776860237122, 0.09787973016500473, 0.30470097064971924, 0.31704157590866089, 0.22407440841197968, -0.12727324664592743, 0.062193803489208221, -0.040312502533197403, 0.10970645397901535, -0.63172769546508789, -0.30004191398620605, -0.20396721363067627, 0.12918037176132202, 0.20475871860980988, 0.13229775428771973, -0.094660423696041107, -0.0063181649893522263, 0.13029709458351135, -0.039459154009819031, 0.056323915719985962, 0.035569764673709869, -0.27973482012748718, 0.16269926726818085, 0.18293948471546173, 0.073703393340110779, -0.33763954043388367, -0.19396817684173584, -0.22694398462772369, 0.16370148956775665, -0.040388759225606918, -0.072076916694641113, 0.00053251045756042004, -0.028798140585422516, -0.70499700307846069, -0.095957927405834198, -0.022526944056153297, 0.17294275760650635, -0.12949386239051819, 0.22163008153438568, 0.10370815545320511, 0.098323561251163483, -0.19823050498962402, -0.32356569170951843, -0.013748678378760815, -0.087357036769390106, 0.27867001295089722, 0.15216988325119019, 0.14423359930515289, -0.097385220229625702, -0.23034894466400146, -0.15936219692230225, -0.059033464640378952, -0.21128673851490021, 0.26456305384635925, -0.059517618268728256, 0.0080474317073822021, -0.3418586254119873, -0.071422159671783447, -0.066304951906204224, 0.087799333035945892, -0.16185854375362396, -0.36312186717987061, -0.10965517163276672, 0.14592969417572021, 0.086254827678203583, 0.16907256841659546, 0.35895368456840515, 0.17401920258998871, -0.0095861945301294327, -0.4624626636505127, -0.16620619595050812, -0.1403404027223587, -0.14924576878547668, -0.43076181411743164, -0.19225771725177765, 0.19566372036933899, 0.044297445565462112, 0.19205375015735626, -0.15052267909049988, -0.1081007719039917, -0.12963134050369263, -0.069441512227058411, 0.14577196538448334, -0.12591110169887543, -0.28551846742630005, 0.12067605555057526, 0.341581791639328, 0.13723026216030121, -0.21294420957565308, -0.29100289940834045, -0.37235984206199646, 0.26455909013748169, -0.15724247694015503, 0.10838454961776733, 0.17106637358665466, -0.033999942243099213, -0.14748828113079071, -0.41386833786964417, -0.096654169261455536, -0.16707880795001984, 0.11780395358800888, 0.12346790730953217, -0.049271523952484131, 0.056530285626649857, 0.099038250744342804, -0.04899553582072258, -0.64453762769699097, -0.087401345372200012, 0.011024286039173603, -0.13788124918937683, 0.13621187210083008, -0.19382777810096741, -0.23088809847831726, -0.13975532352924347, -0.085805222392082214, 0.18295863270759583, -0.09767267107963562, -0.051674533635377884, 0.21984326839447021, 0.095211021602153778, -0.42673707008361816, -0.12412591278553009, -0.11750121414661407, -0.12523320317268372, 0.13310666382312775, -0.024488028138875961, 0.011150124482810497, 0.043250009417533875, 0.44661048054695129, 0.11867696046829224, 0.34382647275924683, 0.58769828081130981, -0.041869517415761948, -0.26534682512283325, 0.1687341034412384, -0.046468820422887802, -0.13706222176551819, -0.2008403092622757, -0.16074514389038086, 0.25162288546562195, 0.11500998586416245, 0.27047204971313477, 0.31640264391899109, 0.035999838262796402, 0.11810304969549179, -0.064161859452724457, 0.0040818937122821808, 0.037418276071548462, -0.27283057570457458, -0.070753969252109528, 0.033368341624736786, 0.11677587032318115, -0.25612050294876099, -0.15763363242149353, -0.33696028590202332, -0.10309389233589172, 0.046888850629329681, 0.14632375538349152, 0.41339001059532166, 0.034587815403938293, -0.21111452579498291, -0.055024269968271255, 0.066711612045764923, -0.098659858107566833, -0.19353486597537994, 0.31584325432777405, 0.073722951114177704, 0.047477766871452332, -0.35008388757705688, -0.048066522926092148, -0.54948127269744873, -0.12682107090950012, -0.15274566411972046, 0.23133265972137451, 0.350799560546875, 0.045393135398626328, 0.052490420639514923, 0.13001766800880432, 0.038201391696929932, 0.090556330978870392, -0.04491322860121727, 0.10952390730381012, -0.00040971767157316208, -0.18172758817672729, -0.38255882263183594, 0.065450765192508698, -0.0018859610427170992, -0.15560010075569153, 0.089526146650314331, -0.1455405056476593, -0.10898570716381073, -0.082162067294120789, 0.44705817103385925, -0.03398306667804718, 0.1939605325460434, 0.39001694321632385, -0.17700335383415222, -0.47621172666549683, -0.20617647469043732, -0.071318462491035461, -0.082451365888118744, -0.24474027752876282, -0.40932157635688782, -0.28133282065391541, -0.078654319047927856, 0.00056608358863741159, 0.11855393648147583, -0.015467071905732155, 0.078549064695835114, 0.23784670233726501, -0.042175490409135818, -0.12101220339536667, -0.14158567786216736, -0.071415446698665619, 0.047782644629478455, 0.11680660396814346, 0.083836808800697327, 0.1777438223361969, -0.18658751249313354, 0.030153743922710419, -0.14779140055179596, 0.091719426214694977, 0.23272636532783508, -0.21166443824768066, -0.4455493688583374, -0.46311435103416443, -0.16556209325790405, -0.27773770689964294, 0.079463481903076172, 0.15478497743606567, 0.2481733113527298, -0.0070542916655540466, 0.042914733290672302, -0.061672393232584, -0.2991405725479126, -0.054311059415340424, 0.11422433704137802, 0.33850711584091187, -0.56476861238479614, -0.089592903852462769, -0.27270331978797913, -0.18532238900661469, -0.5344843864440918, 0.075144484639167786, 0.13914650678634644, 0.19739280641078949, 0.23564228415489197, 0.10617334395647049, -0.27195101976394653, 0.26373052597045898, -0.014667055569589138, -0.027844913303852081, 0.14119133353233337, 0.15789699554443359, -0.10661093145608902, -0.0065878215245902538, 0.39138531684875488, -0.11571107059717178, 0.12198036164045334, 0.4920600950717926, -0.0061523499898612499, -0.27242690324783325, -0.22629113495349884, -0.12230107188224792, 0.35304883122444153, -0.574867844581604, -0.29062703251838684, -0.1777634471654892, 0.25833547115325928, 0.031490188091993332, 0.022773388773202896, 0.029106797650456429, -0.17276695370674133, -0.25078782439231873, 0.047069210559129715, 0.28315871953964233, 0.031879670917987823, -0.24849008023738861, 0.17482835054397583, 0.085069738328456879, 0.26423346996307373, 0.037561852484941483, -0.20643013715744019, -0.051600128412246704, 0.26389113068580627, -0.0083510624244809151, 0.097596064209938049, -0.073446109890937805, -0.4833848774433136, -0.067203015089035034, -0.066544786095619202, 0.14910243451595306, 0.10036637634038925, 0.42172631621360779, 0.087555758655071259, 0.041466016322374344, -0.22825373709201813, 0.28201752901077271, -0.098305791616439819, -0.054625134915113449, -0.17937295138835907, 0.17219424247741699, 0.073977202177047729, 0.041623402386903763, -0.3241044282913208, -0.15019863843917847, 0.18342021107673645, -0.011152154766023159, 0.10608745366334915, 0.4224071204662323, 0.16628995537757874, -0.049375448375940323, 0.033917214721441269, 0.36895963549613953, -0.029944268986582756, -0.094711758196353912, 0.2336413562297821, -0.013607488945126534, -0.083810552954673767, 0.11553408950567245, 0.3218567967414856, 0.035865440964698792, -0.030983870849013329, 0.17167878150939941, 0.040675245225429535, -0.11481571197509766, -0.11246964335441589, -0.026897354051470757, 0.12533843517303467, -0.26115900278091431, -0.23061500489711761, 0.25465536117553711, -0.10228144377470016, 0.22199156880378723, 0.27549204230308533, 0.0014014856424182653, 0.033563923090696335, -0.041839137673377991, 0.26938390731811523, 0.025422580540180206, 0.08861793577671051, -0.17535185813903809, 0.17891636490821838, 0.1358780562877655, 0.037116751074790955, -0.052786089479923248, -0.49676942825317383, -0.2596728503704071, 0.17720417678356171, 0.058638188987970352, -0.32546794414520264, -0.09060380607843399, -0.5969010591506958, -0.29629835486412048, 0.0017756402958184481, -0.11444025486707687, -0.0086580608040094376, -0.22156307101249695, 0.17954838275909424, 0.11273158341646194, 0.069326005876064301, -0.076948493719100952, -0.091989420354366302, -0.18466439843177795, -0.043286755681037903, 0.011036389507353306, -0.34341734647750854, 0.14131160080432892, -0.35479101538658142, -0.35987666249275208, 0.1153704896569252, -0.021194884553551674, -0.07780563086271286, -0.22211346030235291, 0.25447213649749756, 0.16881771385669708, -0.39810794591903687, -0.2029520571231842, -0.1377997100353241, -0.39807692170143127, 0.12800955772399902, 0.079652115702629089, 0.017917808145284653, 0.057529862970113754, 0.49041265249252319, 0.15616472065448761, 0.12210607528686523, 0.28679892420768738, -0.33823204040527344, -0.18435214459896088, 0.22317279875278473, 0.28704556822776794, 0.25311958789825439, -0.2984110414981842, -0.23595258593559265, -0.33656355738639832, -0.13313098251819611, 0.18497203290462494, 0.15313239395618439, 0.08444724977016449, -0.014920873567461967, -0.13687346875667572, -0.093611240386962891, -0.062098104506731033, -0.096626251935958862, -0.052106402814388275, 0.027766693383455276, 0.28350836038589478, 0.19066092371940613, -0.13800966739654541, -0.34892886877059937, -0.0082296021282672882, 0.0040031298995018005, 0.070455595850944519, 0.64230036735534668, 0.010425521992146969, -0.17604769766330719, -0.37766841053962708, 0.18006050586700439, 0.10049045830965042, -0.26436853408813477, -0.070844680070877075, 0.32861965894699097, 0.17180627584457397, 0.15345102548599243, 0.072754085063934326, -0.043592765927314758, 0.060746535658836365, 0.22799775004386902, 0.26313412189483643, -0.086373589932918549, 0.16524536907672882, -0.087526120245456696, -0.7071571946144104, 0.052918571978807449, -0.060295112431049347, -0.016279391944408417, -0.0037531363777816296, -0.02660248801112175, 0.045179400593042374, 0.10392967611551285, -0.41371142864227295, -0.10485630482435226, 0.14448802173137665, 0.35110932588577271, -0.11933162063360214, 0.21153819561004639, 0.010240165516734123, 0.30076119303703308, 0.19692286849021912, 0.29135051369667053, 0.47058156132698059, -0.056024912744760513, -0.20743094384670258, -0.038638826459646225, 0.10927459597587585, 0.25879961252212524, -0.57869279384613037, -0.40024003386497498, -0.082030609250068665, 0.018611639738082886, 0.068511418998241425, 0.026879340410232544, 0.051605049520730972, -0.12539848685264587, -0.39445847272872925, -0.28632548451423645, 0.13979277014732361, -0.52658724784851074, -0.18337365984916687, -0.057941518723964691, 0.27034720778465271, 0.023733796551823616, -0.2389552891254425, -0.25350826978683472, -0.33271121978759766, 0.12436158955097198, 0.0028256424702703953, 0.16529443860054016, -0.031997032463550568, -0.16403955221176147, -0.060315161943435669, -0.034938216209411621, 0.13279865682125092, -0.2659870982170105, 0.014647130854427814, 0.25504845380783081, 0.23761923611164093, -0.19400262832641602, -0.028060169890522957, 0.047763925045728683, 0.14929363131523132, 0.12800382077693939, -0.15965145826339722, 0.78155815601348877, -0.31869575381278992, 0.016164427623152733, -0.26149198412895203, 0.044547852128744125, 0.16292740404605865, -0.088514290750026703, 0.032114822417497635, 0.098440788686275482, 0.026985272765159607, 0.31408074498176575, -0.0074956165626645088, -0.12196680158376694, 0.057487811893224716, -0.17958901822566986, 0.076359465718269348, -0.00080204301048070192, 0.013285345397889614, 0.087555728852748871, -0.020749058574438095, 0.1706109493970871, -0.39784154295921326, -0.2266087532043457, -0.26101323962211609, 0.034637194126844406, 0.23913967609405518, -0.11636972427368164, -0.49022340774536133, -0.26313260197639465, -0.38667938113212585, -0.14845234155654907, 0.25121402740478516, -0.1818278431892395, 0.014304547570645809, 0.10369692742824554, -0.086915746331214905, -0.017171815037727356, 0.12854196131229401, -0.058528389781713486, -0.21854539215564728, 0.048255752772092819, 0.15805405378341675, -0.21849668025970459, -0.17490079998970032, -0.30554753541946411, -0.072303235530853271, 0.12050691992044449, -0.13919927179813385, -0.28030157089233398, 0.11858187615871429, -0.29648667573928833, -0.45818641781806946, -0.061137061566114426, 0.01534708309918642, -0.011235946789383888, -0.014422032050788403, 0.22172410786151886, 0.16789492964744568, -0.011374588124454021, -0.049057502299547195, -0.72229206562042236, -0.11147361993789673, 0.0035550741013139486, -0.019561028108000755, 0.0442967489361763, -0.12792035937309265, 0.091955237090587616, -0.29361328482627869, 0.28245139122009277, 0.19904115796089172, -0.069584548473358154, 0.045996177941560745, -0.0045226770453155041, -0.10003548115491867, -0.28963834047317505, 0.52489852905273438, -0.077942498028278351, -0.027270680293440819, -0.057441122829914093, -0.075510837137699127, 0.038768816739320755, 0.042092900723218918, 0.30213093757629395, 0.32622918486595154, 0.53303271532058716, 0.043668966740369797, -0.089767470955848694, -0.32957378029823303, 0.08227027952671051, 0.63384032249450684, 0.030768349766731262, -0.7612113356590271, -0.27003267407417297, -0.26327484846115112, -0.12735176086425781, 0.14729234576225281, -0.12598416209220886, 0.058811116963624954, 0.034343093633651733, 0.054550208151340485, 0.048441886901855469, 0.01750439777970314, 0.076109014451503754, 0.029242327436804771, 0.42919960618019104, 0.11856658756732941, 0.17855152487754822, -0.20173868536949158, -0.52967703342437744, -0.22522439062595367, -0.04683024063706398, 0.033523831516504288, -0.32471674680709839, 0.038858339190483093, -0.29368531703948975, -0.47649312019348145, -0.061204031109809875, 0.18056397140026093, 0.085676573216915131, 0.24821378290653229, -0.013377844356000423, 0.070682913064956665, -0.29263487458229065, -0.20275479555130005, -0.55879867076873779, -0.077212199568748474, 0.079449161887168884, 0.35779884457588196, 0.13331760466098785, 0.35928648710250854, -0.097791649401187897, -0.49162095785140991, -0.028638685122132301, 0.39852058887481689, -0.073078833520412445, 0.18482236564159393, 0.17440088093280792, -0.08518044650554657, -0.4065089225769043, 0.0056896964088082314, -0.042148701846599579, 0.014727878384292126, -0.40102505683898926, 0.086861483752727509, -0.071678042411804199, 0.049348980188369751, 0.41083034873008728, -0.0529027059674263, 0.36158537864685059, -0.12013225257396698, 0.11712617427110672, -0.22097055613994598, 0.053210783749818802, 0.37358495593070984, -0.28500968217849731, -0.79889512062072754, -0.39684328436851501, -0.2031550407409668, 0.14016656577587128, 0.094490520656108856, -0.15898093581199646, -0.11220631003379822, 0.013404683209955692, 0.039360977709293365, -0.095339715480804443, 0.29564160108566284, -0.38599890470504761, -0.1665959358215332, -0.024807920679450035, 0.23356424272060394, -0.074484057724475861, -0.37945815920829773, -0.15378451347351074, -0.25530645251274109, 0.013262789696455002, -0.043268200010061264, 0.27875351905822754, 0.25735649466514587, -0.1783522367477417, -0.29799643158912659, -0.27920585870742798, 0.47751560807228088, -0.016946813091635704, -0.12474487721920013, 0.028814749792218208, -0.060478553175926208, 0.060675039887428284, 0.078553162515163422, -0.19954073429107666, 0.011783294379711151, 0.069121897220611572, -0.0052526649087667465, 0.3474852442741394, 0.26378646492958069, 0.032883584499359131, -0.040105242282152176, 0.15623779594898224, -0.24001914262771606, -0.090212464332580566, 0.07718493789434433, 0.13886906206607819, -0.10882719606161118, -0.25166848301887512, 0.19836926460266113, 0.017199281603097916, 0.024511698633432388, -0.24389177560806274, -0.043746177107095718, -0.043790113180875778, -0.08790753036737442, 0.17794691026210785, 0.41064125299453735, 0.2126477062702179, -0.30108156800270081, 0.17016817629337311, -0.23249225318431854, -0.12608256936073303, -0.27315488457679749, -0.0060783922672271729, -0.66928023099899292, -0.48375722765922546, -0.21370261907577515, -0.014293860644102097, 0.025446360930800438, 0.092076927423477173, 0.046825021505355835, -0.096431717276573181, -0.10700754821300507, 0.076289355754852295, 0.19247794151306152, -0.28500697016716003, 0.023827465251088142, 0.23897415399551392, 0.28243452310562134, -0.068930163979530334, -0.40787228941917419, -0.41663306951522827, 0.1608869731426239, 0.28073158860206604, 0.18242013454437256, -0.38170924782752991, 0.068614602088928223, -0.31998828053474426, 0.021282380446791649, 0.26949962973594666, -0.18763178586959839, -0.2001214474439621, 0.15982772409915924, 0.17987091839313507, 0.10219546407461166, 0.0010615382343530655, -0.093369394540786743, -0.25421050190925598, -0.020844452083110809, 0.062479220330715179, 0.30915045738220215, -0.47988525032997131, -0.1143941804766655, 0.44357386231422424, -0.024496555328369141, -0.25771883130073547, 0.018296228721737862, -0.090063154697418213, -0.044902332127094269, -0.085362859070301056, -0.075798101723194122, -0.21545699238777161, -0.20597286522388458, -0.058248896151781082, 0.035200696438550949, -0.55594557523727417, 0.17273741960525513, -0.1643422544002533, -0.035321682691574097, -0.14545486867427826, -0.073360279202461243, 0.15386761724948883, 0.16240786015987396, 0.26452484726905823, 0.021903345361351967, -0.090086288750171661, -0.64935082197189331, 0.13849532604217529, -0.34115180373191833, -0.099680818617343903, -0.05606040358543396, 0.025417536497116089, 0.11303164809942245, 0.0061366846784949303, 0.00056513526942580938, 0.25292578339576721, -0.12597969174385071, 0.087806463241577148, 0.30608010292053223, -0.17232762277126312, -0.089162528514862061, 0.17753192782402039, 0.020611941814422607, -0.13468605279922485, -0.21303996443748474, 0.030052909627556801, 0.31433829665184021, 0.22715725004673004, 0.0044575766660273075, 0.22944997251033783, 0.2544739842414856, -0.036041457206010818, -0.42672786116600037, 0.25441417098045349, -0.35126268863677979, -0.13975261151790619, 0.086458452045917511, 0.29196134209632874, -0.07134082168340683, 0.26120775938034058, -0.18936783075332642, 0.079264461994171143, 0.050752047449350357, -0.21834276616573334, 0.15162919461727142, 0.13081067800521851, 0.11329983174800873, -0.056526497006416321, -0.34716922044754028, -0.22359658777713776, 0.4152577817440033, 0.098749451339244843, 0.17495793104171753, 0.32510864734649658, 0.21241000294685364, -0.086938768625259399, -0.12520171701908112, 
  -0.6118578314781189, -0.54857373237609863, 0.56931090354919434, 0.57291156053543091, -0.18914972245693207, 0.031863417476415634, -0.28260773420333862, -0.2958914041519165, 0.092783696949481964, 0.42992666363716125, -0.88012212514877319, 0.053612135350704193, 0.47834861278533936, 0.54011595249176025, 0.35572424530982971, 0.15568019449710846, -0.037508115172386169, 0.027057535946369171, -0.22864657640457153, -0.071889817714691162, -0.10605072975158691, 0.031353659927845001, -0.12660957872867584, -0.056428242474794388, -0.35940936207771301, 0.16293533146381378, -0.22482314705848694, -0.54079002141952515, 0.032415702939033508, -0.32888561487197876, 0.2786528468132019, 0.2962653636932373, -0.26953569054603577, -0.11512512713670731, -0.10218950361013412, -0.025006858631968498, -0.48085328936576843, 0.21067191660404205, 0.068618126213550568, 0.14815504848957062, -0.13724939525127411, 0.025760866701602936, 0.18323269486427307, -0.6699446439743042, -0.25773894786834717, -0.24396319687366486, -0.075262300670146942, 0.35926926136016846, -0.0097650298848748207, -0.21994723379611969, -0.12304136902093887, -0.48635488748550415, -0.11423777788877487, -0.018295254558324814, 0.029733583331108093, -0.33847647905349731, 0.27701765298843384, -0.078860975801944733, -0.17848667502403259, -0.87989693880081177, -0.11833132058382034, -0.063960172235965729, -0.06388256698846817, 0.033143885433673859, -0.15215454995632172, 0.073785923421382904, 0.42478755116462708, 0.21535399556159973, 0.36381006240844727, -0.019976351410150528, -0.47092035412788391, -0.16751575469970703, 0.3934270441532135, -0.21602484583854675, -0.50087273120880127, 0.3889903724193573, 0.55015295743942261, 0.19454002380371094, -0.17376101016998291, -0.013409215025603771, -0.061385750770568848, 0.33434197306632996, -0.0077747497707605362, -0.20338450372219086, 0.075015857815742493, -0.11081593483686447, -0.22833715379238129, -0.03968445211648941, -0.22712460160255432, 0.23421767354011536, 0.19585926830768585, -0.20066885650157928, 0.17710365355014801, -0.35038101673126221, 0.17930717766284943, -0.03956550732254982, 0.21929438412189484, -0.13820171356201172, -0.056829586625099182, -0.15194374322891235, -0.024134270846843719, 0.087682865560054779, 0.18064519762992859, 0.1016898900270462, 0.045902024954557419, -0.35202667117118835, 0.35277727246284485, -0.32356902956962585, -0.20483994483947754, -0.090526916086673737, 0.23638570308685303, -0.25758653879165649, 0.092531315982341766, -0.28101262450218201, -0.13533209264278412, 0.015566606074571609, -0.49029773473739624, 0.053979799151420593, 0.15077652037143707, -0.30205881595611572, 0.12398834526538849, -0.21325589716434479, 0.11160111427307129, -0.11286827176809311, -0.02495083212852478, 0.16032859683036804, -0.14870546758174896, -0.47451058030128479, 0.083162039518356323, 0.4204447865486145, 0.30298981070518494, 0.38273459672927856, 0.54195624589920044, 0.10973933339118958, -0.59010565280914307, -0.30274626612663269, 0.21964210271835327, -0.32120305299758911, -0.33998039364814758, 0.2203926146030426, 0.43380618095397949, 0.054285202175378799, -0.32731315493583679, -0.11899841576814651, 0.13084301352500916, 0.1579376757144928, 0.15973258018493652, -0.28119739890098572, -0.23558396100997925, 0.086034417152404785, 0.23968861997127533, -0.0057340413331985474, -0.22642755508422852, 0.29702848196029663, 0.068308226764202118, -0.25717839598655701, 0.031684428453445435, -0.15460723638534546, 0.16589969396591187, -0.10009363293647766, 0.021679876372218132, 0.098442703485488892, 0.15992872416973114, -0.089867368340492249, 0.16219551861286163, 0.11918152868747711, 0.2036309689283371, -0.070958070456981659, 0.15409871935844421, -0.2858467698097229, 0.0073804520070552826, -0.2745758593082428, 0.082147814333438873, -0.061679836362600327, 0.30712392926216125, -0.074836120009422302, -0.0052240118384361267, -0.24496465921401978, -0.08272620290517807, -0.021220073103904724, 0.42737099528312683, 0.10523950308561325, -0.17151279747486115, -0.072357937693595886, -0.19845318794250488, 0.2242741733789444, 0.00058172096032649279, -0.096814922988414764, -0.082327358424663544, -0.24195237457752228, -0.17989633977413177, -0.013974946923553944, 0.033332567662000656, 0.31375518441200256, 0.16034401953220367, 0.35989841818809509, 0.49875164031982422, -0.078172363340854645, -0.76170057058334351, -0.13801614940166473, 0.31697013974189758, -0.19521629810333252, -0.46143645048141479, 0.2708301842212677, 0.37019667029380798, 0.022850111126899719, -0.13992041349411011, -0.10008566826581955, 0.14961624145507812, 0.1380418986082077, -0.13940319418907166, -0.050316721200942993, 0.24781642854213715, -0.13413542509078979, 0.36331656575202942, 0.04078838974237442, -0.31165894865989685, -0.045561168342828751, 0.0067753228358924389, -0.091369293630123138, -0.1071450263261795, -0.25783535838127136, 0.37596940994262695, 0.045113198459148407, -0.13368877768516541, -0.03474726527929306, 0.048016693443059921, 0.15332230925559998, -0.26765081286430359, 0.12879236042499542, -0.17125013470649719, 0.15108136832714081, -0.28579136729240417, -0.23736082017421722, -0.37860316038131714, -0.41397479176521301, -0.082911036908626556, 0.022062234580516815, 0.088006637990474701, -0.024036047980189323, 0.033155884593725204, -0.068260952830314636, 0.09918530285358429, -0.10108599066734314, -0.31876698136329651, -0.28163191676139832, 0.18063965439796448, -0.067881561815738678, -0.060505427420139313, -0.0057355198077857494, 0.084175273776054382, -0.48412522673606873, 0.13852900266647339, 0.030780894681811333, -0.089885048568248749, 0.060046575963497162, -0.2180359959602356, 0.19182316958904266, 0.27240821719169617, 0.55292212963104248, 0.4508240818977356, 0.086376138031482697, -0.51709550619125366, 0.026832656934857368, 0.25363841652870178, -0.22186820209026337, -0.45164766907691956, 0.41317102313041687, 0.31931054592132568, 0.085452735424041748, -0.3054540753364563, -0.11312581598758698, 0.10674168914556503, -0.24612118303775787, -0.18865318596363068, -0.28977426886558533, -0.2834630012512207, -0.071081869304180145, 0.075268499553203583, -0.2049776166677475, -0.36760753393173218, -0.078711964190006256, -0.45999813079833984, -0.085291400551795959, -0.21899662911891937, -0.35001826286315918, 0.22603204846382141, -0.23755806684494019, -0.041871126741170883, 0.054145775735378265, -0.076098151504993439, -0.11172718554735184, -0.49038127064704895, -0.082589186728000641, 0.097286053001880646, 0.23871487379074097, -0.20040154457092285, -0.13562330603599548, -0.014265378937125206, -0.15562678873538971, -0.12376534193754196, -0.039428927004337311, 0.12325788289308548, -0.13866925239562988, 0.028401972725987434, 0.052200816571712494, 0.037443485110998154, 0.052587248384952545, 0.011768675409257412, -0.55899280309677124, -0.061540223658084869, 0.14305439591407776, 0.44160613417625427, 0.25203999876976013, 0.048074591904878616, -0.3938775360584259, 0.036206167191267014, 0.085292182862758636, 0.22809997200965881, -0.045084141194820404, -0.30074566602706909, 0.022202217951416969, 0.14584486186504364, 0.58618795871734619, 0.33709558844566345, 0.014577544294297695, -0.13086090981960297, -0.18690551817417145, 0.090609796345233917, 0.058152124285697937, -0.31176069378852844, 0.16674609482288361, 0.33543482422828674, 0.10448721796274185, -0.082862623035907745, -0.224492147564888, -0.1391770988702774, -0.096141256392002106, -0.40118646621704102, 0.010336162522435188, -0.26637133955955505, 0.083322659134864807, 0.16793300211429596, -0.10271132737398148, -0.075134158134460449, -0.089926078915596008, 0.10333182662725449, 0.15411783754825592, -0.27643907070159912, -0.32733502984046936, 0.24219994246959686, -0.20675887167453766, 0.16161511838436127, -0.10057352483272552, 0.031186040490865707, 0.036557048559188843, 0.058541066944599152, 0.011386008933186531, 0.33677059412002563, 0.04161372035741806, -0.084579870104789734, -0.11589055508375168, 0.028425265103578568, -0.0057267472147941589, -0.06173667311668396, -0.073162712156772614, 0.071235746145248413, -0.29295927286148071, 0.26460334658622742, 0.085329309105873108, -0.13337965309619904, -0.073608174920082092, 0.18899005651473999, -0.075578667223453522, 0.013161396607756615, -0.084836862981319427, 0.056577302515506744, -0.077411532402038574, -0.06705746054649353, 0.12912364304065704, -0.033990222960710526, -0.099619209766387939, -0.17049865424633026, 0.11262939125299454, -0.28667595982551575, 0.024060554802417755, 0.20703414082527161, 0.52644741535186768, 0.30633381009101868, -0.067833863198757172, -0.41982367634773254, -0.24767126142978668, 0.12686455249786377, -0.2241651713848114, -0.078904636204242706, 0.27896565198898315, 0.047356650233268738, -0.051248982548713684, -0.031368639320135117, -0.34414234757423401, 0.058584056794643402, -0.20230329036712646, -0.23239594697952271, -0.35992178320884705, -0.50569063425064087, -0.15141297876834869, 0.12530283629894257, -0.055890612304210663, -0.42605730891227722, -0.12524455785751343, 0.15843828022480011, -0.0037248642183840275, -0.13381034135818481, 0.19084616005420685, 0.25034457445144653, -0.10509718209505081, 0.17104919254779816, -0.061993192881345749, 0.0049001439474523067, -0.068429291248321533, -0.37162047624588013, -0.2006710022687912, -0.029469765722751617, 0.18658390641212463, -0.13716399669647217, -0.076275184750556946, -0.10236238688230515, -0.24884821474552155, 0.11402881890535355, 0.040835056453943253, 0.077239990234375, -0.0016340103466063738, 0.067267633974552155, -0.032639723271131516, -0.08539089560508728, 0.10767004638910294, -0.099760003387928009, 0.015877919271588326, -0.071094751358032227, -0.22547784447669983, -0.001806488842703402, 0.034881126135587692, -0.056353140622377396, -0.069021269679069519, -0.11180921643972397, 0.10534782707691193, 0.011374311521649361, -0.028474416583776474, -0.20442692935466766, 0.091880239546298981, 0.024309249594807625, 0.40350469946861267, 0.51276981830596924, 0.16735641658306122, -0.083415359258651733, 0.31545940041542053, 0.11993619799613953, -0.083340711891651154, -0.1238439679145813, 0.31033596396446228, 0.20499733090400696, 0.29684948921203613, -0.22926156222820282, -0.32661968469619751, 0.027870733290910721, 0.045925557613372803, -0.11075904220342636, -0.38924238085746765, -0.16630753874778748, -0.055731974542140961, -0.18300457298755646, -0.17738522589206696, 0.28465571999549866, 0.31373879313468933, 0.42186200618743896, -0.019552510231733322, -0.17790123820304871, -0.040578976273536682, 0.13922737538814545, -0.11668211966753006, 0.11305777728557587, 0.17752824723720551, -0.077906668186187744, -0.095954082906246185, 0.25227066874504089, -0.028445933014154434, 0.1066574901342392, -0.033291395753622055, -0.045910179615020752, 0.20616686344146729, -0.1996014267206192, -0.33683037757873535, 0.095556095242500305, -0.038862660527229309, -0.0027381472755223513, -0.092575050890445709, -0.10817925631999969, 0.014420405961573124, 0.014577052555978298, -0.0083977514877915382, -0.26721498370170593, -0.32407143712043762, 0.052571903914213181, 0.050316262990236282, 0.14087033271789551, -0.023990923538804054, 0.02814764715731144, -0.040136374533176422, 0.024892464280128479, 0.041152231395244598, -0.072800174355506897, 0.10593561083078384, -0.20469316840171814, -0.091787330806255341, 0.26110288500785828, 0.24570851027965546, 0.33952105045318604, 0.085332304239273071, -0.30387106537818909, 0.1523088812828064, 0.25033104419708252, 0.089094087481498718, -0.21811185777187347, 0.25025182962417603, 0.73541057109832764, 0.09462738037109375, -0.079277776181697845, -0.22261664271354675, 0.039154361933469772, 0.073522724211215973, -0.32843729853630066, -0.32321739196777344, -0.15236580371856689, -0.059583384543657303, -0.047286063432693481, -0.17577183246612549, -0.056077897548675537, -0.14451324939727783, -0.039215754717588425, -0.036678053438663483, -0.33445650339126587, 0.018976803869009018, 0.27397188544273376, -0.31733563542366028, 0.033035814762115479, 0.024613695219159126, 0.0012016382534056902, -0.0044110422022640705, -0.16277506947517395, -0.076367363333702087, 0.16646905243396759, -0.046604186296463013, -0.13392819464206696, 0.10764182358980179, -0.14981259405612946, -0.063576899468898773, 0.15112727880477905, -0.11818182468414307, 0.1940041184425354, 0.016107246279716492, 0.068541586399078369, -0.065582603216171265, -0.19109182059764862, -0.042306479066610336, -0.38153019547462463, 0.088433243334293365, -0.12353308498859406, 0.041789274662733078, -0.24277949333190918, -0.041551880538463593, 0.066401258111000061, -0.395376056432724, -0.07554008811712265, 0.0091624641790986061, -0.17103549838066101, 0.27427458763122559, -0.30929863452911377, -0.043100781738758087, -0.20490162074565887, 0.6051289439201355, 0.30272471904754639, 0.18716861307621002, -0.43589454889297485, 0.10999553650617599, 0.070185348391532898, -0.013092563487589359, -0.064987882971763611, 0.18101015686988831, 0.012151215225458145, 0.14925602078437805, -0.30114066600799561, -0.46136963367462158, 0.036483399569988251, -0.21099674701690674, -0.090092189610004425, -0.32057332992553711, -0.21575857698917389, -0.1108807697892189, -0.11512307822704315, 0.047597456723451614, -0.36044993996620178, -0.14922100305557251, 0.27568003535270691, 0.14075715839862823, -0.33775311708450317, -0.16164684295654297, -0.030334770679473877, 0.071505554020404816, 0.1332586258649826, 0.21482193470001221, -0.18293866515159607, -0.093716651201248169, 0.022752070799469948, 0.0081231361255049706, 0.21572427451610565, 0.09190717339515686, 0.073853030800819397, -0.1509115993976593, 0.09865405410528183, 0.18116816878318787, 0.076308399438858032, -0.43789616227149963, -0.13942214846611023, 0.074551954865455627, 0.17413324117660522, 0.18663835525512695, 0.10273688286542892, 0.0032233665697276592, -0.35251140594482422, 0.071791544556617737, -0.018768297508358955, 0.33224961161613464, -0.053438898175954819, -0.23686583340167999, -0.13115218281745911, -0.087535589933395386, -0.108918696641922, -0.07265869528055191, 0.097438111901283264, -0.0046052122488617897, -0.33570191264152527, -0.12714950740337372, 0.063677400350570679, 0.19680295884609222, 0.030369589105248451, -0.085380621254444122, -0.35231316089630127, 0.26318788528442383, 0.18487583100795746, -0.11524980515241623, 0.040292736142873764, 0.35680335760116577, 0.15658748149871826, 0.088897921144962311, -0.31586986780166626, -0.45811241865158081, 0.085882224142551422, 0.25675457715988159, -0.1888447105884552, -0.45789113640785217, -0.22623521089553833, -0.085718952119350433, -0.058065004646778107, -0.033445503562688828, -0.04309169203042984, 0.27604010701179504, 0.63824641704559326, 0.087775163352489471, -0.35383749008178711, -0.10442488640546799, -0.0092324521392583847, -0.056621130555868149, 0.22637304663658142, 0.057317387312650681, 0.30089876055717468, 0.091767571866512299, -0.56188780069351196, -0.19275636970996857, 0.3373657763004303, 0.12583483755588531, -0.13021525740623474, -0.076603882014751434, 0.34320360422134399, 0.039268925786018372, -0.061618149280548096, -0.063865602016448975, 0.21983678638935089, -0.02903839573264122, -0.01575266569852829, 0.10400547832250595, -0.043506436049938202, -0.25392040610313416, -0.095024973154067993, -0.18539534509181976, -0.045785840600728989, 0.32428699731826782, 0.03682389110326767, 0.068810939788818359, 0.20494562387466431, 0.16639389097690582, -0.10041733086109161, -0.16985732316970825, -0.03001214936375618, 0.039393197745084763, -0.29861977696418762, -0.18779142200946808, -0.026067238301038742, 0.42342740297317505, 0.10678362101316452, -0.080000050365924835, -0.25804227590560913, 0.23731645941734314, -0.019589908421039581, 0.12270398437976837, -0.004527658224105835, 0.31747105717658997, 0.015504376962780952, 0.5433657169342041, 0.030504614114761353, -0.22404135763645172, 0.12005911022424698, 0.23910264670848846, -0.19620437920093536, -0.28542104363441467, 0.030450338497757912, -0.010280264541506767, 0.014528934843838215, 0.062810949981212616, 0.16585612297058105, -0.1483919620513916, 0.42474710941314697, 0.20841361582279205, -0.15266944468021393, -0.17962440848350525, 0.1171298623085022, -0.19750702381134033, 0.097768329083919525, 0.28106865286827087, 0.13911023736000061, -0.13202473521232605, -0.23280690610408783, -0.2862187922000885, -0.042725086212158203, 0.18175539374351501, -0.089438594877719879, 0.11962561309337616, -0.25704470276832581, 0.11037929356098175, 0.12324924021959305, -0.29697942733764648, -0.058463189750909805, 0.039363130927085876, -0.11276433616876602, -0.15358884632587433, 0.0086955446749925613, 0.097778052091598511, 0.20218642055988312, 0.45957309007644653, -0.31375980377197266, -0.16634140908718109, 0.03896573930978775, -0.26805227994918823, -0.3510797917842865, -0.30493134260177612, 0.16473054885864258, 0.010588789358735085, 0.10583943128585815, -0.015903476625680923, -0.18887965381145477, -0.20266677439212799, -0.086562216281890869, 0.13274937868118286, 0.019231058657169342, 0.12840788066387177, -0.098070323467254639, 0.32315105199813843, -0.25359934568405151, 0.0045902719721198082, 0.26814526319503784, 0.48577672243118286, 0.01838703453540802, -0.21113960444927216, -0.12399099767208099, -0.10124615579843521, 0.10221698135137558, 0.26439666748046875, -0.16404327750205994, -0.38039040565490723, -0.33974021673202515, 0.061333298683166504, 0.071169637143611908, -0.25183779001235962, -0.19379100203514099, -0.53896695375442505, 0.27708527445793152, -0.021115608513355255, -0.24013014137744904, -0.53238224983215332, 0.02058400958776474, -0.30042019486427307, 0.047518640756607056, 0.19793449342250824, 0.0055701299570500851, -0.077724307775497437, 0.15164150297641754, -0.16638408601284027, 0.30394476652145386, 0.090842947363853455, 0.18881964683532715, -0.46946537494659424, 0.12685534358024597, 0.1217634379863739, -0.20193850994110107, -0.23479446768760681, -0.10014601051807404, -0.040283612906932831, 0.098127126693725586, -0.00059569661971181631, 0.0092788981273770332, 0.0049772025085985661, -0.32847067713737488, 0.12023944407701492, -0.40544945001602173, -0.0089858854189515114, -0.15718989074230194, -0.114223413169384, -0.20473779737949371, -0.080597631633281708, 0.10151980072259903, -0.19817252457141876, 0.25595209002494812, -0.38772314786911011, -0.23543314635753632, -0.23402249813079834, 0.30064547061920166, -0.073756091296672821, 0.15909010171890259, 0.045339018106460571, -0.48037061095237732, 0.087083280086517334, -0.42189350724220276, -0.052005425095558167, 0.30304121971130371, 0.1673932671546936, 0.092100232839584351, -0.63884878158569336, -0.61145323514938354, 0.28656497597694397, 0.10172285139560699, 0.11474582552909851, 0.046756509691476822, -0.38388720154762268, 0.10489057749509811, 0.18879207968711853, 0.19092981517314911, -0.049036599695682526, -0.12096955627202988, -0.059962354600429535, 0.10105842351913452, -0.15215407311916351, -0.38155505061149597, -0.42773076891899109, -0.081585690379142761, -0.10956504940986633, 0.18718382716178894, 0.19580776989459991, -0.053562864661216736, -0.083820164203643799, 0.1413460373878479, -0.088427029550075531, 0.21454373002052307, 0.20693793892860413, -0.19023829698562622, -0.031117288395762444, 0.10587083548307419, -0.0023517678491771221, 0.092606969177722931, -0.15465062856674194, 0.45933052897453308, 0.11157693713903427, 0.034686338156461716, 0.0076645486988127232, 0.0010438663884997368, -0.41881817579269409, -0.25374254584312439, 0.082994341850280762, -0.12492930889129639, 0.16887345910072327, -0.13163067400455475, -0.4013507068157196, -0.16117073595523834, -0.094228543341159821, -0.21590463817119598, -0.15745051205158234, 0.56324237585067749, -0.090579524636268616, -0.27134183049201965, -0.3050416111946106, 0.37715989351272583, -0.27884793281555176, 0.012176104821264744, -0.30920895934104919, -0.56801384687423706, 0.36058655381202698, -0.13498939573764801, 0.13285356760025024, 0.29546135663986206, 0.26940226554870605, 0.072408571839332581, -0.12200883775949478, -0.078683219850063324, 0.32668194174766541, 0.30429112911224365, 0.15772750973701477, 0.24457834661006927, -0.13393087685108185, 0.27312779426574707, -0.065240606665611267, -0.0073294136673212051, 0.11304961889982224, -0.17092099785804749, -0.41906622052192688, 0.66189903020858765, -0.17034254968166351, -0.16129514575004578, -0.44575667381286621, 0.0826435387134552, 0.30824050307273865, 0.22887963056564331, 0.073938064277172089, 0.0066587240435183048, -0.10736842453479767, 0.29426562786102295, -0.19340324401855469, 0.32159605622291565, 0.20828983187675476, 0.093010343611240387, -0.12024859338998795, 0.14883564412593842, -0.2308652251958847, -0.1689668595790863, -0.039886109530925751, -0.093499727547168732, 0.19516086578369141, -0.012067381292581558, -0.40177541971206665, 0.23959437012672424, -0.23466752469539642, -0.19984830915927887, 0.35340741276741028, -0.21762274205684662, -0.18737012147903442, -0.060555748641490936, -0.16530093550682068, 0.035841893404722214, -0.13592682778835297, 0.20993873476982117, -0.055928349494934082, -0.28632807731628418, -0.21415121853351593, -0.23427265882492065, -0.20905646681785583, 0.36887568235397339, -0.14534048736095428, 0.12813520431518555, 0.043735679239034653, -0.36853581666946411, 0.14269581437110901, -0.0066296490840613842, -0.027754230424761772, 0.24793989956378937, 0.15218821167945862, 0.13512706756591797, 0.26440301537513733, -0.041991677135229111, 0.11529305577278137, 0.27310401201248169, 0.02039412222802639, 0.12618967890739441, -0.2822394073009491, 0.35466739535331726, -0.0016465041553601623, 0.16307288408279419, 0.15856027603149414, -0.17253799736499786, -0.57366049289703369, 0.53257501125335693, -0.21048304438591003, -0.25550416111946106, -0.26979762315750122, -0.0038436912000179291, 0.26239675283432007, 0.17976413667201996, -0.21646296977996826, -0.22489403188228607, -0.22859938442707062, 0.44276681542396545, 0.071454279124736786, 0.29767692089080811, 0.066388338804244995, -0.072716869413852692, 0.22505626082420349, 0.07709416002035141, -0.204449862241745, -0.055207960307598114, -0.26150816679000854, -0.10510339587926865, 0.014409612864255905, 0.23240306973457336, -0.06646430492401123, -0.055265642702579498, -0.18842795491218567, 0.2775585949420929, 0.25427311658859253, -0.53478580713272095, -0.13399629294872284, 0.13312037289142609, -0.40389391779899597, -0.071887880563735962, -0.075100377202033997, 0.096550486981868744, -0.10295985639095306, 0.21154220402240753, 0.0013309888308867812, -0.12906552851200104, -0.12893323600292206, 0.67789548635482788, 0.086779132485389709, 0.26162466406822205, 0.12169637531042099, 0.065631650388240814, -0.034188691526651382, 0.18643467128276825, 0.25027531385421753, 0.37256842851638794, 0.19689896702766418, 0.15936671197414398, 0.54267400503158569, -0.029419362545013428, -0.16573275625705719, 0.10176530480384827, 0.060623772442340851, 0.05999176949262619, -0.20399828255176544, 0.29761859774589539, 0.044161777943372726, 0.096290759742259979, -0.13175489008426666, -0.21986809372901917, 0.029308831319212914, -0.11854245513677597, -0.18334475159645081, -0.35633406043052673, -0.31635895371437073, 0.052909791469573975, 0.15405385196208954, -0.035298477858304977, -0.14049375057220459, 0.23335328698158264, -0.29210785031318665, 0.15521621704101562, -0.092252403497695923, 0.15054519474506378, 0.16421720385551453, -0.21448226273059845, 0.22338169813156128, -0.22687624394893646, -0.043059404939413071, 0.073341958224773407, 0.14123120903968811, -0.20452083647251129, 0.17136134207248688, -0.28142198920249939, 0.29557782411575317, -0.037283897399902344, -0.059393201023340225, 0.39238598942756653, -0.24214322865009308, -0.40543583035469055, -0.29008278250694275, 0.14233894646167755, 0.035996962338685989, 0.069154843688011169, 0.052237037569284439, -0.39041760563850403, -0.29401946067810059, 0.1911386251449585, 0.00037613592576235533, 
  -0.098036825656890869, 0.087755881249904633, -0.32606279850006104, -0.26050481200218201, -0.024257833138108253, -0.020084559917449951, 0.027957921847701073, -0.027810497209429741, -0.25675418972969055, -0.25899195671081543, 0.13824409246444702, -0.23615618050098419, -0.26030278205871582, -0.31779506802558899, -0.21782596409320831, 0.2297968864440918, 0.048863723874092102, 0.24146959185600281, 0.050104066729545593, -0.020689859986305237, 0.33057990670204163, -0.10301624983549118, -0.061641369014978409, -0.016121232882142067, 0.2301173061132431, -0.10002387315034866, -0.023012209683656693, 0.32434818148612976, -0.15546581149101257, -0.0043140612542629242, -0.17868080735206604, 0.26967361569404602, 0.43070915341377258, 0.20081937313079834, 0.010582397691905499, -0.092253342270851135, 0.17708304524421692, 0.063364714384078979, -0.091848015785217285, -0.03677571564912796, 0.025378057733178139, -0.14553932845592499, 0.039197683334350586, 0.14741839468479156, -0.13864217698574066, -0.028433877974748611, -0.25410056114196777, -0.020867923274636269, 0.10940280556678772, 0.10366325080394745, -0.1364758163690567, 0.32638254761695862, -0.024039953947067261, -0.42845159769058228, -0.010375345125794411, -0.033210981637239456, 0.062036283314228058, -0.11226174235343933, 0.16730660200119019, 0.28088787198066711, -0.077738359570503235, -0.041550800204277039, 0.17554847896099091, -0.05390254408121109, 0.085853651165962219, 0.049298994243144989, -0.46293503046035767, -0.1430821567773819, -0.58141928911209106, 0.24116367101669312, 0.014523785561323166, 0.02569986879825592, -0.50089490413665771, -0.24008379876613617, -0.065557032823562622, -0.31375342607498169, -0.32465595006942749, -0.26980024576187134, -0.04751727357506752, 0.40717995166778564, 0.11811172962188721, -0.15497282147407532, 0.11203647404909134, -0.070955321192741394, -0.048098813742399216, 0.024011002853512764, 0.045587312430143356, 0.24984261393547058, 0.30039173364639282, -0.41581350564956665, 0.35359311103820801, 0.21814654767513275, -0.072705633938312531, -0.0039595183916389942, 0.0071487324312329292, 0.26755619049072266, -0.078438274562358856, 0.13317364454269409, 0.18300741910934448, 0.070237398147583008, 0.1303892582654953, 0.039745025336742401, 0.058764372020959854, 0.091507986187934875, 0.083327077329158783, 0.10952169448137283, -0.13785114884376526, -0.074438132345676422, 0.13521458208560944, -0.039314191788434982, -0.23648378252983093, 0.30859798192977905, -0.028055626899003983, 0.19645199179649353, -0.086055077612400055, -0.10276193171739578, 0.29011791944503784, 0.31276875734329224, -0.11971872299909592, 0.17412720620632172, -0.21403160691261292, -0.063320070505142212, -0.050133958458900452, -0.080423049628734589, 0.064698264002799988, -0.093904279172420502, 0.1586773693561554, 0.11662931740283966, 0.1487153023481369, -0.18854504823684692, -0.30569848418235779, -0.41817039251327515, -0.36277666687965393, 0.12802876532077789, -0.017473449930548668, 0.1627194881439209, -0.29027244448661804, 0.10989444702863693, 0.18765924870967865, -0.055698875337839127, -0.15594121813774109, -0.115833580493927, -0.089669093489646912, 0.50737291574478149, 0.016964210197329521, -0.13031376898288727, -0.21390417218208313, 0.21113945543766022, 0.031670033931732178, -0.2398698478937149, -0.15381208062171936, 0.32492184638977051, 0.19916480779647827, -0.020904658362269402, -0.025648985058069229, 0.091032072901725769, -0.055727243423461914, 0.089267954230308533, -0.084494128823280334, 0.21891129016876221, 0.12520763278007507, -0.091882370412349701, -0.25899100303649902, 0.092271015048027039, -0.28283721208572388, -0.2360118180513382, 0.066636979579925537, 0.041764751076698303, 0.039307955652475357, 0.17052361369132996, -0.031354598701000214, 0.17403328418731689, 0.0020627209451049566, -0.095421053469181061, -0.083261847496032715, 0.04949381947517395, 0.27551206946372986, 0.1945057213306427, -0.10546631366014481, 0.070429041981697083, -0.41033971309661865, -0.31941649317741394, 0.010432996787130833, 0.147470623254776, -0.069886632263660431, -0.027165908366441727, -0.035363197326660156, -0.034037273377180099, -0.061081763356924057, 0.052833136171102524, 0.19670046865940094, -0.030599169433116913, 0.053645823150873184, -0.046197202056646347, -0.29062676429748535, -0.31451389193534851, -0.63487511873245239, -0.037913817912340164, 0.2294972836971283, -0.020814331248402596, -0.34941527247428894, -0.20627471804618835, 0.1243528351187706, 0.020851990208029747, -0.11769242584705353, -0.053930178284645081, 0.040684163570404053, 0.58140254020690918, 0.043721385300159454, 0.050990771502256393, 0.16542112827301025, -0.03606843575835228, -0.22188813984394073, 0.11267945170402527, -0.24570952355861664, -0.046021711081266403, 0.32609716057777405, 0.087313428521156311, -0.17980207502841949, -0.040216736495494843, 0.1008470430970192, -0.022602863609790802, -0.51183921098709106, 0.24900332093238831, 0.16138719022274017, 0.14401015639305115, 0.03852560743689537, -0.018008928745985031, 0.2790893018245697, -0.044397462159395218, 0.1857316792011261, 0.20887525379657745, 0.13635662198066711, 0.12142974138259888, 0.27877852320671082, 0.1527847945690155, -0.15265335142612457, -0.18136481940746307, -0.19466975331306458, 0.055543761700391769, 0.30104890465736389, 0.062902249395847321, -0.066974349319934845, 0.050341133028268814, -0.044956952333450317, 0.105335533618927, -0.096162296831607819, 0.0056451563723385334, -0.057650420814752579, 0.17246317863464355, 0.030345670878887177, 0.039770051836967468, -0.23802453279495239, -0.074619263410568237, 0.46458792686462402, 0.15839479863643646, 0.22022350132465363, -0.045719236135482788, -0.29430606961250305, -0.22910091280937195, -0.5033646821975708, 0.084337480366230011, 0.091327466070652008, -0.03962494432926178, -0.34249210357666016, -0.07940133661031723, 0.28302663564682007, -0.070696599781513214, -0.26887327432632446, -0.031602941453456879, 0.11730924248695374, 0.550567626953125, 0.15000821650028229, 0.48152938485145569, -0.020134491845965385, 0.0011033567134290934, 0.11360017210245132, 0.070879437029361725, -0.11531241983175278, 0.054555624723434448, 0.22905214130878448, -0.064313925802707672, 0.34033432602882385, 0.17068970203399658, 0.086576551198959351, 0.046068035066127777, -0.23316702246665955, 0.42297667264938354, 0.23821717500686646, 0.10207243263721466, -0.016889223828911781, 0.031409725546836853, 0.48353502154350281, 0.058756977319717407, -0.10971077531576157, 0.24131889641284943, 0.10873015969991684, -0.0031310310587286949, -0.14264088869094849, 0.27973583340644836, -0.16871139407157898, -0.12378603219985962, -0.16159646213054657, 0.28941047191619873, 0.093383505940437317, 0.0062359673902392387, 0.065532274544239044, -0.17266650497913361, -0.13415507972240448, 0.13071665167808533, 0.1467326283454895, 0.11014202237129211, -0.16265784204006195, -0.0084317382425069809, 0.16859592497348785, -0.024885866791009903, -0.046740680932998657, -0.09315597265958786, 0.023605149239301682, 0.1191132441163063, 0.21952629089355469, 0.075198136270046234, -0.13754837214946747, -0.2061258852481842, -0.3027012050151825, -0.19052578508853912, -0.00059445109218358994, -0.14662729203701019, -0.29085913300514221, -0.27676543593406677, 0.18398147821426392, 0.090851783752441406, -0.15480849146842957, 0.0086129894480109215, 0.14068561792373657, 0.47617977857589722, 0.19460026919841766, -0.087057776749134064, 0.34279763698577881, -0.14568664133548737, 0.38407322764396667, 0.055153615772724152, 0.029856851324439049, 0.17228387296199799, -0.13663874566555023, 0.26625379920005798, 0.17957903444766998, -0.2197185605764389, -0.017743166536092758, -0.068357810378074646, -0.039502348750829697, 0.45975178480148315, 0.075555510818958282, -0.16963830590248108, 0.15026487410068512, -0.050237055867910385, -0.16653904318809509, 0.069102786481380463, -0.076186560094356537, 0.094559237360954285, 0.15434886515140533, 0.15075939893722534, -0.033403288573026657, 0.0029152054339647293, -0.0847025066614151, -0.089670024812221527, -0.22139976918697357, 0.28036114573478699, 0.1295773983001709, 0.15636244416236877, 0.10455010086297989, 0.13840557634830475, -0.27286067605018616, 0.13060984015464783, 0.092936426401138306, 0.14463669061660767, -0.025025105103850365, -0.15982435643672943, 0.21874998509883881, -0.082930445671081543, -0.091895781457424164, 0.027693178504705429, 0.51286929845809937, 0.023222418501973152, 0.30922028422355652, 0.081523776054382324, -0.25092843174934387, -0.30505979061126709, -0.33558017015457153, -0.041362043470144272, -0.076336361467838287, -0.038959600031375885, -0.33901700377464294, -0.39856630563735962, 0.1714489758014679, 0.099856734275817871, -0.23375315964221954, 0.084923945367336273, 0.20283569395542145, 0.45863163471221924, 0.21808741986751556, -0.041829772293567657, 0.23982757329940796, 0.07076602429151535, 0.046928174793720245, 0.088699191808700562, -0.03991403803229332, 0.12796264886856079, 0.22664186358451843, 0.06997787207365036, 0.02421354316174984, -0.0081248413771390915, 0.094132333993911743, -0.20700684189796448, -0.029474182054400444, 0.17450049519538879, 0.0085447756573557854, 0.30560868978500366, 0.044152669608592987, -0.16292236745357513, -0.22017201781272888, 0.024592289701104164, 0.20450809597969055, -0.17999164760112762, 0.10895799845457077, 0.069909341633319855, 0.16032031178474426, -0.22721907496452332, -0.1366262286901474, 0.052837610244750977, 0.18330249190330505, 0.074265226721763611, 0.24784564971923828, 0.11149515956640244, 0.17323598265647888, -0.18970127403736115, -0.28960010409355164, 0.0085780564695596695, -0.083115763962268829, -0.022249409928917885, -0.091798126697540283, -0.17109036445617676, 0.075270473957061768, -0.0060220183804631233, 0.11766918003559113, 0.093637667596340179, 0.37525874376296997, -0.044581502676010132, 0.17960642278194427, 0.058877483010292053, -0.19318930804729462, -0.26637676358222961, -0.42292973399162292, -0.033197514712810516, -0.26182800531387329, -0.26045596599578857, -0.20298966765403748, -0.32057040929794312, 0.20252226293087006, 0.1247243732213974, 0.018447926267981529, -0.16745801270008087, 0.084155596792697906, 0.4336610734462738, 0.32772296667098999, 0.20894865691661835, 0.19654726982116699, 0.16843894124031067, -0.0767931267619133, 0.040224846452474594, 0.045442629605531693, 0.044782206416130066, -0.15726743638515472, -0.11983565241098404, -0.1488155722618103, -6.7292014136910439e-05, 0.09628179669380188, -0.031293019652366638, -0.31978341937065125, -0.01026217732578516, 0.017321929335594177, -0.12557686865329742, 0.20476952195167542, -0.10451523214578629, -0.41762959957122803, 0.21826747059822083, 0.29323762655258179, 0.36750999093055725, 0.12695477902889252, 0.099039025604724884, 0.0095301205292344093, 0.091726422309875488, -0.20997102558612823, -0.017254713922739029, 0.019241929054260254, 0.086092293262481689, 0.27065384387969971, 0.080394722521305084, -0.12325221300125122, -0.20461647212505341, 0.69111931324005127, 0.38116148114204407, 0.086389929056167603, 0.028072560206055641, 0.29071581363677979, 0.028790712356567383, -0.048916228115558624, -0.14719052612781525, -0.25607019662857056, -0.10660833120346069, 0.1527295708656311, -0.32247579097747803, 0.15192355215549469, 0.11499569565057755, -0.32463723421096802, -0.29546111822128296, -0.12647317349910736, -0.042405497282743454, -0.12378156930208206, -0.10679737478494644, -0.22393107414245605, -0.43439760804176331, 0.15505495667457581, -0.048228394240140915, -0.47641876339912415, 0.031841695308685303, -0.28357785940170288, 0.62867170572280884, 0.26793712377548218, -0.011875965632498264, 0.057087883353233337, 0.084634564816951752, 0.07655748724937439, 0.075856395065784454, 0.22202098369598389, 0.36412850022315979, -0.013650002889335155, -0.15992039442062378, -0.1734352707862854, 0.18234193325042725, 0.10274342447519302, -0.043297003954648972, -0.5289914608001709, 0.24516591429710388, 0.20440766215324402, -0.053365830332040787, -0.16387619078159332, 0.016427202150225639, -0.049021750688552856, -0.0062772147357463837, 0.30966386198997498, 0.011087208054959774, 0.12320516258478165, -0.13769245147705078, -0.05259903147816658, -0.32002308964729309, -0.2411903589963913, 0.019064240157604218, 0.080946892499923706, -0.21842516958713531, -0.11331119388341904, 0.064655743539333344, 0.18196173012256622, -0.033333946019411087, 0.091278105974197388, -0.2101762592792511, 0.35723003745079041, 0.037923946976661682, -0.033436086028814316, 0.11051218956708908, -0.056309163570404053, -0.11427605152130127, -0.18947593867778778, 0.032755210995674133, 0.12091142684221268, -0.42290323972702026, 0.23610538244247437, 0.04928341880440712, -0.022099195048213005, -0.39105710387229919, -0.24456089735031128, -0.22648032009601593, -0.014545032754540443, -0.20011869072914124, -0.10703757405281067, -0.25148558616638184, 0.051928900182247162, -0.040810517966747284, -0.047674503177404404, -0.1647266298532486, 0.20322777330875397, 0.60525602102279663, 0.089939169585704803, 0.0078269774094223976, 0.11786748468875885, 0.040512446314096451, 0.18628858029842377, 0.10648500174283981, -0.053441397845745087, 0.045975629240274429, -0.056909587234258652, 0.12527087330818176, -0.22506818175315857, 0.04862532764673233, 0.12080071866512299, -0.090684510767459869, -0.044461656361818314, 0.11184385418891907, 0.19795648753643036, 0.013555514626204967, -0.032488226890563965, 0.059098195284605026, 0.39014020562171936, -0.089123114943504333, 0.1743440181016922, 0.12308289110660553, -0.16178326308727264, 0.1833595335483551, 0.042903441935777664, 0.053314302116632462, -0.21816641092300415, 0.06964942067861557, 0.19862867891788483, -0.10299821943044662, -0.12946604192256927, 0.06738552451133728, -0.026244806125760078, 0.077224768698215485, 0.53729414939880371, -0.13666093349456787, 0.31939661502838135, -0.03350718691945076, 0.0059612756595015526, 0.17101673781871796, 0.24695490300655365, 0.26159262657165527, -0.16959413886070251, -0.10139837861061096, 0.1936940997838974, 0.10221779346466064, 0.40638291835784912, 0.30824097990989685, -0.093478977680206299, -0.27167209982872009, -0.0046133934520184994, 0.010887010954320431, -0.19183193147182465, -0.31948253512382507, -0.24855659902095795, -0.31231895089149475, 0.18662890791893005, -0.16365836560726166, -0.32410192489624023, -0.39292466640472412, 0.13390780985355377, 0.58636856079101562, 0.1515900194644928, -0.076149947941303253, 0.2990303635597229, 0.14866065979003906, 0.086841769516468048, -0.054234545677900314, 0.10011619329452515, 0.086849354207515717, 0.12908940017223358, -0.066297732293605804, -0.28819760680198669, -0.021634949371218681, 0.24175924062728882, -0.12766417860984802, -0.20941831171512604, 0.09214281290769577, 0.081346184015274048, 0.034470483660697937, -0.29975733160972595, -0.16950345039367676, -0.30845466256141663, 0.0086004966869950294, -0.099716983735561371, 0.020368000492453575, -0.16901245713233948, -0.018770966678857803, -0.17089620232582092, 0.042585864663124084, -0.19094504415988922, -0.082887381315231323, -0.22105954587459564, 0.073050908744335175, 0.029309175908565521, -0.085332058370113373, -0.20276743173599243, -0.088401198387145996, 0.11585027724504471, -0.085046768188476562, 0.12157827615737915, 0.21107184886932373, -0.043019108474254608, -0.12641678750514984, 0.025546453893184662, -0.036832049489021301, -0.031272582709789276, -0.041133113205432892, 0.063838154077529907, 0.26194339990615845, 0.40475493669509888, 0.069447077810764313, -0.30520516633987427, -0.23768730461597443, -0.22863306105136871, 0.10129991918802261, -0.090595342218875885, -0.41466796398162842, -0.083878345787525177, -0.40867680311203003, 0.12283255904912949, -0.10795974731445312, 0.075019463896751404, -0.49893820285797119, -0.11057604849338531, 0.45310348272323608, 0.17096689343452454, -0.1161411926150322, 0.104118712246418, 0.10517701506614685, -0.087665751576423645, -0.027942396700382233, 0.18924304842948914, 0.14759549498558044, 0.14496602118015289, 0.077873878180980682, -0.12024480849504471, -0.078030921518802643, 0.094940543174743652, -0.10149242728948593, 0.03349582850933075, 0.43641564249992371, 0.11998070031404495, 0.050797007977962494, -0.27523323893547058, 0.14583194255828857, 0.069534949958324432, 0.17077793180942535, 0.15469919145107269, -0.15980209410190582, 0.024985479190945625, -0.15423344075679779, 0.46810144186019897, -0.097416363656520844, -0.26825180649757385, -0.0057807238772511482, 0.052028343081474304, -0.14744897186756134, 0.19222337007522583, -0.058489404618740082, -0.12229634076356888, 0.16872549057006836, -0.6662590503692627, -0.14002422988414764, 0.16219258308410645, 0.21599256992340088, -0.063552290201187134, -0.050025947391986847, 0.39406785368919373, 0.1392521858215332, -0.20984719693660736, -0.023454101756215096, -0.27219608426094055, 0.12626998126506805, 0.14051465690135956, 0.039409782737493515, 0.088294282555580139, -0.16064649820327759, 0.028009703382849693, -0.049223706126213074, -0.13986557722091675, -0.21991044282913208, -0.15972696244716644, 0.37603798508644104, -0.03198610246181488, -0.11758257448673248, -0.15392966568470001, -0.078058362007141113, 0.28182929754257202, 0.35935884714126587, 0.091762803494930267, 0.12167038023471832, 0.11467976868152618, -0.031424075365066528, 0.33459815382957458, -0.05743476003408432, -0.0043200799264013767, 0.1597243994474411, -0.0064801736734807491, 0.31106537580490112, -0.12553031742572784, 0.25463864207267761, 0.17507471144199371, 0.026315595954656601, 0.24913707375526428, 0.42514896392822266, 0.11350333690643311, -0.17438916862010956, -0.19398139417171478, 0.20450447499752045, 0.035276178270578384, 0.093016453087329865, -0.099246911704540253, 0.20987889170646667, -0.058694157749414444, 0.26891922950744629, -0.054443083703517914, -0.14769348502159119, -0.12430881708860397, 0.037958845496177673, -0.12308758497238159, 0.11880805343389511, 0.38476142287254333, 0.050167389214038849, 0.11555285006761551, -0.054924201220273972, 0.35576069355010986, 0.047116532921791077, 0.29924583435058594, 0.16629393398761749, -0.14032897353172302, 0.057466413825750351, 0.41901740431785583, -0.034095477312803268, -0.046523109078407288, 0.16005218029022217, 0.11146743595600128, -0.11288078874349594, 0.26960179209709167, 0.08718949556350708, -0.2001320868730545, 0.08031947910785675, -0.080717489123344421, 0.036248918622732162, -0.010430830530822277, -0.33553659915924072, -0.23440323770046234, 0.027652006596326828, -0.1497182697057724, 0.081078670918941498, -0.1225074976682663, -0.19760929048061371, 0.37699994444847107, 0.37397459149360657, 0.10686654597520828, -0.010887962765991688, 0.1348729282617569, 0.18434393405914307, 0.0084230778738856316, -0.16124963760375977, -0.22236137092113495, -0.011414880864322186, 0.087411001324653625, -0.076179951429367065, -0.1676308810710907, 0.043260671198368073, -0.12681408226490021, 0.10264902561903, -0.14928071200847626, 0.21184423565864563, 0.28885415196418762, -0.12399759143590927, 0.14490270614624023, 0.016342371702194214, 0.081102095544338226, -0.073744125664234161, 0.1787811815738678, 0.21104440093040466, 0.12483997642993927, -0.1317412257194519, -0.13125492632389069, -0.17757055163383484, -0.016606854274868965, -0.0067623378708958626, -0.065278388559818268, -0.047746550291776657, 0.29087895154953003, 0.11125330626964569, 0.036317199468612671, 0.0047458130866289139, 0.046067211776971817, -0.41666719317436218, 0.16067339479923248, 0.29791161417961121, 0.024331742897629738, 0.0016443009953945875, 0.23754251003265381, 0.00089529610704630613, 0.0068495366722345352, 0.17110483348369598, 0.015139158815145493, 0.09659547358751297, 0.22589750587940216, 0.26581531763076782, -0.15980443358421326, 0.032831337302923203, 0.17826145887374878, 0.12795762717723846, -0.073750905692577362, -0.22400088608264923, -0.26833021640777588, 0.036502931267023087, -0.27923294901847839, -0.021893158555030823, -0.060019504278898239, -0.23470845818519592, 0.27012175321578979, 0.15604501962661743, -0.025100143626332283, 0.15098999440670013, -0.18265029788017273, -0.028534773737192154, -0.18135696649551392, 0.20916545391082764, -0.13854381442070007, -0.057148922234773636, 0.28432536125183105, 0.074728049337863922, -0.24023781716823578, 0.2956635057926178, 0.25463539361953735, -0.11426049470901489, 0.035714246332645416, 0.13516619801521301, -0.05063445121049881, 0.17541511356830597, 0.033493582159280777, 0.057782717049121857, -0.38251149654388428, -0.0081834848970174789, -0.12522691488265991, 0.13281665742397308, 0.13032837212085724, -0.24595360457897186, -0.059612404555082321, 0.25880435109138489, 0.075612515211105347, 0.083155617117881775, 0.086757451295852661, -0.1917153000831604, 0.060526728630065918, 0.24452431499958038, -0.20831270515918732, 0.13740512728691101, -0.15775614976882935, -0.31456094980239868, 0.15935437381267548, 0.33642575144767761, -0.05366848036646843, 0.32718425989151001, 0.045325819402933121, 0.044130519032478333, -0.22484509646892548, 0.063522607088088989, 0.4980606734752655, 0.018197739496827126, 0.12660947442054749, 0.11497998237609863, -0.20193406939506531, 0.088877677917480469, -0.046523489058017731, -0.11449591070413589, 0.066548295319080353, -0.4982130229473114, -0.1759180873632431, 0.30747026205062866, -0.35660001635551453, 0.034595880657434464, -0.13316807150840759, 0.044837325811386108, 0.16048118472099304, 0.27281764149665833, 0.099216006696224213, 0.15308867394924164, 0.071088619530200958, 0.071946360170841217, -0.40862384438514709, -0.030403895303606987, 0.034982327371835709, -0.0072438549250364304, 0.028233086690306664, 0.10186705738306046, -0.17786827683448792, -0.0041661718860268593, 0.07648748904466629, -0.23574180901050568, 0.021901248022913933, 0.20069462060928345, 0.058036413043737411, 0.027041157707571983, -0.088139086961746216, 0.12504512071609497, -0.15149681270122528, -0.073852993547916412, -0.051614701747894287, -0.016243737190961838, -0.10106895118951797, -0.092267200350761414, 0.12429533153772354, -0.036125440150499344, -0.16617529094219208, -0.037815805524587631, -0.055986255407333374, -0.0044427961111068726, -0.0037956344895064831, 0.084239140152931213, -0.049094580113887787, -0.09886624664068222, 0.20367234945297241, -0.16627423465251923, 0.046110134571790695, 0.12570278346538544, 0.11651194095611572, 0.23183742165565491, -0.012547185644507408, 0.21458317339420319, 0.033180221915245056, 0.056536965072154999, -0.0078047565184533596, 0.072366133332252502, 0.13413369655609131, -0.031694136559963226, -0.33629229664802551, -0.20243948698043823, -0.048368196934461594, -0.077980272471904755, -0.07279418408870697, 0.016385197639465332, -0.25781139731407166, -0.30582436919212341, -0.54657036066055298, -0.075842089951038361, -0.13264426589012146, -0.039357613772153854, -0.21785637736320496, 0.20605188608169556, 0.029498787596821785, -0.01077740453183651, 0.070365346968173981, 0.1587207019329071, -0.25395596027374268, -0.015342080965638161, -0.32395645976066589, 0.23787291347980499, -0.0076322946697473526, -0.24850241839885712, 0.32348644733428955, 0.13423490524291992, 0.083504289388656616, 0.18048994243144989, -0.082270294427871704, 0.034298237413167953, 0.093479640781879425, -0.33791297674179077, -0.44651103019714355, 0.15833392739295959, -0.35337695479393005, -0.1569746732711792, -0.058539688587188721, 0.14370507001876831, 0.0021774072665721178, 0.074554547667503357, 0.085435733199119568, -0.16109079122543335, -0.21266782283782959, 0.02386724017560482, -0.14187289774417877, -0.0048363124951720238, 0.11031687259674072, -0.33873355388641357, 0.25374564528465271, -0.13662083446979523, -0.51081711053848267, 0.06934741884469986, 0.39374706149101257, 0.53602004051208496, 0.070904068648815155, -0.42547813057899475, -0.23127509653568268, -0.1216621920466423, -0.065424308180809021, -0.091279104351997375, -0.099669724702835083, 0.058068349957466125, 
};
const TfArray<2, int> tensor_dimension6 = { 2, { 3,1088 } };
const ALIGN(8) float tensor_data7[8*3*3*1] = { 
  /* [0][0][][] */ -0.16832566261291504, 0.31958600878715515, 0.0096370158717036247, 
  /* [0][1][][] */ 0.16883094608783722, 0.11828674376010895, -0.22180867195129395, 
  /* [0][2][][] */ -0.15402574837207794, 0.2321692556142807, 0.23369958996772766, 
  /* [1][0][][] */ -0.045992672443389893, -0.18424095213413239, 0.044898297637701035, 
  /* [1][1][][] */ 0.17405495047569275, -0.12691952288150787, -0.21186929941177368, 
  /* [1][2][][] */ 0.29459890723228455, -0.097989417612552643, -0.18339087069034576, 
  /* [2][0][][] */ -0.16806608438491821, -0.27291813492774963, -0.13996900618076324, 
  /* [2][1][][] */ 0.03758813813328743, -0.24196945130825043, -0.2407812774181366, 
  /* [2][2][][] */ -0.067891530692577362, -0.13977408409118652, -0.11044316738843918, 
  /* [3][0][][] */ 0.0086542153730988503, 0.2057587206363678, -0.37644931674003601, 
  /* [3][1][][] */ 0.12857729196548462, -0.061846084892749786, -0.0043787974864244461, 
  /* [3][2][][] */ 0.11796318739652634, 0.081204190850257874, -0.27374517917633057, 
  /* [4][0][][] */ -0.20618157088756561, 0.29242974519729614, -0.23536984622478485, 
  /* [4][1][][] */ 0.043111588805913925, -0.064921580255031586, -0.019855225458741188, 
  /* [4][2][][] */ -0.26724964380264282, 0.2745693027973175, -0.1714865118265152, 
  /* [5][0][][] */ 0.48619118332862854, 0.10026713460683823, -0.10186190903186798, 
  /* [5][1][][] */ -0.064679749310016632, -0.051329508423805237, -0.014952783472836018, 
  /* [5][2][][] */ -0.45114052295684814, -0.069173254072666168, 0.16551496088504791, 
  /* [6][0][][] */ -0.37608841061592102, -0.33567148447036743, 0.031305514276027679, 
  /* [6][1][][] */ -0.091298453509807587, 0.059798624366521835, 0.092990107834339142, 
  /* [6][2][][] */ 0.3976825475692749, 0.36489176750183105, -0.069683477282524109, 
  /* [7][0][][] */ -0.15095256268978119, -0.13603298366069794, -0.061871025711297989, 
  /* [7][1][][] */ -0.13843762874603271, -0.13155968487262726, -0.063576638698577881, 
  /* [7][2][][] */ -0.05503598228096962, 0.036032117903232574, 0.053226448595523834, 
};
const TfArray<4, int> tensor_dimension7 = { 4, { 8,3,3,1 } };
const ALIGN(8) float tensor_data8[16*3*3*8] = { 
  /* [0][0][][] */ 0.22030770778656006,-0.12101438641548157,-0.21799196302890778,0.28352469205856323,0.29683229327201843,-0.42981037497520447,-0.23678533732891083,0.010732750408351421, 0.41608473658561707,-0.10384538024663925,-0.40771889686584473,0.19712238013744354,0.17429685592651367,-0.34638813138008118,-0.19687867164611816,-0.40856102108955383, 0.093634188175201416,-0.011917532421648502,0.16435553133487701,0.027320466935634613,0.29827111959457397,-0.28480097651481628,-0.12688000500202179,-0.099305309355258942, 
  /* [0][1][][] */ 0.27522599697113037,-0.22844052314758301,-0.30201166868209839,0.20161202549934387,0.18181726336479187,-0.27308568358421326,-0.28792843222618103,0.12761496007442474, 0.18591701984405518,0.022802157327532768,-0.292339026927948,-0.059958610683679581,0.21058250963687897,-0.4832991361618042,-0.44056463241577148,-0.2371724396944046, -0.23923943936824799,0.0065792081877589226,-0.011914610862731934,-0.050736546516418457,0.21318161487579346,-0.21958021819591522,-0.26199814677238464,-0.10315264761447906, 
  /* [0][2][][] */ 0.42911571264266968,-0.30212017893791199,-0.45158222317695618,0.35422828793525696,0.48978817462921143,-0.42499402165412903,-0.017576362937688828,0.050627395510673523, 0.24231337010860443,0.15655960142612457,-0.41351541876792908,0.080504417419433594,0.24488703906536102,-0.45303285121917725,-0.24712610244750977,-0.29415994882583618, -0.14682492613792419,0.19472867250442505,0.067255079746246338,0.0046007419005036354,0.093364641070365906,-0.17703007161617279,-0.13953530788421631,-0.077428743243217468, 
  /* [1][0][][] */ -0.074549533426761627,-0.07126191258430481,0.044565845280885696,-0.42824935913085938,-0.45936188101768494,-0.083950668573379517,0.15825366973876953,0.24038100242614746, -0.05024421215057373,-0.31031683087348938,-0.26719796657562256,-0.25115585327148438,-0.16401170194149017,-0.32417687773704529,0.026993395760655403,-0.28274321556091309, 0.27595064043998718,0.15135543048381805,0.03078797459602356,0.45755153894424438,0.40607085824012756,0.096352025866508484,-0.29061231017112732,-0.23222789168357849, 
  /* [1][1][][] */ -0.027640970423817635,-0.26624733209609985,-0.22311262786388397,-0.1751796156167984,-0.33801364898681641,-0.50300818681716919,-0.025100605562329292,0.17164212465286255, -0.21674937009811401,-0.3599337637424469,0.08023737370967865,-0.21129913628101349,-0.11902996897697449,-0.26374474167823792,-0.43542540073394775,-0.097068473696708679, 0.09704725444316864,0.052293412387371063,0.2236788272857666,0.01940297894179821,-0.11632630974054337,-0.25013455748558044,-0.035610731691122055,0.19918973743915558, 
  /* [1][2][][] */ -0.15028536319732666,-0.39950317144393921,-0.063824184238910675,-0.077721886336803436,-0.59697520732879639,-0.37924161553382874,-0.34510859847068787,-0.1683153361082077, -0.29111087322235107,-0.26490607857704163,-0.052724804729223251,-0.26225832104682922,-0.38882854580879211,-0.53957432508468628,-0.36322429776191711,0.11109204590320587, -0.032774489372968674,0.19346824288368225,0.013278860598802567,0.11862139403820038,0.10205714404582977,-0.28809523582458496,0.16359448432922363,-0.22968052327632904, 
  /* [2][0][][] */ -0.31778791546821594,0.28682714700698853,0.14865642786026001,-0.32911837100982666,-0.21659871935844421,-0.23911871016025543,-0.43334752321243286,0.29335236549377441, 0.078886695206165314,-0.22837868332862854,-0.53094267845153809,-0.14348405599594116,0.030162343755364418,-0.15693692862987518,-0.41134491562843323,0.13976442813873291, 0.20993709564208984,-0.5775415301322937,-0.75355947017669678,-0.62945550680160522,-0.45355573296546936,-0.23036423325538635,0.10909799486398697,-0.70190691947937012, 
  /* [2][1][][] */ -0.36128699779510498,0.27395346760749817,0.17712122201919556,-0.16508132219314575,-0.36901047825813293,-0.013476006686687469,0.080495595932006836,0.12837280333042145, 0.043697550892829895,-0.45769575238227844,-0.59401744604110718,-0.40269094705581665,0.17909258604049683,-0.28078678250312805,-0.21805182099342346,0.15825401246547699, 0.26484870910644531,-0.6883121132850647,-0.51911842823028564,-0.19797588884830475,-0.51526170969009399,-0.15901628136634827,0.031488314270973206,-0.54014581441879272, 
  /* [2][2][][] */ -0.43184846639633179,0.20334756374359131,0.18675161898136139,-0.21113759279251099,-0.33972927927970886,-0.024954464286565781,-0.032728284597396851,0.15266364812850952, 0.31554526090621948,-0.19132021069526672,-0.34481266140937805,0.08580055832862854,0.064950987696647644,-0.29249283671379089,0.017109395936131477,-0.028133656829595566, 0.19577887654304504,0.11689654737710953,-0.11482798308134079,-0.24223704636096954,-0.4062957763671875,0.11076090484857559,-0.50304585695266724,-0.41200295090675354, 
  /* [3][0][][] */ -0.2267347127199173,-0.14520193636417389,0.078919067978858948,-0.15679691731929779,-0.23338180780410767,0.24756535887718201,-0.026180190965533257,0.43514648079872131, -0.11973163485527039,-0.35350328683853149,-0.2423347681760788,-0.44304648041725159,-0.55422329902648926,0.85956478118896484,-0.12173999845981598,-0.54821133613586426, 0.080438464879989624,0.094757869839668274,0.062824606895446777,0.34858322143554688,0.0029653515666723251,-0.087572470307350159,-0.042437892407178879,-0.23629555106163025, 
  /* [3][1][][] */ -0.38946542143821716,-0.19002220034599304,0.12978385388851166,0.028721926733851433,-0.0058677145279943943,-0.43243759870529175,0.053829599171876907,0.030983252450823784, -0.35869598388671875,0.41403034329414368,0.18473795056343079,-0.40117281675338745,-0.33004599809646606,0.044616006314754486,-0.055550370365381241,-0.093984238803386688, 0.087194584310054779,-0.073899172246456146,-0.021860180422663689,-0.17478872835636139,-0.082426518201828003,0.18657976388931274,-0.30972617864608765,-0.16796836256980896, 
  /* [3][2][][] */ -0.35024845600128174,-0.51969552040100098,-0.21250486373901367,-0.01679588295519352,-0.40156015753746033,0.035001009702682495,0.077173441648483276,-0.3748185932636261, -0.33286881446838379,0.12331228703260422,0.023282382637262344,0.10621966421604156,0.22790850698947906,-0.13382749259471893,0.026524921879172325,-0.01003361027687788, -0.022947376593947411,0.23072868585586548,0.086188964545726776,-0.26304581761360168,-0.2176554799079895,0.32305169105529785,0.040738407522439957,0.12761497497558594, 
  /* [4][0][][] */ -0.1702883392572403,-0.44575726985931396,-0.34819099307060242,-0.33896899223327637,-0.20994463562965393,-0.066166616976261139,0.10134954005479813,-0.061953429132699966, -0.14225569367408752,-0.56462734937667847,-0.94793081283569336,0.36847218871116638,-0.039452098309993744,0.15999813377857208,-0.055975563824176788,-0.89321982860565186, 0.25007665157318115,-0.25408509373664856,-0.040841858834028244,0.48000097274780273,0.1441093385219574,-0.0096057523041963577,0.021736683323979378,0.085392631590366364, 
  /* [4][1][][] */ -0.16282655298709869,-0.61724680662155151,-0.57495343685150146,-0.080191969871520996,-0.26347562670707703,-0.57084786891937256,-0.16884715855121613,-0.51105821132659912, -0.34729844331741333,-0.59958970546722412,-0.28002345561981201,-0.22922995686531067,-0.42053139209747314,0.49208620190620422,-0.33266285061836243,-0.41620352864265442, 0.1036628931760788,-0.38843518495559692,-0.38071587681770325,0.20148253440856934,0.00086635246407240629,-0.21723103523254395,-0.059673253446817398,-0.27848917245864868, 
  /* [4][2][][] */ -0.70406037569046021,-0.642963707447052,-0.74039936065673828,-0.51065582036972046,-0.90064990520477295,-0.013717954978346825,-0.56271159648895264,-0.85731047391891479, -0.19788253307342529,0.21344012022018433,0.13117657601833344,-0.41381466388702393,0.20450983941555023,0.35163310170173645,-0.046956997364759445,-0.0055640442296862602, 0.12801460921764374,-0.011725171469151974,-0.099029555916786194,-0.3278898298740387,-0.25497168302536011,0.043343421071767807,0.13757166266441345,-0.19567745923995972, 
  /* [5][0][][] */ 0.16606684029102325,-0.23465090990066528,-0.60981112718582153,-0.1215079128742218,-0.17999447882175446,0.32673913240432739,-0.23074063658714294,-0.21522817015647888, 0.050171144306659698,-0.45177650451660156,-0.31889969110488892,0.20853224396705627,0.16069449484348297,-0.33854544162750244,-0.12779828906059265,-0.4142301082611084, -0.45498722791671753,0.00807217787951231,0.13153788447380066,0.070727743208408356,-0.07163306325674057,0.10948193073272705,-0.19757187366485596,-0.0023152225185185671, 
  /* [5][1][][] */ -0.044777579605579376,-0.45121520757675171,-0.17174652218818665,-0.37083891034126282,-0.49813279509544373,-0.0189987663179636,-0.77146655321121216,0.13980092108249664, -0.067244343459606171,-0.061308570206165314,0.17404232919216156,-0.16909947991371155,-0.081914886832237244,-0.10529591143131256,-0.40064403414726257,-0.44548365473747253, -0.18533313274383545,-0.061078347265720367,-0.39084663987159729,-0.097335442900657654,-0.30473795533180237,0.19275671243667603,-0.081213183701038361,-0.17081412672996521, 
  /* [5][2][][] */ -0.021105371415615082,-0.3329625129699707,-0.16936331987380981,-0.097370810806751251,-0.13294684886932373,0.30696097016334534,-0.33307823538780212,0.059463530778884888, -0.19153083860874176,-0.12184193730354309,-0.1616818904876709,-0.10169778764247894,-0.066589877009391785,-0.037698987871408463,0.1285424679517746,-0.24164809286594391, -0.1937120258808136,0.0034055362921208143,-0.24525988101959229,-0.18963120877742767,-0.15370404720306396,-0.47705483436584473,0.013891116715967655,-0.22529463469982147, 
  /* [6][0][][] */ 0.21110644936561584,-0.43442490696907043,-0.51642197370529175,-0.018052557483315468,0.20081987977027893,-0.020955599844455719,0.066468104720115662,-0.26227128505706787, 0.20419603586196899,-0.26517671346664429,-0.16583891212940216,4.0280374378198758e-05,0.39833465218544006,0.48398399353027344,-0.14435477554798126,-0.013344977051019669, -0.074663609266281128,-0.18882964551448822,-0.20801250636577606,-0.016962179914116859,-0.24574162065982819,-0.071376509964466095,0.15104299783706665,-0.31183835864067078, 
  /* [6][1][][] */ -0.048428419977426529,-0.13272859156131744,-0.40561342239379883,-0.19482599198818207,-0.52018404006958008,-0.31682446599006653,-0.13536770641803741,-0.47709116339683533, 0.4777086079120636,-0.38426101207733154,-0.24629995226860046,-0.12495070695877075,0.47031033039093018,-0.097281619906425476,-0.073266290128231049,-0.2187986820936203, -0.18772324919700623,-0.19992944598197937,-0.50095170736312866,-0.20363700389862061,-0.20614422857761383,0.075300619006156921,-0.087201513350009918,-0.5248374342918396, 
  /* [6][2][][] */ -0.068785741925239563,-0.23386046290397644,-0.36082503199577332,-0.23705239593982697,-0.046953782439231873,-0.066090069711208344,-0.30179122090339661,-0.20218364894390106, 0.29236835241317749,-0.18899355828762054,-0.30814281105995178,-0.10245335102081299,0.31639832258224487,0.14603322744369507,0.3415820300579071,0.10324522852897644, -0.029125196859240532,0.11960885673761368,-0.34337460994720459,-0.024155423045158386,-0.19423191249370575,-0.32795464992523193,0.017792664468288422,0.085811898112297058, 
  /* [7][0][][] */ -0.22973738610744476,0.038563381880521774,-0.044909536838531494,-0.21331053972244263,0.10655868053436279,-0.086108319461345673,-0.22040301561355591,-0.18415836989879608, -0.072854220867156982,-0.49936622381210327,-0.50779533386230469,0.067545183002948761,0.4278101921081543,0.19542677700519562,-0.139447882771492,-0.34525343775749207, 0.095494203269481659,-0.18289875984191895,-0.33451372385025024,-0.097808972001075745,0.0046282536350190639,-0.070839881896972656,-0.13809517025947571,-0.26168739795684814, 
  /* [7][1][][] */ -0.13789172470569611,0.31651243567466736,-0.21051380038261414,0.11538852751255035,0.38175204396247864,-0.048420663923025131,-0.069052137434482574,-0.26774945855140686, 0.061872351914644241,-0.27931872010231018,-0.10866407305002213,0.072502784430980682,0.20355165004730225,-0.037992186844348907,-0.20534446835517883,0.029387000948190689, 0.26686197519302368,0.088910870254039764,-0.40996646881103516,-0.23984776437282562,0.2062145471572876,-0.24463003873825073,-0.042432971298694611,-0.25459852814674377, 
  /* [7][2][][] */ 0.013228892348706722,0.32752305269241333,0.16890546679496765,0.37574875354766846,0.51569533348083496,-0.16657109558582306,-0.21499598026275635,-0.22316637635231018, -0.3040744960308075,-0.48122087121009827,-0.097699567675590515,0.054250206798315048,-0.10852932929992676,-0.15359048545360565,-0.19758762419223785,0.023563168942928314, 0.27286836504936218,0.28393197059631348,-0.18903446197509766,-0.28591912984848022,-0.20264559984207153,-0.11375154554843903,-0.59529203176498413,-0.17096571624279022, 
  /* [8][0][][] */ -0.30803394317626953,-0.56238245964050293,-0.12621483206748962,-0.44130596518516541,-0.12608833611011505,0.064222261309623718,-0.043490074574947357,-0.19684760272502899, 0.056201253086328506,0.18606856465339661,0.094230607151985168,0.027256786823272705,0.32716310024261475,0.46326610445976257,0.27107799053192139,0.02187490276992321, 0.153814896941185,0.031832702457904816,0.060727126896381378,-0.037492278963327408,0.051520586013793945,0.13273884356021881,0.044020388275384903,0.13159313797950745, 
  /* [8][1][][] */ -0.75182038545608521,-0.56504982709884644,-0.67836403846740723,-0.43127566576004028,-0.20264016091823578,-0.14302431046962738,-0.15875041484832764,-0.25090408325195312, -0.11840201914310455,-0.24903824925422668,-0.015421319752931595,-0.17586985230445862,0.095432043075561523,0.38142052292823792,-0.12541165947914124,-0.11206865310668945, -0.09837360680103302,0.089613653719425201,0.089129440486431122,0.16874644160270691,0.01552762184292078,-0.36530700325965881,0.13544578850269318,0.01813863217830658, 
  /* [8][2][][] */ -0.44600310921669006,-0.58443951606750488,-0.72380375862121582,-0.27296477556228638,-0.067169785499572754,-0.39730191230773926,-0.12573513388633728,-0.4311944842338562, -0.52705419063568115,-0.18616461753845215,-0.14224183559417725,-0.46191611886024475,-0.49225756525993347,0.44017422199249268,0.33951708674430847,-0.21100129187107086, -0.047845561057329178,0.048580557107925415,0.029437636956572533,0.0091867996379733086,-0.047920584678649902,0.059411052614450455,0.032077889889478683,-0.12079305201768875, 
  /* [9][0][][] */ -0.29136848449707031,-0.38067036867141724,-0.33822193741798401,-0.065421290695667267,-0.45141398906707764,-0.023588500916957855,-0.30794656276702881,-0.64625692367553711, -0.043361354619264603,-0.092751100659370422,-0.3381621241569519,-0.21134720742702484,-0.17945599555969238,0.13306768238544464,0.12996029853820801,-0.53133487701416016, 0.083872854709625244,-0.037265673279762268,0.19436189532279968,-0.31305977702140808,-0.23036943376064301,0.070441499352455139,0.0030776709318161011,-0.1863759458065033, 
  /* [9][1][][] */ -0.32035765051841736,0.37420493364334106,0.11398752778768539,0.038866780698299408,-0.51341831684112549,0.37096065282821655,-0.57900148630142212,-0.10745477676391602, -0.40488740801811218,-0.08614262193441391,-0.0052096988074481487,-0.37655180692672729,0.13398197293281555,0.23256950080394745,0.075265005230903625,0.19188772141933441, -0.096314609050750732,-0.62613785266876221,-0.31540784239768982,-0.27330666780471802,-0.046766526997089386,0.091023415327072144,-0.2528456449508667,-0.14658105373382568, 
  /* [9][2][][] */ -0.11906549334526062,0.2861277163028717,0.0050966581329703331,-0.16326825320720673,-0.67648482322692871,0.013697028160095215,-0.043459873646497726,0.011047647334635258, 0.14796045422554016,-0.22310540080070496,-0.10495604574680328,-0.07399442046880722,0.44407743215560913,-0.20048709213733673,-0.10674139112234116,0.33874014019966125, 0.19404351711273193,-0.36227360367774963,-0.24525555968284607,0.0066301021724939346,0.15843203663825989,-0.20140756666660309,0.059369154274463654,0.078744590282440186, 
  /* [10][0][][] */ -0.63550060987472534,-0.32911717891693115,-0.27094793319702148,-0.086566165089607239,-0.2870883047580719,-0.14132896065711975,-0.15297392010688782,-0.43444734811782837, 0.37550577521324158,0.38975536823272705,-0.19997261464595795,0.14645452797412872,-0.1083775982260704,-0.24083155393600464,-0.22546659409999847,-0.65965694189071655, -0.029900703579187393,-0.13786271214485168,0.030066000297665596,-0.26825934648513794,0.23107799887657166,0.065302692353725433,0.034714009612798691,0.10750749707221985, 
  /* [10][1][][] */ -0.43535256385803223,0.066652081906795502,-0.44292235374450684,-0.039878007024526596,-0.46304929256439209,-0.79827260971069336,-0.24730034172534943,-0.43544173240661621, 0.27402627468109131,0.11510363221168518,-0.10925887525081635,0.093451008200645447,-0.11095567792654037,-0.10514142364263535,-0.79271179437637329,-0.51573550701141357, -0.10055891424417496,-0.092394270002841949,-0.027554631233215332,-0.54099577665328979,-0.040406141430139542,0.10143726319074631,-0.019011624157428741,0.15653526782989502, 
  /* [10][2][][] */ -0.16527923941612244,-0.45500949025154114,-0.83683520555496216,-0.040503878146409988,-0.19862274825572968,-0.4733288586139679,0.081085376441478729,-0.58194458484649658, 0.058360889554023743,0.067049518227577209,-0.31553024053573608,0.15002270042896271,-0.10845308750867844,-0.49712392687797546,-0.56636792421340942,-0.49286231398582458, 0.15348385274410248,0.012079079635441303,0.10672322660684586,-0.60219389200210571,-0.3604826033115387,0.12150003015995026,-0.2999194860458374,0.038274176418781281, 
  /* [11][0][][] */ -0.21966941654682159,0.05550670251250267,0.34483790397644043,0.18172912299633026,-0.062843635678291321,-0.46875885128974915,0.11626259982585907,-0.017019044607877731, 0.03889910876750946,0.19596576690673828,0.12633903324604034,-0.15682657063007355,-0.75714635848999023,-0.14493860304355621,0.55020415782928467,-0.010314853861927986, -0.0092169921845197678,-0.080196857452392578,-0.20587387681007385,0.30914944410324097,0.29326802492141724,-0.030379856005311012,-0.36542758345603943,-0.076551616191864014, 
  /* [11][1][][] */ -0.11466681957244873,-0.64810973405838013,-0.4765852689743042,0.0033295587636530399,-0.29511359333992004,-0.41813373565673828,0.27447071671485901,-0.077164970338344574, -0.36519062519073486,-0.049351643770933151,0.23192691802978516,0.27704861760139465,-0.34154221415519714,-0.28137999773025513,0.10921863466501236,-0.094575069844722748, 0.037988103926181793,-0.62840837240219116,-0.51402401924133301,-0.11616412550210953,0.14269831776618958,0.021667005494236946,-0.48001274466514587,0.16964803636074066, 
  /* [11][2][][] */ 0.10138744115829468,-0.75952136516571045,-0.71240395307540894,0.16259768605232239,-0.35675278306007385,-0.36530977487564087,-0.25412309169769287,-0.99411255121231079, -0.59219902753829956,0.21628709137439728,-0.063077576458454132,0.20755490660667419,-0.16345275938510895,-0.027660530060529709,-0.50382673740386963,-0.22711530327796936, -0.038200408220291138,-0.45462951064109802,-0.30401864647865295,-0.025317801162600517,0.11477047950029373,0.057340152561664581,-0.47196850180625916,0.116808220744133, 
  /* [12][0][][] */ -0.612640380859375,0.17431829869747162,-0.10913059860467911,-0.18542279303073883,-0.38197517395019531,0.1338687390089035,-0.15380746126174927,-0.17875510454177856, -0.13830654323101044,0.15276472270488739,0.49410358071327209,-0.046032916754484177,-0.013874527998268604,-0.34170344471931458,0.084194257855415344,0.27548614144325256, -0.036020237952470779,0.05660734698176384,0.25076845288276672,-0.43462714552879333,-0.20738480985164642,0.03543945774435997,0.23927855491638184,-0.010163679718971252, 
  /* [12][1][][] */ -0.7385183572769165,0.1091412752866745,0.22137652337551117,-0.28851863741874695,-0.50513648986816406,0.069225341081619263,-0.27398335933685303,0.063121840357780457, -0.24884921312332153,-0.19196240603923798,-0.16979698836803436,0.04114900529384613,-0.020811548456549644,-0.15248121321201324,0.11906267702579498,0.20712366700172424, 0.0010295782703906298,0.075087040662765503,-0.2617436945438385,-0.023054769262671471,-0.14060078561306,-0.32471412420272827,0.049905106425285339,-0.12246481329202652, 
  /* [12][2][][] */ -0.25892829895019531,-0.21776957809925079,0.46442854404449463,-0.5326225757598877,-0.26145708560943604,-0.038292109966278076,0.043386708945035934,0.27833902835845947, -0.034293629229068756,-0.73932641744613647,-0.41775906085968018,0.16387189924716949,-0.36768040060997009,-0.68500816822052002,-0.066956676542758942,-0.2824801504611969, 0.036687444895505905,-0.14453427493572235,-0.026596112176775932,0.45888352394104004,-0.011445179581642151,-0.37849357724189758,-0.017691278830170631,-0.037397164851427078, 
  /* [13][0][][] */ -0.23696495592594147,-0.00010118934005731717,-0.082003235816955566,-0.06606641411781311,-0.3257845938205719,0.24980656802654266,-0.17760036885738373,-0.075228862464427948, -0.13550165295600891,-0.18618780374526978,0.023967757821083069,-0.21001128852367401,-0.054755397140979767,0.0027825790457427502,0.16265557706356049,-0.030856486409902573, -0.1905674934387207,0.00038273865357041359,0.13320575654506683,0.041486002504825592,-0.32535937428474426,0.038822043687105179,0.10704485327005386,0.016413327306509018, 
  /* [13][1][][] */ -0.12437447160482407,0.10492107272148132,0.24116286635398865,-0.11813574284315109,-0.2913438081741333,0.10386429727077484,0.49523836374282837,0.19803230464458466, -0.12940606474876404,0.063149571418762207,-0.1167682409286499,-0.15572647750377655,-0.011011214926838875,-0.032306745648384094,0.026705516502261162,0.12999482452869415, -0.057737007737159729,-0.0036584120243787766,0.082349948585033417,-0.077963069081306458,-0.43270584940910339,0.15229395031929016,0.17541892826557159,-0.025534093379974365, 
  /* [13][2][][] */ -0.077842153608798981,-0.32020795345306396,-0.17783486843109131,-0.2526373565196991,-0.45780616998672485,0.11725006997585297,0.15096339583396912,-0.046835247427225113, 0.10299434512853622,-0.16961951553821564,-0.18351271748542786,0.079795092344284058,-0.099391229450702667,-0.10083812475204468,0.3556722104549408,-0.12013623863458633, -0.19630929827690125,0.16790731251239777,0.24726486206054688,-0.057030577212572098,-0.21799404919147491,0.18050819635391235,0.00023017777130007744,0.048914570361375809, 
